1000 30
694 0.118457 -0.0392218 -0.369314 -0.00665761 -0.219324 0.392145 0.35099 0.275071 0.0256836 0.125453 -0.117288 -0.112065 0.715369 0.290482 0.0257108 -0.29779 -0.659901 -0.270734 -0.229277 -0.160993 -1.68216 -0.025174 -0.190753 -0.328847 -0.164941 0.367572 -0.262133 0.192642 -2.09423 -1.09733
867 0.329891 -0.0176547 -0.242171 -0.034899 -0.294635 0.490276 -0.00551973 0.190734 0.162716 -0.140403 0.0625143 -0.156725 0.410693 0.365995 -0.106878 -0.53339 -0.722572 -0.401429 -0.12034 0.0764234 -1.46436 -0.0493421 0.0735517 -0.146773 -0.177135 -0.00249818 -0.338237 -0.0235917 -1.7668 -1.17717
935 -0.00955146 -0.0474401 0.0731773 0.143348 -0.149155 0.0985633 0.029485 0.12575 0.242737 -0.100349 0.0324403 -0.1046 0.0779452 0.239233 0.0180975 -0.351176 -0.352944 -0.293811 -0.0708947 -0.00835747 -1.06693 0.0322252 -0.213157 -0.0155149 -0.248708 -0.205723 -0.153742 0.330342 -1.67895 -0.515477
953 0.182488 -0.120203 0.362219 0.0836131 -0.417448 0.236114 0.737457 0.0764263 0.232132 -0.453638 0.232773 0.118568 -0.093338 0.3103 0.0871153 -0.724091 -0.771638 0.0631344 -0.183303 0.0119177 -1.425 0.111235 -0.271229 0.0429423 -0.634139 -0.452269 -0.413832 0.967095 -2.54033 0.0282272
0 -0.333373 -0.0520178 -0.163558 -0.583722 0.027208 -0.149704 0.216734 -0.152805 1.21923 -0.986952 0.767642 -1.40943 0.768112 1.47331 -0.107329 0.102874 -0.585555 0.296424 0.083636 -0.204042 -2.34872 -0.391494 -0.0682445 -0.422932 -0.843768 0.755512 -1.25922 0.895196 -2.2104 -1.97908
844 -0.283613 -0.358251 0.301801 0.300378 -0.196842 0.415016 0.158804 -0.0927904 -0.207386 -0.00541536 -0.0434822 0.175891 -0.398939 1.01112 -0.129124 -0.564368 0.233121 0.327272 -0.0960013 -0.309503 -1.56392 -0.894666 -0.0150176 -0.133495 -0.294848 -0.198854 -0.537694 0.632971 -1.79018 -0.525056
878 -0.43168 -0.17343 0.102021 0.334747 -0.209319 0.410214 0.168792 -0.399002 0.076887 0.135989 0.0221216 0.429466 0.279048 1.02711 -0.166776 -0.83721 0.0250937 0.368533 0.0251761 -0.405475 -1.83773 -0.796507 -0.104707 -0.330825 -0.10029 -0.186603 -0.798328 0.574171 -1.80737 -1.11853
974 0.777022 -1.03325 0.48444 0.726907 -0.103506 -0.569458 0.814271 1.50342 0.272829 -0.360689 0.22645 -0.516833 -0.577559 0.205459 0.634541 -0.746811 -0.876318 -0.482101 -0.585392 -0.820649 -0.893926 -0.402667 0.239924 -0.0498508 -0.663227 0.0200947 -0.568953 -0.613027 -1.71052 -1.13466
843 -0.206409 -0.123919 -0.244908 0.12893 -0.158047 0.608266 0.20732 0.172033 -0.0470856 -0.142165 0.0848848 0.242953 0.622603 0.796351 0.153983 0.190079 -0.89732 -0.222775 0.271359 -0.0406036 -1.97821 -0.402451 -0.477488 0.191452 0.0522 0.273296 -0.652557 0.364971 -2.53525 -1.92504
855 -0.210185 -0.214768 -0.306971 0.0178089 -0.243791 0.480297 0.292252 0.265218 0.0823394 -0.332793 0.0112336 0.366774 0.689462 0.564032 0.0664148 0.147687 -0.922849 -0.0783537 0.0703769 -0.094742 -1.76466 -0.456074 -0.644945 0.0458323 -0.0862674 0.328428 -0.433076 0.41274 -2.40285 -1.47119
868 -0.308289 -0.16036 -0.293913 0.118875 -0.230109 0.636757 0.193648 0.28933 0.0136128 -0.22817 -0.0171927 0.21691 0.440553 0.719589 0.220622 0.109167 -1.02342 0.026369 -0.154238 -0.257433 -2.08592 -0.543567 -0.518571 -0.0158385 -0.0742353 0.356273 -0.541651 0.350475 -2.56717 -1.53941
871 -0.3459 -0.482356 -0.206417 0.276537 -0.509773 0.682477 0.404155 0.301141 -0.0756696 -0.34258 0.0880227 0.0853152 0.259457 0.967673 -0.0137233 0.1314 -0.990408 0.0326192 0.358375 0.155643 -2.01814 -0.5875 -0.222971 0.248964 -0.166084 0.0825299 -0.407595 0.549025 -2.39422 -1.56878
916 -0.304054 -0.341908 -0.492158 0.00444962 -0.511027 0.651921 0.339893 0.313941 0.040942 -0.423518 0.0832689 0.145659 0.463227 0.64519 0.289679 -0.0320573 -0.828604 -0.199384 0.35771 0.0615388 -1.8922 -0.362095 -0.454639 0.222338 -0.15168 0.369102 -0.613567 0.279907 -2.36736 -1.98365
948 -0.285289 -0.0275026 -0.480767 0.236864 -0.837845 0.327458 1.05689 0.275724 0.518919 -0.5785 0.182254 0.568482 1.10222 -0.0909697 -0.214491 0.0759121 -0.764914 0.692974 0.0931097 -0.0652724 -1.75353 -0.612269 0.205804 0.962924 -0.210251 0.120552 0.149411 1.07243 -1.78788 -1.27235
960 -0.0141364 -1.05112 -0.0361684 0.643543 -0.887297 0.105567 1.51248 0.854144 0.450006 -0.501927 0.265168 -0.061436 -0.181759 0.480635 0.169314 0.187237 -0.923912 0.150002 -0.273857 -0.474246 -1.07179 -0.510363 -0.658931 0.826962 -0.583336 -0.146213 -0.420038 0.402105 -2.10996 -0.943653
626 0.114693 -0.0768001 -0.00690952 0.249689 -0.197756 0.523225 0.293062 -0.0866333 -0.069654 -0.0127485 -0.0784923 0.0451834 0.185758 0.791025 -0.0759468 0.0192456 -0.420558 -0.156664 -0.104294 0.0254483 -1.58004 -0.471056 -0.329044 -0.125248 -0.232172 0.149453 -0.368483 0.416224 -2.0947 -0.6436
861 0.050187 -0.0416012 0.359928 -0.00424967 -0.235608 0.488981 0.00997823 0.0539116 -0.369484 -0.30187 -0.0632997 0.298907 -0.250921 0.666646 -0.245836 -0.0359989 -0.372365 -0.362776 0.109258 0.143246 -1.70208 -0.18471 -0.406694 -0.123279 -0.42916 0.270665 -0.491126 0.36416 -2.14551 -0.602341
951 0.426396 0.046256 0.282064 0.15343 -0.380431 0.330479 -0.233925 0.232271 -0.14629 -0.413791 -0.146928 0.11796 -0.616251 0.784397 -0.157774 -0.700027 -0.616798 0.0684556 0.521607 0.187992 -1.42426 -0.106885 -0.37671 0.366131 -0.0527544 0.0689253 -0.7925 0.460405 -1.99695 -1.31791
987 0.385612 -0.347775 -0.0935016 0.29057 -0.359516 0.224003 0.160842 0.427957 -0.00154933 -0.458796 0.0232642 0.076587 -0.51858 0.330922 -0.275561 -0.74457 -0.461255 0.239902 0.0237785 -0.0492764 -1.35844 -0.129077 -0.410762 0.815943 -0.303911 -0.246999 -0.766889 0.575565 -2.20678 -0.825883
54 0.244125 -0.146356 0.2093 0.0220026 0.0361001 0.0688261 0.0654662 0.0219362 -0.128229 0.0628155 -0.411024 -0.00665806 0.131027 0.468522 -0.175736 -0.504342 0.00426318 -0.0351218 0.154841 0.346328 -1.44257 -0.112801 -0.057205 -0.403649 0.0190768 0.220887 -0.520661 0.470922 -1.73701 -0.626972
438 -0.0716462 -0.01272 0.10914 0.0205633 0.323423 0.0464635 0.208461 -0.216183 -0.463694 -0.159231 -0.183887 -0.14569 0.181333 0.409579 0.201715 -0.261563 -0.331535 -0.268535 0.220918 0.239154 -1.41553 0.0842105 -0.156958 -0.346218 -0.00832645 0.113695 -0.610323 0.362808 -1.80138 -1.20283
542 0.0568672 -0.00842334 0.051989 -0.109606 0.0162108 0.345088 0.260074 0.182827 -0.502045 -0.556423 -0.168942 -0.187446 0.430513 0.447059 0.0890772 -0.62605 -0.276035 0.0640883 0.115813 0.286835 -1.65932 -0.252548 -0.197963 -0.211889 -0.107066 0.336731 -0.635972 0.446467 -1.94436 -1.4267
815 -0.158739 0.177659 0.0248778 -0.0904449 -0.127024 0.333411 0.695033 -0.070942 -0.377879 -0.523796 -0.0774889 -0.00685979 0.601707 0.235071 0.155465 -0.542934 -0.107843 -0.0100711 0.0392242 0.330422 -1.70626 0.324644 -0.300803 -0.241326 -0.0721853 0.233768 -0.461665 0.406264 -1.76375 -1.50746
952 0.284861 -0.123507 0.235739 0.208618 -0.182559 0.0897041 0.384138 0.0418149 0.31269 -0.407622 -0.00207963 0.31393 0.287685 0.0835957 0.366888 -0.504294 -0.150723 0.0480707 -0.160397 -0.0868968 -1.26476 -0.0838244 -0.269944 0.0735115 -0.375094 -0.260131 -0.569909 0.617955 -2.22048 -0.591823
704 0.175904 -0.113112 -0.120505 0.225631 -0.237615 0.586087 0.480289 -0.230267 -0.0426353 0.0982973 -0.252735 -0.0127301 0.0945843 0.682565 0.322548 -0.36672 -0.0883914 0.238534 0.0290541 -0.135089 -1.4378 -0.285986 -0.170545 0.290628 0.061211 0.0865905 -0.587972 0.342031 -1.56695 -1.60228
771 0.0822438 -0.0568565 -0.202392 0.146397 -0.419849 0.483633 0.899956 -0.208337 0.0190161 -0.2166 -0.148518 0.104683 0.106169 0.713303 0.228293 -0.481625 -0.12417 0.239379 0.0567862 -0.20563 -1.73412 -0.712359 -0.0652401 0.0231767 -0.0777267 0.118717 -0.583773 0.211081 -1.42026 -1.63185
943 0.374307 -0.669969 0.216871 0.551996 -0.552198 -0.0433687 0.636238 0.351085 0.625562 -0.00944591 0.034532 0.190921 -0.526087 0.38879 0.636325 -0.586682 0.0783017 0.413724 -0.0443232 -0.350209 -0.995493 -0.508234 -0.250036 0.682319 -0.247572 -0.257812 -0.600836 0.668507 -2.04 -0.61868
115 0.215681 0.138478 -0.124451 0.143858 -0.00560716 0.5694 0.256999 -0.0426849 0.0319316 0.0204355 -0.205268 -0.0578814 -0.217334 1.01491 -0.0439227 0.112999 -0.43571 -0.0635027 0.113844 0.0653285 -1.86724 0.186511 -0.108283 0.0971134 0.0230919 0.122776 -0.631385 0.473605 -1.89323 -1.15079
742 0.174006 0.153342 0.121711 0.101461 -0.122105 0.586632 0.0765011 -0.102437 -0.341688 -0.322429 -0.240949 0.0745021 -0.184018 0.786373 0.0260559 -0.0349829 -0.587834 -0.0153325 0.26089 0.000809049 -1.96952 -0.216111 -0.347758 0.181043 0.0089211 0.227764 -0.662972 0.36852 -1.88674 -1.71639
900 0.309654 -0.0272545 0.142794 0.0635429 -0.340508 0.285873 -0.32334 0.416609 -0.213621 -0.407958 -0.11534 -0.0679225 -0.711802 0.836298 -0.194506 -0.830954 -0.736409 0.0966473 0.367016 0.200359 -1.70042 -0.095564 -0.360118 0.723971 -0.0435873 -0.0285501 -0.810981 0.394035 -1.95473 -1.56716
388 -0.155491 -0.0520567 0.0703312 0.222112 0.0217256 0.351355 -0.0847274 0.390028 -0.0241451 -0.105907 -0.300192 0.00550759 0.406705 0.593544 0.302872 0.295238 -0.0835287 -0.104876 -0.341293 0.0124714 -1.59703 -0.255787 -0.294251 -0.382682 -0.0104591 0.242209 -0.427593 0.393102 -1.78185 -1.25015
519 0.204426 -0.166597 -0.159825 -0.046006 0.039736 0.296938 0.175436 0.315187 -0.0697017 -0.27668 -0.180122 0.0211456 0.452513 0.228362 0.29087 -0.0991691 -0.521918 -0.216954 -0.335238 -0.0745694 -1.65392 -0.450804 -0.25835 -0.520483 -0.167638 0.20829 -0.262285 0.285863 -2.07438 -1.18048
921 0.00732785 -0.137022 -0.0764672 0.179168 -0.1166 0.323553 -0.0819557 0.312303 0.0151132 -0.137457 -0.132423 0.266992 0.810682 0.376246 0.291834 -0.171048 -0.556218 0.0895043 -0.79944 -0.638188 -1.66577 -0.919343 -0.431288 -0.581918 -0.338594 0.0861026 -0.347703 0.5434 -2.41114 -1.18769
970 -0.254614 -0.472683 -0.272574 0.0794329 -0.336713 -0.0164459 0.224835 0.375348 0.205629 -0.443527 -0.117496 0.428492 1.02779 0.169352 0.611696 -0.567838 0.269741 0.556015 -1.13667 -0.627379 -1.45909 -0.674206 -0.673328 -0.718442 0.185207 0.246776 0.18688 0.5731 -2.10578 -1.71627
995 0.0726724 -0.399278 0.231741 0.121863 -0.314062 0.0720832 -0.0318237 0.532366 0.42393 -0.279687 0.14757 0.100527 0.408861 0.181782 0.386988 -0.369253 -0.766371 -0.0212138 -0.934881 -0.619351 -1.32455 -0.83966 -0.481726 -0.327932 -0.608472 -0.390416 -0.611001 0.617616 -2.43821 -0.396499
459 0.145452 0.0323103 0.06973 -0.172947 0.0271648 0.0958815 0.251804 -0.179308 -0.00434108 0.249417 -0.361633 0.0278232 0.303246 0.559341 0.266902 0.203089 -0.302787 0.145345 0.259478 0.163321 -1.57056 -0.627263 0.249012 -0.162809 0.0172134 0.156486 -0.705418 0.398786 -1.92901 -0.914599
563 0.0620271 0.216598 -0.0709793 0.0683383 0.134067 0.0860015 0.344671 0.2601 0.120588 0.1415 -0.172065 -0.0537114 0.34313 0.536794 0.373581 0.196912 -0.556386 -0.247991 0.46901 0.207001 -1.58594 -0.146797 0.0168165 0.0126416 0.0645285 0.258867 -0.654066 0.171774 -1.48828 -1.68117
911 0.219786 -0.437042 -0.106386 0.0876412 -0.538919 0.261315 0.624176 0.0324693 0.652067 -0.0462334 0.00749595 0.19413 0.317314 0.722622 0.689674 -0.23278 -1.25891 0.163417 0.350612 -0.221697 -1.63588 -0.783868 0.384773 -0.223743 -0.0531313 -0.0543642 -0.449793 0.32744 -1.89932 -1.92533
917 0.277424 -0.310578 -0.111756 -0.0462987 -0.294311 0.244506 0.458818 0.161686 0.298526 0.0540948 0.0315063 -0.0330351 0.491272 0.663836 0.795827 -0.251172 -0.997723 -0.10026 0.503231 -0.194906 -1.72096 -0.950586 0.290985 -0.0758559 -0.232515 0.0724141 -0.686326 0.177381 -1.98974 -1.9096
938 -0.417861 -0.536999 -0.2895 0.183992 -0.481889 0.323723 0.517582 0.103474 1.0236 0.360037 0.182374 0.0426488 0.347982 0.6315 0.766537 -0.48693 -0.993992 0.115196 0.524034 -0.385928 -1.91412 -0.891724 0.431694 -0.369584 -0.517855 -0.444025 -0.753358 0.00516372 -1.92968 -1.3376
851 0.075603 -0.078827 -0.538239 0.209768 -0.697956 0.554953 1.01079 0.205407 0.124926 0.0399283 -0.179866 0.116501 0.119376 0.873733 0.392109 -0.714035 0.0929417 0.251108 0.293885 -0.0486556 -1.66038 -0.449426 0.106235 0.356472 0.118853 0.152542 -0.341711 0.29028 -1.73826 -1.97935
862 0.632962 -0.0723086 -0.0379213 -0.0677165 -0.456513 0.251855 0.361004 -0.238525 0.135057 0.178218 -0.0860017 0.0754393 0.103473 0.643359 0.573176 -0.57565 -0.132336 0.339835 0.357165 -0.0846725 -1.67325 -0.617887 -0.0728393 0.105665 0.134646 -0.106768 -0.614654 0.582307 -1.81461 -2.05156
906 0.314754 -0.318571 -0.0369611 0.194662 -0.527873 0.324926 0.126822 -0.212132 0.433227 0.178538 -0.152377 0.173344 0.0114343 0.917265 0.837172 -0.705129 -0.501875 0.110602 0.470278 -0.021207 -1.6256 -0.66904 0.084324 0.267475 0.171358 0.0129131 -0.641863 0.402847 -1.91568 -1.89523
980 0.759544 -0.132292 0.620181 0.238718 -0.12288 -0.234355 0.981025 0.306266 0.427165 -0.600714 0.273843 -0.0805485 -0.0148243 0.477886 1.08666 -0.435554 -1.25912 -0.0155885 0.429037 -0.152638 -1.53506 -0.0462849 -0.0757175 -0.511043 -0.362033 -0.27055 -0.289623 0.199443 -1.96365 -1.17525
983 0.223361 -0.879293 0.220907 0.323488 -0.344088 -0.0650875 0.407402 0.238362 0.949208 -0.142903 0.097063 -0.0455451 0.363144 -0.225656 1.26473 -0.542191 -1.04201 -0.130774 0.0683798 -0.0226294 -1.02698 -0.154589 0.35371 -0.00707329 -0.545018 -0.381692 -0.909648 0.617843 -2.29473 -0.73958
641 0.32615 0.159848 -0.287094 -0.0667852 -0.13389 0.477116 -0.141608 0.253827 0.145929 0.0492816 -0.237641 -0.0118216 0.386715 0.592446 0.0522494 -0.356037 -0.758135 -0.480761 -0.00418623 -0.0772518 -1.99763 0.039023 -0.122943 -0.134854 -0.31377 0.171338 -0.447487 0.314666 -2.16264 -1.29144
888 0.273697 0.0739609 -0.155358 -0.0316939 -0.392078 0.281807 0.60943 0.258049 0.126051 -0.288791 0.026602 -0.097452 0.845226 0.146481 0.329946 -0.750004 -0.617293 -0.171415 0.393849 0.0962634 -1.54793 -0.21315 0.48592 -0.321026 -0.227087 0.114752 -0.439297 0.0521105 -1.65381 -1.72013
958 0.147188 -0.0844968 -0.41029 0.172041 -0.561804 0.46828 0.489101 0.388847 0.423514 0.0378916 0.347091 0.12251 0.946429 0.520676 -0.306042 -0.727404 -0.994339 -0.120373 0.107216 -0.270084 -1.83408 -0.378421 0.0735598 -0.293591 -0.185943 0.0962031 -0.609202 -0.259044 -1.82301 -2.03876
972 0.198962 -0.746428 -0.295101 0.633453 -0.487979 0.452756 0.0538004 0.318124 0.627067 0.351827 0.371517 -0.00313499 0.458166 0.560119 -0.528085 -0.876599 -1.08948 0.242635 -0.399794 -0.615088 -1.79006 -0.870088 0.267148 0.178794 -0.477399 -0.425022 -0.749089 0.21991 -1.87724 -1.1218
465 0.176041 -0.0245658 -0.276415 0.200895 -0.0990969 0.370608 0.411587 0.101447 0.0139802 0.161953 -0.094071 -0.0194494 0.696272 0.54926 0.492782 -0.0898514 -0.658583 -0.285551 0.498737 0.112574 -1.84404 -0.724086 0.172509 -0.0993623 -0.0386498 0.1687 -0.862902 0.0983013 -2.09025 -1.63137
734 0.196781 -0.123041 -0.280372 -0.0786125 -0.274048 0.220582 0.332002 0.268975 0.280506 0.0901567 -0.0365832 0.0768499 0.489734 0.404753 0.590348 0.133595 -0.942422 -0.294841 0.455584 0.126711 -1.71299 -0.322126 0.0513734 -0.074247 -0.0625202 0.16565 -0.642871 0.0959453 -1.92527 -1.8431
833 0.331467 -0.0486303 -0.430315 0.00259462 -0.0983213 0.165043 0.504341 0.238096 0.214136 0.153532 -0.170235 -0.0641467 0.823165 0.518644 0.792576 -0.193626 -0.896993 -0.210657 0.525682 -0.0602361 -2.025 -0.60248 -0.0263074 -0.215579 -0.188488 0.145846 -0.800645 0.0545143 -2.34085 -2.08232
842 0.333296 0.00415783 -0.162372 0.032244 -0.153738 0.172159 0.671593 0.0864273 0.33235 -0.119465 0.0234653 -0.106424 0.550989 0.361682 0.473002 -0.363925 -1.09856 -0.118067 0.322405 0.000235182 -1.6475 -0.568559 0.105714 -0.418298 -0.223542 0.196227 -0.570356 0.021732 -1.89847 -1.92107
933 0.858779 -0.0756586 0.0278631 0.540713 -0.00693194 -0.439326 0.53984 0.417654 0.782561 0.0542949 0.0891189 0.0962513 0.862951 -0.293377 0.777521 0.248858 -0.293939 -0.121729 0.422471 -0.201272 -1.00836 -0.664366 -0.155976 -0.0647021 -0.3131 -0.506562 -0.610131 0.383055 -1.89117 -0.642981
853 0.139361 -0.199934 -0.305847 0.0376316 -0.498247 0.515966 0.294754 0.0277646 -0.331174 -0.554059 -0.22788 -0.179255 0.107989 0.776643 -0.221721 -0.161414 -0.988553 0.0501738 0.0726853 -0.1029 -1.97319 -0.470665 -0.549915 0.407395 0.0818503 0.338184 -0.572103 0.376806 -2.00464 -2.51898
890 0.189858 -0.0936524 -0.207202 -0.002311 -0.383612 0.435788 0.297599 -0.00939137 -0.227544 -0.64813 -0.286991 -0.0142107 -0.045334 0.727784 -0.282674 -0.10745 -0.890764 0.0976636 0.0400001 -0.0489314 -1.83252 -0.397528 -0.694885 0.240779 0.0593371 0.151325 -0.53584 0.342311 -1.89844 -2.22277
637 0.220589 0.027451 -0.113101 0.121605 -0.335326 0.570308 0.490307 0.0820758 -0.0142134 -0.0383531 -0.0406301 0.169624 0.0389912 0.76293 0.255678 -0.221739 -0.198362 0.284361 -0.0625467 -0.0922484 -1.66582 -0.524966 -0.150937 0.190604 0.0615293 0.161001 -0.446234 0.364064 -1.87378 -1.30591
654 0.21681 -0.153864 -0.043229 0.121323 -0.292219 0.621461 0.33052 -0.101122 0.163138 0.044297 -0.385758 0.126933 0.129791 0.769251 0.197782 -0.484661 -0.0975997 0.188343 0.091634 -0.0382815 -1.84699 -0.504849 -0.135698 -0.0482284 -0.0349221 0.186279 -0.493462 0.43295 -2.00302 -1.3581
941 0.27775 0.258228 0.133668 0.147131 -0.132582 0.324992 -0.343868 0.484658 -0.0744772 0.177639 0.164216 0.00786397 0.232812 0.979695 -0.255885 -0.439385 -0.568224 -0.122714 0.325471 -0.301948 -1.95424 -0.538802 0.172873 0.16565 -0.242158 0.0488499 -0.738396 0.127053 -2.06 -1.32302
36 0.106802 0.110093 0.143246 -0.0790587 0.135148 0.146771 0.433878 -0.0622372 -0.0776587 0.131118 -0.242355 0.212839 0.448061 0.476803 0.115263 0.103408 -0.157311 -0.177343 -0.293324 -0.00781379 -1.50801 -0.36661 0.099795 -0.199112 -0.0957824 0.0592304 -0.251592 0.511741 -1.8205 -0.536536
551 0.0991919 0.193573 -0.0560688 -0.0772121 0.0747668 0.211681 0.495063 -0.0640707 -0.0507682 0.0732426 -0.214931 0.134938 0.615172 0.367192 0.262582 0.0773015 -0.294404 -0.174785 0.0160712 -0.103232 -1.76394 -0.287393 -0.241858 -0.372958 -0.191815 0.117353 -0.343455 0.529703 -2.06394 -0.646028
971 0.0890872 0.137984 -0.126899 -0.0315607 -0.401058 0.359539 0.323049 -0.683741 0.502657 -0.0564792 -0.0479103 0.380036 0.788343 0.36836 0.741347 -0.335855 -0.83051 -0.216804 0.143686 0.0606743 -1.80405 -0.351861 -0.193711 -0.481369 -0.133459 -0.00672861 -0.673172 0.598153 -2.64291 -1.5099
715 -0.215683 -0.031217 -0.108022 0.0761594 0.0535322 0.374033 -0.0938036 0.456605 -0.337473 -0.0795097 0.0447754 0.186999 0.105469 0.840233 -0.332243 -0.235477 -0.410705 -0.151252 0.293971 -0.0914693 -1.88553 -0.459493 0.0358407 0.190702 0.0562004 0.261677 -0.732335 0.234282 -1.86949 -1.37998
755 -0.17089 -0.286838 -0.0793806 0.04005 -0.119353 0.419682 -0.133703 0.366481 -0.450704 -0.0559877 -0.117595 -0.035703 0.3477 0.792514 -0.303533 -0.450917 -0.332906 -0.0958842 0.454589 -0.0339762 -1.93354 -0.329944 0.0300174 0.0276495 -0.0908039 0.309534 -0.806211 0.104971 -1.89561 -1.53043
767 -0.0867986 0.256525 -0.582709 0.0590984 -0.389311 0.588066 -0.0249545 0.512477 0.0149012 -0.0164826 -0.155911 -0.0786307 0.44963 0.853346 -0.136878 -0.503563 -0.759462 -0.161694 0.271237 -0.157854 -2.07695 -0.260231 -0.195405 0.264583 0.124626 0.41187 -0.525747 -0.0390961 -2.03511 -2.02956
638 0.330371 -0.0786945 0.156312 0.0678152 -0.17311 0.198279 -0.238622 0.114291 -0.408162 -0.486466 -0.0803636 -0.114836 0.0394826 0.529515 -0.0561708 -1.0261 -0.238574 0.0246977 0.189854 0.219744 -1.38654 0.279883 -0.344621 -0.140043 -0.00294195 0.155509 -0.736475 0.345502 -1.71384 -1.2569
954 0.649331 -0.211898 0.218623 -0.18606 0.197479 -0.147716 0.402158 0.0850525 -0.191949 -0.930577 0.0302278 -0.276022 0.851103 -0.425723 0.219003 -0.636017 -0.776298 -0.129967 0.434661 0.536839 -1.32396 0.434629 -0.197193 -0.175433 -0.340734 0.139889 -0.673862 0.249219 -1.84804 -1.36886
956 -0.131365 -0.517284 0.360799 0.207712 -0.0918256 -0.0726494 0.25239 0.270404 0.229899 -0.428769 0.216619 -0.0433207 0.366689 -0.236338 0.584925 -1.61853 -0.0618336 -0.106966 -0.349605 -0.0409504 -1.28704 0.571975 -0.111425 -0.629389 -0.517995 -0.235458 -0.506787 0.149732 -2.12858 -0.41077
88 0.0498098 0.151006 0.030583 0.169978 0.310771 0.154242 0.427848 -0.048014 -0.357345 -0.220963 -0.26861 0.0318611 0.468274 0.308149 -0.318172 0.0139394 0.027512 0.201371 -0.143119 -0.0386198 -1.28272 -0.485381 -0.061323 -0.172408 -0.105902 -0.011438 -0.635712 0.471213 -1.45419 -0.822971
854 0.534293 -0.0620738 -0.332779 0.00954281 -0.349769 0.414465 0.942844 -0.257804 -0.00480096 -0.290411 -0.0339755 0.144675 0.332424 0.358622 0.0819474 0.122088 -0.287164 0.295589 -0.114965 -0.215172 -1.7279 -0.766063 -0.497447 0.210635 -0.00953469 0.10169 -0.439632 0.368568 -1.70208 -1.75461
920 0.954036 -0.736378 0.462135 0.568109 -0.328926 -0.143879 1.19733 0.614879 -0.265265 -0.985512 -0.108056 -0.205837 -0.358085 0.0254982 -0.569166 -0.208693 -0.162531 0.51784 -0.599301 -0.286204 -1.34932 -0.418551 -0.717773 0.565698 -0.549877 -0.149452 -0.406057 0.430362 -1.78471 -1.16998
530 -0.0570414 -0.179634 0.126253 0.247751 0.353812 0.149481 -0.242561 0.360953 0.119126 0.159199 -0.11702 0.0562023 0.200216 0.73826 0.197755 0.192393 -0.476792 -0.103967 -0.211544 -0.0386011 -1.80001 -0.471417 -0.211173 -0.234078 0.165368 0.185457 -0.378024 0.519495 -1.96094 -1.24632
978 0.140853 -0.506309 0.0627515 0.143682 -0.10801 -0.0582843 -0.37007 0.480447 0.39996 -0.214164 -0.0237923 0.170027 0.494088 0.433802 0.474801 -0.458391 -0.480384 0.143278 -0.708363 -0.572018 -1.55308 -0.691236 -0.647958 -0.748863 -0.17336 -0.209074 -0.505265 0.44804 -2.24885 -1.22294
994 0.0819145 -0.313768 0.475822 0.30117 0.0812575 -0.0126808 0.0517386 0.688122 0.630612 -0.223542 0.365578 0.079184 0.428274 0.225009 0.272339 -0.541086 -0.723211 -0.0542479 -1.00675 -0.861018 -1.60234 -0.875071 -0.491178 -0.738403 -0.709618 -0.388014 -0.573074 0.329066 -2.5134 -0.299253
184 0.0934849 -0.325645 0.0973517 -0.142869 0.327168 0.15864 0.637164 -0.153657 -0.0851074 -0.123139 -0.308473 0.35372 0.211042 0.689081 0.191833 0.167408 -0.238716 -0.388148 0.338102 0.327623 -1.76385 -0.00743231 0.0438414 -0.0543374 -0.0208905 0.167158 -0.477716 0.22306 -1.87767 -0.942888
635 0.0304586 0.202603 -0.392433 -0.133211 -0.267972 0.291582 0.913486 -0.358202 0.186326 -0.288475 -0.268036 0.198292 0.971092 0.236967 0.206188 -0.0702743 -0.484283 -0.247581 -0.212141 -0.262373 -1.51643 -0.303297 -0.228463 -0.449392 -0.132035 0.0693123 -0.246661 0.298094 -2.03336 -1.06987
699 0.139775 0.183678 -0.096986 0.0226137 -0.000412434 0.283358 0.448575 -0.0946849 0.00323273 -0.102246 -0.162607 0.217638 0.589156 0.501461 0.0777014 0.140065 -0.183792 -0.279263 0.241972 0.198865 -1.72271 -0.193504 -0.110624 -0.361467 -0.129635 0.0112335 -0.43829 0.558926 -1.97638 -0.773283
864 -0.0235746 0.106617 -0.187641 -0.0748474 -0.0665002 0.338286 0.974039 -0.291761 0.304664 -0.353601 0.149882 0.371032 1.08368 0.120673 0.498752 0.0115763 -0.478831 -0.0439287 -0.404321 -0.241373 -1.66421 -0.526165 -0.492944 -0.67559 -0.0975894 -0.017792 -0.44217 0.357894 -2.16384 -1.11147
934 0.372079 -0.185108 0.114874 0.243852 -0.191526 0.072304 0.587525 -0.0142599 0.340047 -0.382428 0.0174228 0.194064 0.224011 -0.177257 0.397787 -0.697644 -0.162699 0.157405 -0.166447 -0.0782237 -1.22674 0.0652679 -0.491874 0.17868 -0.410362 -0.32704 -0.499796 0.666251 -2.07332 -0.273666
778 -0.405839 -0.286353 0.220025 0.144535 0.143092 0.055888 0.170676 -0.0539652 -0.0899684 -0.0930265 -0.139636 0.202342 0.00417646 0.663266 0.442078 -0.419239 -0.00729931 0.0527822 0.732897 0.306224 -1.66586 -0.223788 -0.165403 -0.302689 -0.117976 0.127546 -0.808989 0.409971 -1.81721 -1.02592
808 0.128297 -0.252265 0.485946 0.178837 0.114033 0.0571279 0.16358 0.104623 -0.100341 -0.0724319 -0.0843144 0.154494 0.106833 0.6473 0.381092 -0.15472 0.0452259 0.0400987 0.650592 0.342438 -1.85739 -0.24317 0.147698 -0.293395 -0.0255593 0.00948964 -0.722762 0.420236 -1.87417 -1.04005
873 0.485604 0.0951308 0.457904 0.195847 -0.00852174 0.224369 -0.422766 0.22211 0.102496 0.214152 -0.135562 -0.130796 0.162661 0.552596 0.622697 -0.496527 -0.197471 0.0833222 0.453315 0.39062 -1.57219 -0.611894 0.187756 0.086742 0.0280356 -0.166592 -0.802894 0.710792 -2.01703 -0.932377
993 0.416093 -0.881019 0.70297 0.648778 -0.0786206 -0.0667459 -0.136757 0.998477 0.0921164 -0.434423 0.105019 -0.197606 -0.144988 0.320891 -0.154249 -0.715811 -0.402704 0.230406 0.164975 -0.16839 -1.33005 -0.566502 -0.168687 0.384882 -0.585571 -0.19762 -0.491847 0.6366 -2.05656 -0.363999
532 -0.0709521 -0.00461862 0.139544 -0.031713 0.0762821 0.395394 0.138512 0.109339 -0.263128 -0.298769 0.00963967 -0.0168751 -0.075589 0.737618 0.269033 -0.46881 -0.273875 0.0458675 0.487636 0.407534 -1.85969 -0.17004 0.0214532 -0.382711 0.0323019 0.432375 -0.689351 0.320844 -1.98553 -1.34442
835 -0.327863 -0.196188 0.237614 -0.0492202 0.190815 0.144091 0.152531 -0.232032 -0.339672 -0.462611 -0.168698 0.0277452 -0.0904643 0.654265 0.366371 -0.430622 -0.583558 -0.18423 0.540611 0.308958 -1.54133 -0.135246 -0.114853 -0.49164 -0.065212 0.15063 -0.780408 0.290839 -2.21577 -1.21807
845 0.0465344 -0.316987 0.306833 -0.0531613 0.0852308 0.0111022 0.398044 -0.286636 -0.194676 -0.465767 -0.0482435 0.215092 0.0739766 0.749527 0.369875 -0.355138 -0.593482 -0.0973499 0.59256 0.132774 -1.53441 -0.199289 0.0199751 -0.462443 -0.129628 0.0227167 -0.809047 0.333171 -1.99667 -1.26824
982 -0.457171 -0.582119 0.413271 0.242213 -0.124282 -0.0224898 0.11649 0.128821 0.0729764 -0.316867 0.126359 0.00592361 -0.133612 0.413276 0.711337 -0.695489 -0.257555 -0.0731978 0.390884 0.16341 -1.2777 -0.0865683 -0.212688 -0.0552921 -0.472756 -0.221692 -0.783356 0.67945 -2.22096 -0.342821
592 0.0841907 0.0581536 -0.156001 0.108296 -0.0156323 0.728515 0.0668401 -0.0689324 -0.272384 -0.258503 -0.0980919 -0.129227 -0.175315 0.759343 -0.137059 -0.379697 -0.344876 0.0345899 0.214692 0.30635 -1.74025 0.106741 -0.354361 0.177242 0.0735523 0.169186 -0.648149 0.404242 -1.74971 -1.75602
822 0.0301951 -0.0772686 -0.2333 -0.0474026 -0.267117 0.468444 0.234306 0.19632 -0.372511 -0.506423 -0.153856 -0.130731 0.066544 0.472502 -0.262481 -0.64852 -0.594892 -0.094583 0.122047 0.389418 -1.95191 0.0242987 -0.328599 0.020824 0.110062 0.257895 -0.523548 0.0705006 -1.81973 -1.83968
180 -0.0508251 -0.42122 0.200902 -0.061262 0.193718 0.247792 0.0494912 -0.133132 -0.124081 -0.000503201 0.0564343 0.0191848 0.410527 0.623351 -0.19963 0.141373 -0.139703 -0.198371 0.246528 0.244068 -1.37357 -0.39645 -0.0884729 -0.0450963 -0.125979 -0.0429637 -0.353296 0.681468 -1.64565 -0.271078
250 0.047593 -0.164901 0.062271 0.0713257 0.494547 0.231699 0.105865 -0.0463635 -0.146779 0.0602563 -0.259016 0.000547843 0.162742 0.717991 -0.122977 -0.0155503 -0.360433 -0.058373 0.0776483 0.204151 -1.28055 -0.142628 0.164625 -0.0418127 -0.36605 0.109594 -0.398583 0.503207 -1.88799 -0.21193
910 -0.29702 -0.245232 0.19573 0.0783568 -0.274532 0.493297 0.503448 -0.0268436 -0.0452487 -0.220552 0.103019 0.302038 0.0920592 0.833454 -0.195812 -0.0610838 -0.507269 0.240396 0.0219497 -0.245973 -1.50467 -0.53802 -0.308255 -0.200658 -0.348331 -0.184805 0.00877055 0.491256 -1.95911 -0.736792
949 0.169194 -0.130396 0.247236 0.247366 -0.299523 0.246141 0.577206 -0.0278295 0.12794 -0.442192 -0.0479719 0.175359 -0.217712 0.329813 0.240585 -0.456237 -0.433968 0.130142 -0.0174387 0.0825774 -1.25069 -0.125024 -0.451899 -0.0881178 -0.534355 -0.401716 -0.565736 0.934953 -2.45385 0.0287777
147 -0.128828 -0.0937258 0.0359405 0.184959 0.218665 0.240381 -0.0795795 0.194406 -0.227838 0.0997187 -0.255208 0.133423 0.393717 0.659111 0.0431101 0.094886 -0.124146 -0.193845 -0.434008 -0.0432486 -1.80404 -0.36514 -0.293895 -0.380925 -0.110689 0.111038 -0.25852 0.545233 -2.09323 -0.829497
389 -0.0639831 -0.0571994 -0.0420757 0.254811 0.188171 0.201329 -0.0499457 0.359151 0.00317021 -0.206475 0.0387581 0.148336 0.398691 0.531245 0.122905 0.0280262 -0.234676 0.0713763 -0.367689 -0.136339 -1.57259 -0.571333 -0.387044 -0.358108 -0.0844364 0.0534356 -0.426689 0.221147 -1.79113 -1.05278
899 -0.212913 -0.238601 -0.227219 0.0259794 -0.21055 0.406574 0.241564 0.260658 -0.0480117 -0.255194 0.0194968 0.318656 0.943304 0.641854 0.152785 0.0304605 -0.640823 0.0136398 -0.580685 -0.674975 -1.92023 -1.23191 -0.315565 -0.579976 -0.35829 -0.0252084 -0.526942 0.277855 -2.3498 -1.50792
929 -0.479551 -0.00547547 -0.426502 0.102972 -0.550287 0.556532 0.85916 -0.0962094 0.51838 -0.508185 -0.107224 0.458301 0.433467 0.58409 0.0188565 -0.554629 -0.671211 0.282261 -0.931648 -0.444504 -1.46513 -0.317454 -0.493737 -0.412909 -0.36308 0.132593 -0.160082 0.73695 -2.57551 -0.875961
932 -0.383859 -0.793589 0.0562386 -0.00596575 -0.60958 0.457155 0.689328 0.732628 -0.59159 -0.723326 0.420769 -0.10889 1.1702 -0.0584902 -0.0869145 -0.33912 -0.352691 0.361411 -0.374671 -0.0465152 -1.39944 -0.191802 -0.405566 -0.00581612 -0.455464 0.0120023 0.0282181 0.702888 -2.10234 -1.13598
986 0.117861 -0.0964587 0.013956 0.21447 -0.210579 -0.0897396 0.807455 0.969201 0.67865 -0.778551 0.0696385 0.138604 0.708439 -0.100827 -0.121509 0.525598 -1.70003 -0.395011 -0.740106 -0.396663 -1.36561 -0.537207 -0.723834 0.214806 -0.883259 -0.133572 -0.597479 0.29081 -2.77705 -0.639078
806 -0.372677 -0.387894 0.214465 -0.0898192 0.120761 0.0381586 0.179059 0.249098 -0.186698 -0.343863 -0.120832 0.0551349 0.355305 0.553279 0.47791 -0.0536579 -0.245601 0.00500461 -0.368682 -0.321265 -1.59131 -0.921427 -0.270751 -0.783002 -0.0950657 0.108507 -0.480925 0.503499 -2.14307 -1.23055
138 0.000403736 0.0675535 0.0260135 0.0134717 0.035894 0.155082 0.045438 0.12082 -0.0916557 -0.194795 -0.38207 0.0876866 0.0371338 0.481261 0.0683292 -0.315644 -0.12356 -0.0819171 -0.126055 0.256269 -1.41936 -0.0376579 0.0680368 -0.175047 0.212986 0.211811 -0.421596 0.164826 -1.36548 -1.33818
219 -0.133407 0.151065 0.0834107 -0.135068 0.141157 0.169651 0.00648521 0.0924162 -0.261721 -0.199623 0.0277949 0.0631283 0.288472 0.437526 -0.116917 -0.392159 -0.324021 -0.259647 0.174865 0.316505 -1.40044 0.276221 0.0368093 -0.457013 0.0775086 0.2887 -0.528153 0.483485 -1.69234 -1.36286
442 -0.177759 -0.0617986 -0.138428 0.0519115 -0.149892 0.563125 0.0137452 0.373328 -0.221411 0.150162 -0.288032 -0.0894244 0.301687 0.815715 -0.106161 -0.290697 -0.242608 -0.177016 0.229897 0.269452 -1.82597 -0.17496 0.0631733 -0.204439 0.135744 0.321374 -0.535226 0.014534 -1.91442 -1.86407
559 -0.163864 -0.247555 -0.176122 0.084777 -0.121137 0.475886 -0.043 0.19201 -0.0886993 0.137787 -0.0549575 0.350428 0.196811 1.06707 -0.208725 -0.267954 -0.497161 -0.166389 0.402759 0.0167822 -1.91462 -0.345317 -0.113071 0.147828 0.193483 0.356951 -0.609523 -0.0595511 -1.94165 -1.74271
914 -0.195748 -0.244571 -0.244711 0.262537 -0.417386 0.324555 -0.0946612 0.407459 -0.0520132 0.0768727 0.0670643 0.263427 1.05302 0.69071 -0.143363 -0.232599 -0.477892 0.169431 0.319998 -0.252736 -2.11183 -1.0337 0.0129413 -0.0730161 0.184477 0.342334 -0.833191 -0.109085 -1.79833 -2.47039
936 -0.0403769 -0.328381 -0.0203043 0.171483 -0.3445 0.235215 -0.202963 0.629327 -0.0702151 -0.0526654 0.182149 0.1545 0.186963 0.951746 -0.169367 -0.453273 -0.769333 -0.0750519 0.263505 -0.47232 -1.97416 -0.721555 0.0111572 0.0491334 -0.0747834 0.208997 -0.840716 -0.0641815 -1.92668 -1.88579
93 0.376537 0.239077 -0.194142 -0.16959 0.00904473 0.368132 -0.1002 0.0267568 0.244854 0.256743 -0.00621724 0.0756772 0.460017 0.48193 -0.305798 -0.125613 -0.776382 -0.313284 -0.021207 0.152971 -1.76976 0.0562487 0.119202 -0.0236235 0.128621 0.212033 -0.222699 0.34996 -1.79641 -1.36982
392 0.125228 0.386619 -0.335127 0.106067 -0.211383 0.441276 0.092906 0.120363 -0.0846683 0.168416 -0.0443286 -0.141386 0.625696 0.487498 -0.246741 -0.474186 -0.650468 -0.463497 -0.104511 0.306197 -1.76679 -0.126216 0.0601064 -0.220384 0.0290141 0.230955 -0.60976 0.262204 -2.07248 -1.27141
947 0.245945 0.363925 -0.429991 0.28442 -0.905184 0.538382 0.397703 0.831151 0.354077 -0.0696898 0.127152 -0.152277 1.27892 0.242329 -0.267684 -0.577537 -0.735505 0.123481 0.215076 0.0128196 -1.75916 -0.228972 0.203077 0.126514 -0.178184 -0.152152 -0.276029 0.2543 -1.74975 -1.79587
684 0.311596 0.0894508 -0.318902 0.104863 -0.150895 0.147329 0.32428 0.238205 0.14256 0.100806 -0.199471 0.0310094 0.537813 0.570429 0.635321 0.00609873 -0.637221 -0.305876 0.427766 -0.224344 -1.65929 -0.593789 0.0107711 -0.0979689 -0.110629 0.314259 -0.745673 0.0038906 -1.95442 -1.99663
812 0.293359 -0.0680258 -0.26793 0.0862499 -0.179083 0.297796 0.319311 0.171752 0.191147 0.190412 -0.103305 -0.0791273 0.570604 0.497994 0.69862 -0.261872 -0.791775 -0.54259 0.565696 0.071711 -1.82243 -0.717719 -0.0399114 -0.448928 -0.210609 0.31838 -0.747354 0.177539 -2.28708 -2.00596
850 0.112755 -0.0959395 0.0154744 -0.00864362 -0.0670522 0.294051 0.105085 -0.305464 0.252281 -0.0211025 -0.219661 0.108457 0.0348901 0.600835 0.758851 -0.104527 -0.551217 -0.476619 0.38019 0.130181 -1.67591 -0.376649 0.0914915 -0.157042 -0.18666 0.0227823 -0.675351 0.451056 -2.21906 -1.31539
991 0.619583 -0.615634 0.213978 0.422315 -0.19509 -0.318873 0.466475 0.782762 0.52924 -0.167171 0.0868782 -0.353427 -0.302885 0.368151 0.997408 -0.0471431 -0.924401 -0.304117 0.391514 -0.236321 -1.30256 -0.5202 0.209215 0.135507 -0.58525 -0.393249 -0.884446 0.095975 -2.16002 -0.819493
59 0.212951 0.274851 0.0825458 0.11845 0.403765 0.240175 0.32548 -0.272914 -0.293136 -0.366612 -0.484638 0.131501 0.230058 0.63123 0.174723 0.234001 -0.292172 0.0129203 -0.0841427 0.0393674 -1.55055 -0.440625 -0.235801 -0.0996901 0.114385 0.0233282 -0.306288 0.502986 -1.6137 -1.09284
152 0.207535 0.140084 0.0219036 0.039025 0.111024 0.445335 0.598652 0.0245579 -0.263837 -0.267983 -0.396672 -0.170798 -0.0241099 0.332255 0.0911827 -0.0347534 -0.0403705 -0.0279875 -0.214024 0.00107147 -1.42193 -0.402634 -0.208318 0.0773907 0.00331905 0.0919235 -0.408099 0.421964 -1.4105 -1.0869
661 0.226607 -0.120193 -0.104596 0.0943916 -0.275035 0.477197 0.377935 -0.0360372 -0.0763799 0.0339157 -0.339168 0.177631 -0.0462098 0.728923 0.261448 -0.0906768 -0.271188 0.081039 0.157095 -0.130547 -1.57636 -0.47007 -0.172138 0.247908 -0.0317434 0.311487 -0.540928 0.288558 -1.56786 -1.53896
697 0.0291339 -0.301427 -0.303602 0.275899 -0.267478 0.301354 0.464649 0.0515672 -0.00952314 0.0783167 -0.215681 0.104437 0.374482 0.636618 0.520654 -0.253754 0.0764126 0.152646 0.0409302 -0.297834 -1.56333 -0.857534 -0.167057 -0.0181319 0.174117 0.166555 -0.451396 0.402514 -1.63941 -1.67482
80 -0.282742 0.0216 -0.0262476 0.0214768 0.232304 0.188918 0.131093 0.0382186 0.015642 -0.0343158 -0.304015 0.349221 0.128998 0.613751 0.473645 0.201467 -0.37053 -0.201348 0.124647 0.215999 -1.64694 -0.218087 -0.290112 0.0709902 0.109193 0.0998476 -0.481814 0.533181 -1.54375 -1.24369
121 -0.311962 0.355139 -0.267658 0.14707 0.0595243 0.101914 0.388938 0.102884 -0.0531347 -0.0102237 -0.0243445 0.0561911 0.209737 0.44904 0.399986 0.0496734 -0.0488546 -0.0317918 0.314134 0.178288 -1.36773 0.221456 -0.131683 -0.14784 0.0596059 0.103537 -0.531677 0.407443 -1.70714 -0.737703
856 0.156228 0.3067 -0.0501263 -0.0221072 0.0935667 0.149501 0.744251 -0.437053 -0.149632 -0.0801367 -0.0167796 0.143063 0.716672 0.175362 0.403322 -0.155769 -0.0575064 -0.0114017 -0.0763504 0.176336 -1.65553 -0.0377179 -0.368478 -0.308895 -0.0902508 -0.0745094 -0.29695 0.674413 -2.19779 -0.868537
866 0.127527 0.351026 -0.262999 0.0721248 -0.219374 0.398397 1.18425 -0.528854 0.134302 -0.320107 -0.0602824 0.364829 1.17253 0.0443534 0.210362 -0.142405 -0.0673839 -0.0490432 -0.204546 -0.00798485 -1.63817 -0.00183274 -0.431301 -0.322504 -0.0534303 0.0418292 -0.341825 0.442221 -2.25173 -1.18837
451 0.142528 0.0313793 -0.525048 -0.044319 -0.291469 0.283945 0.160524 0.289486 -0.137871 -0.0334124 -0.0883078 -0.00664266 0.574089 0.514288 0.0571923 -0.283703 -0.443705 -0.265528 0.0855123 0.136564 -1.69161 0.205648 0.114185 0.229451 -0.121624 0.263811 -0.385748 0.141272 -1.70743 -1.74021
831 -0.363528 -0.374097 -0.229968 0.111145 -0.198891 0.6206 0.257031 0.209286 -0.189117 -0.231328 0.0166844 0.207893 0.471216 0.804679 0.262887 0.16571 -0.606747 0.0380714 0.263681 0.140253 -1.97569 -0.0632677 -0.334383 0.272639 -0.0247323 0.37541 -0.53367 0.301687 -1.99508 -1.90202
976 0.199709 -0.662563 -0.365397 0.955031 -0.614191 -0.0292953 1.68189 1.20118 0.73632 -0.575464 0.432853 -0.110447 0.0181547 0.613484 -0.39127 -0.382054 -1.06562 -0.710533 0.605113 -0.115505 -1.11185 0.43709 -0.286585 0.782465 -0.708419 -0.412876 -0.524996 -0.124969 -1.95371 -0.584043
122 0.291582 0.0678002 -0.258392 0.218757 0.0264697 0.441216 -0.12477 0.190847 0.214963 0.093292 -0.135183 0.206862 0.690127 0.0278262 -0.234383 -0.168337 -0.0656194 -0.058691 -0.0296513 0.152635 -1.64185 0.28811 0.131309 -0.418026 0.225486 0.391076 -0.31212 0.376442 -1.76114 -1.07534
252 0.261959 0.314992 -0.0944243 -0.0108219 -0.10595 0.400182 0.0645447 0.0710975 -0.0965082 -0.0757113 -0.169879 0.0541425 0.61835 0.551502 -0.0807736 -0.453851 -0.432552 -0.314747 0.142415 -0.050928 -1.77394 0.0699047 -0.0812492 -0.234417 -0.0747374 0.108914 -0.513113 0.486017 -1.95229 -1.34923
814 0.307433 0.282268 -0.227277 0.0622602 -0.309206 0.412344 0.341609 0.219452 0.314987 -0.0658783 0.0780042 0.0712973 0.763131 0.362044 0.165885 -0.503872 -0.726383 -0.469501 0.121709 0.0516011 -1.73356 -0.0574373 0.0998999 -0.196626 -0.0873819 0.057496 -0.502827 0.183264 -1.96016 -1.48418
988 0.559142 -0.0562677 -0.20122 0.412236 -0.780838 0.226419 1.07029 0.660163 1.11217 0.00674989 0.306129 0.0577358 0.822757 -0.274133 0.228018 -1.22747 -0.316011 -0.365868 -0.728505 -0.472141 -1.25728 0.0462489 -0.00313821 -0.116369 -0.591058 -0.233069 -0.255782 -0.30665 -2.01688 -0.981656
568 0.182604 -0.190138 0.113656 0.080695 -0.15037 0.359278 -0.0113765 0.635769 0.120792 -0.0826155 -0.110088 0.203617 0.266757 0.490375 -0.0754768 0.00534594 -0.298807 -0.0115247 0.290323 0.189636 -1.69054 0.00261479 0.0341235 0.394298 -0.17544 0.134608 -0.665457 0.622136 -1.88575 -0.748851
979 0.690938 -0.1741 0.268288 0.466627 -0.254021 0.0416114 -0.488119 0.850762 0.136776 -0.0945282 -0.0209 -0.0590653 0.613694 0.310127 0.40199 -0.261652 -0.483048 0.193491 0.495019 -0.0271956 -1.57998 -0.495678 -0.157672 0.330288 -0.112422 -0.215781 -0.49817 0.745814 -2.1013 -0.983956
329 0.0190454 0.027307 -0.0457288 0.0241686 0.328727 0.0850471 0.180603 -0.062401 -0.301501 -0.101449 -0.118318 0.0828363 0.0504683 0.559399 0.0302954 -0.311072 -0.399015 -0.212814 -0.0251706 0.094985 -1.46256 -0.375649 -0.163466 -0.370888 -0.245294 -0.0188166 -0.506511 0.418431 -2.13248 -0.239016
719 0.238407 -0.151611 0.206238 0.0919729 0.0160586 0.354462 0.249265 0.280389 -0.149202 -0.298707 -0.101696 -0.00750489 -0.137392 0.747723 -0.0579891 0.176413 -0.619136 -0.193341 -0.0800687 -0.142636 -1.23615 -0.726395 -0.320996 -0.0461839 -0.162912 0.110089 -0.498679 0.344401 -1.92713 -0.860785
996 0.403051 0.0778459 0.244395 0.193554 -0.281859 0.118242 0.407577 0.0494853 0.245432 -0.382195 -0.10955 0.170145 -0.0622543 0.217835 0.19253 -0.675731 -0.355647 0.0650346 -0.0348143 0.00851308 -1.185 -0.145913 -0.58035 -0.11463 -0.299928 -0.1839 -0.516109 0.66311 -2.2325 -0.499035
510 -0.16424 -0.0850114 0.0200011 0.150812 0.135293 0.245628 0.247869 -0.205708 -0.301064 0.0146178 -0.160555 0.11642 -0.0175985 0.744519 0.39852 0.0917432 -0.107492 -0.133128 0.410959 0.125014 -1.65321 -0.455612 -0.0365676 -0.255789 -0.109099 0.151293 -0.77598 0.528528 -1.94807 -0.837246
747 -0.18258 -0.101498 -0.0975414 0.0755254 0.00863955 0.314721 0.427704 -0.138322 -0.0117182 -0.0707486 -0.104971 0.393323 0.0368416 0.343915 -0.128776 -0.00259367 -0.294338 -0.118162 -0.0488805 0.0334111 -1.5402 -0.203938 -0.401143 -0.298123 -0.130308 -0.0214216 -0.251668 0.482505 -1.79522 -0.19789
946 0.116752 -0.167051 0.298707 0.081084 -0.430393 0.353244 0.230891 -0.09103 0.00368697 -0.249759 0.0329051 -0.0136704 -0.0930773 0.611696 -0.107191 -0.110317 -0.986946 -0.0428049 0.144401 -0.0375371 -1.1449 -0.136194 -0.044105 0.129388 -0.481139 -0.236302 0.0613615 0.630732 -1.94773 -0.16868
763 -0.140564 0.0706016 -0.108686 0.135807 -0.0201015 0.267218 0.0707785 0.155087 -0.263806 0.12272 -0.00929289 0.183339 0.471783 0.731588 -0.335981 -0.533016 -0.205953 -0.191145 0.405355 -0.00211914 -1.92143 -0.310418 0.0262955 -0.241459 0.0486617 0.0675812 -0.546661 0.0686999 -1.6134 -1.53535
764 -0.401883 -0.172131 -0.293946 0.207301 -0.149827 0.54022 -0.0202715 0.469574 -0.122374 -0.0856716 -0.080052 0.182513 0.238315 1.06706 -0.218821 -0.185042 -0.628111 -0.0720406 0.48236 -0.163349 -2.02956 -0.668629 -0.0174852 0.197188 -0.0100202 0.263765 -0.800288 -0.103699 -2.08554 -2.02639
550 0.135262 -0.0528383 0.0150617 0.108758 -0.00417937 0.349838 0.00938455 0.00629899 -0.511621 -0.486993 -0.266793 -0.0888838 0.442721 0.311466 0.0836353 -0.924967 -0.400655 -0.0846934 0.280525 0.312005 -1.60312 0.168712 -0.332787 -0.445548 0.0170188 0.218533 -0.726544 0.312117 -2.0256 -1.4697
817 0.0632944 -0.0763325 -0.0106103 -0.149992 -0.0640844 0.23975 0.0467416 -0.193942 -0.438946 -0.463629 -0.0964666 -0.0321951 0.454862 0.488351 0.127914 -0.838409 -0.372682 -0.00932981 -0.00310254 0.211156 -1.96489 0.248548 -0.401877 -0.598087 0.0603946 0.285 -0.801136 0.37886 -2.31095 -1.64526
870 -0.0170337 -0.104063 0.0453567 -0.170688 -0.173898 0.170906 0.328045 -0.00430438 -0.41103 -0.81471 -0.0105418 -0.0872102 0.545183 0.211709 0.130574 -1.09358 -0.41365 0.146897 -0.0186902 0.178285 -1.69269 0.0782657 -0.249462 -0.496953 -0.127561 0.197069 -0.570932 0.402743 -2.01542 -1.64547
919 0.147361 -0.346402 0.048277 -0.162928 -0.00717999 -0.0232559 0.281385 0.202622 -0.173255 -0.629703 0.0704702 -0.246121 0.919491 -0.0734908 0.293542 -1.17957 -0.512675 -0.197297 0.12954 0.149159 -1.66272 0.266583 -0.0903968 -0.714639 -0.186378 0.081839 -0.757597 0.15569 -2.10624 -1.56144
984 0.224934 -0.361261 0.256663 0.0574814 -0.120086 -0.0323956 0.124289 0.19681 0.163356 -0.423028 0.134695 0.00199186 0.439771 -0.053367 0.417276 -1.69334 -0.144965 -0.0613126 -0.510331 -0.0401363 -1.39221 0.411306 -0.204385 -0.431146 -0.391787 -0.225222 -0.501883 0.333737 -2.21202 -0.516141
969 0.130882 -0.0245656 0.393423 0.253001 -0.163535 -0.00318418 0.0843076 -0.268224 -0.0700638 -0.387342 -0.0941926 0.137494 0.0476295 0.299407 0.291105 -0.539953 0.0619581 0.118631 0.221665 0.26792 -1.2307 -0.0229106 -0.549978 0.112637 -0.206399 -0.262977 -0.694516 0.821507 -2.08054 -0.484522
766 0.383984 -0.177004 -0.0331473 0.213281 -0.117778 0.370445 -0.13613 0.922492 -0.0128065 -0.075682 -0.089344 -0.00806808 0.58733 0.435048 0.0677889 -0.264856 -0.214073 -0.0693029 0.181196 0.0445294 -1.77775 -0.245889 -0.396331 0.00272112 -0.346856 -0.0236955 -0.637376 0.64127 -2.36191 -0.758191
902 0.330098 -0.0396977 0.130451 0.237775 -0.20725 0.377915 -0.205656 0.988905 0.0923634 -0.107218 -0.0957529 -0.077434 0.68711 0.312166 -0.00442068 -0.302124 -0.305711 0.0109302 0.358905 0.219148 -1.77911 -0.305285 -0.220257 0.262151 -0.296505 -0.163328 -0.668288 0.564088 -2.23314 -0.823041
443 -0.0084289 -0.382832 -0.132664 -0.0515147 -0.0574009 0.413626 0.235801 -0.191181 0.0139807 0.0571292 -0.0517739 0.177483 0.212456 0.613847 0.349119 0.295872 -0.253161 -0.43422 0.0552905 0.344151 -1.87735 0.0141725 -0.282996 0.294424 0.141912 0.207881 -0.483361 0.271909 -1.81548 -1.30263
680 -0.332565 0.0824545 -0.155861 0.0342941 -0.0396515 0.383776 0.134065 -0.040181 0.0527962 -0.0773281 -0.112881 0.495668 0.508635 0.591833 0.118009 0.305236 -0.343873 -0.144082 0.466489 0.4029 -2.0063 -0.0415084 -0.651253 -0.0789264 0.276175 0.289206 -0.528967 0.336919 -1.7965 -1.48998
687 -0.161485 -0.0454855 -0.33758 0.0282664 -0.308637 0.743055 0.292389 0.363381 0.0800268 -0.461806 -0.173515 -0.049589 0.532759 0.634597 0.138511 0.0523952 -0.938437 -0.331814 0.113009 -0.031264 -2.16407 -0.487986 -0.382899 0.0693446 0.00574187 0.356062 -0.397745 0.0799203 -2.25425 -1.86531
836 -0.338616 -0.162483 -0.376916 -0.0220033 -0.285025 0.614174 0.224191 0.210966 -0.0511374 -0.275654 0.123579 0.0467098 0.482689 0.606181 0.253139 0.122926 -0.861175 -0.213509 0.0537591 0.0843626 -1.9977 -0.364611 -0.352839 0.136309 -0.163493 0.258557 -0.516438 0.347383 -2.40111 -1.52308
990 0.420903 -0.520282 0.171602 0.438202 -0.519786 -0.00491041 0.352366 0.242056 0.630936 0.121804 -0.00537533 0.216579 -0.311029 0.378896 0.6513 -0.387689 -0.127868 0.338176 0.112067 -0.306946 -1.30629 -0.66302 -0.246321 0.602652 -0.18544 -0.328684 -0.68436 0.648952 -1.98698 -0.737192
643 0.264006 -0.136731 -0.108213 0.0629394 -0.168935 0.354401 -0.0504949 0.704144 -0.171874 -0.257742 0.0806849 -0.0482175 0.691029 0.537712 0.0581163 -0.00258778 -0.456724 -0.383661 0.292544 0.295263 -1.64018 -0.132611 -0.174762 0.0596939 -0.111481 0.00408595 -0.722879 0.294056 -2.11868 -0.962556
674 -0.0176129 0.0514178 -0.359565 0.133644 -0.00464378 0.2822 0.264219 0.210283 0.1127 -0.00426068 -0.0414437 -0.0952056 0.654207 0.475629 0.748673 0.297896 -0.66935 -0.241371 0.206844 -0.0331452 -1.68219 -0.599912 0.143724 -0.0951015 -0.135337 0.331428 -0.735138 0.0936867 -2.09194 -1.78582
922 -0.14445 -0.486058 -0.624707 0.00363383 -0.648562 0.435511 0.51306 0.539385 0.132366 -0.47596 0.116973 0.0607512 0.895185 0.378241 0.24519 0.177001 -1.13337 0.137944 -0.00584327 -0.192904 -1.77499 -0.696456 -0.412724 0.359511 -0.124308 0.220548 -0.316032 0.174237 -2.10403 -2.28272
925 -0.253159 -0.136915 -0.747932 0.142304 -0.670914 0.549374 0.829392 0.281687 0.245835 -0.383134 -0.038388 0.223534 0.919347 0.609033 0.0479141 0.246825 -0.828832 0.0502659 -0.0466117 -0.334037 -1.89606 -0.733706 -0.545374 0.187826 0.0668133 0.158722 -0.447832 0.183731 -2.29058 -2.31356
944 -0.18668 -1.08141 -0.496987 0.0570287 -0.85362 0.473628 0.260413 0.649524 -0.0956025 -0.414021 0.306718 -0.257491 0.61123 0.304189 0.394681 -0.606453 -0.989813 0.126643 0.141954 -0.0391012 -1.56091 -0.151221 -0.302687 0.411231 -0.140814 0.0339536 -0.377718 0.404069 -2.16295 -2.27258
242 0.337853 -0.0874621 0.404019 0.146758 -0.00623083 0.452262 -0.00781804 0.283331 0.155587 0.254968 -0.233272 -0.166677 0.275062 0.496597 0.152613 0.0605775 -0.237345 -0.164794 0.180688 0.209965 -1.64602 -0.0429388 0.22193 0.00274345 -0.117094 0.257961 -0.546889 0.65804 -1.79849 -0.893824
736 0.122709 -0.399637 0.0206775 0.168022 -0.23968 0.371488 0.165488 0.0764144 -0.0701205 0.0764442 -0.221904 0.0923283 -0.0698468 0.934005 0.170052 -0.215585 0.178376 0.281289 0.0949419 -0.200344 -1.87469 -0.70782 0.164814 0.093664 0.0333868 0.251082 -0.615971 0.407198 -1.78035 -1.63214
753 0.344588 -0.163746 0.169375 0.385108 0.128574 0.0739135 -0.201149 0.300028 0.0374101 0.331603 -0.160827 0.13454 0.706393 0.38924 0.447269 -0.101422 0.158801 0.415841 0.386382 0.206196 -1.72979 -0.760074 -0.0052579 0.131912 0.112571 -0.0310609 -0.718522 0.291728 -1.64584 -1.0409
548 0.106556 0.140684 0.151165 -0.0094318 -0.326057 0.513283 -0.285551 0.189187 0.0205338 0.0381096 -0.20666 0.0870775 -0.112302 0.744455 -0.29273 -0.331847 -0.302925 -0.00784841 0.0556602 0.0874033 -1.70178 0.116374 -0.252227 -0.0385364 0.194327 0.239562 -0.488444 0.334341 -1.69748 -1.39564
834 0.39274 0.291186 -0.409072 0.166864 -0.670862 0.750372 0.591003 0.458161 -0.0252323 -0.263653 -0.0348475 -0.252845 0.374943 0.7102 -0.405539 -0.676082 -0.899834 -0.132695 0.131656 0.0363549 -1.96919 -0.210144 -0.35893 0.309156 -0.0380434 0.141338 -0.456013 0.16813 -2.12995 -2.07417
997 0.200912 -0.216542 0.0546689 0.266467 -0.554575 0.370802 0.195606 0.226181 -0.00889537 -0.634769 -0.0715491 0.0180278 -0.485839 0.57912 -0.357621 -0.790728 -0.515075 0.23755 0.0937405 0.00449356 -1.53756 0.0593546 -0.607088 0.723574 -0.205549 -0.143346 -0.750037 0.626665 -2.033 -0.995143
410 0.0113084 0.10454 -0.0873111 -0.0521192 0.180807 0.305818 0.242374 0.00809628 -0.402397 -0.595393 -0.213644 0.201778 0.563882 0.487828 -0.0616677 -0.437941 -0.207711 -0.0449159 0.176034 -0.00884943 -1.73809 -0.14867 -0.537178 -0.579885 0.00549035 0.308787 -0.594256 0.200773 -1.85299 -1.63993
705 -0.106784 -0.057671 -0.425664 0.0230199 -0.270927 0.558784 0.271826 -0.0314863 -0.0210264 -0.108074 -0.0249243 0.291093 0.665282 0.480769 0.0875844 -0.0245786 -0.481041 -0.27935 0.287057 0.326116 -1.89565 0.0144059 -0.34144 0.144462 0.0870281 0.35892 -0.486865 0.159997 -2.15562 -1.62795
875 -0.240112 -0.218095 -0.463925 -0.0210378 -0.501794 0.552088 0.351055 0.116347 0.0917334 -0.159595 -0.151483 0.0220836 0.343808 0.450516 0.283613 0.276209 -0.754166 0.0854068 0.185284 0.0264301 -2.0198 -0.18818 -0.410532 0.163499 0.0448183 0.156109 -0.450991 0.172773 -1.96011 -1.92127
898 -0.0955597 -0.387747 -0.561767 -0.134637 -0.660825 0.506528 0.47432 0.211292 0.183398 -0.494016 -0.10962 0.139772 0.458976 0.655604 -0.0564232 0.0511307 -1.0316 0.130347 -0.152269 -0.137542 -1.80211 -0.460101 -0.610019 0.424214 -0.0854009 0.303919 -0.469934 0.146243 -2.12065 -2.21429
319 -0.102779 0.13212 -0.0438739 0.00152253 0.0367882 0.125202 0.177881 0.132841 0.151142 0.0646471 0.0238285 0.213747 0.320884 0.827304 0.550666 0.104383 -0.158456 -0.485809 0.430727 0.0307491 -1.65617 -0.174684 0.205177 -0.0786578 -0.0421082 0.0452837 -0.702691 0.20494 -1.77682 -1.26522
324 0.0978606 0.0534079 -0.274486 0.0191279 0.187846 0.203466 0.356462 0.165652 0.147714 0.0483209 -0.126971 0.13578 0.20512 0.522129 0.105735 0.354617 -0.221347 -0.0589062 0.600029 0.253526 -1.39396 -0.304879 0.0327985 -0.00608023 0.233249 0.0999279 -0.430944 0.400078 -1.37808 -1.66668
655 -0.195881 -0.14299 -0.448146 0.05549 -0.267838 0.665189 0.00347997 0.125153 -0.0753892 -0.279184 -0.117257 0.0936163 0.405952 0.734343 0.256404 0.185394 -0.374393 -0.185912 -0.0291436 0.141125 -1.85488 -0.274724 -0.425747 0.0247467 0.0482424 0.327736 -0.525016 0.203545 -2.09274 -1.71487
869 -0.222028 -0.0920319 -0.403847 0.111001 -0.543061 0.433626 0.331278 0.524659 0.0821762 -0.297871 -0.312603 0.053824 0.621654 0.467952 0.445755 0.210404 -0.338066 0.129057 0.0577835 -0.219385 -1.69256 -0.619183 -0.483203 0.10182 0.0349149 0.149039 -0.396719 0.296148 -1.98779 -2.03856
905 -0.272114 -0.297959 -0.506697 -0.0292071 -0.657647 0.393179 0.494026 0.225088 0.237622 -0.300016 -0.139101 0.0879583 0.622898 0.409304 0.131746 0.068153 -0.841047 -0.0295764 0.293301 0.0273701 -1.65998 -0.337156 -0.571394 0.10243 -0.00343447 0.198851 -0.232757 0.182455 -1.92835 -1.84316
35 -0.208601 0.072603 0.100924 0.203938 0.387777 0.179067 0.307016 0.158516 -0.18334 -0.246584 -0.155772 0.0762418 -0.128049 0.801979 0.0688621 -0.350346 0.00253236 -0.197117 0.2392 0.227706 -1.66143 0.0348455 0.174854 -0.190895 0.098094 0.179651 -0.560488 0.550128 -1.63267 -1.10079
108 0.108887 -0.278467 -0.220563 -0.0988972 0.253898 0.0237755 0.293617 -0.0845349 -0.248117 0.0571206 0.012364 0.133531 0.203975 0.871576 -0.203288 -0.103625 -0.146247 -0.0947799 0.0559982 0.0558375 -1.56515 -0.200273 0.166854 -0.377939 -0.149736 0.00511961 -0.46945 0.472936 -1.60328 -0.814354
877 -0.379185 -0.450392 0.185281 0.00171177 0.0260798 0.12329 0.340766 -0.10881 -0.0255049 -0.307881 -0.0516905 0.0894206 -0.100232 0.797291 0.622587 -0.391746 -0.462232 0.0243449 0.68295 0.0490963 -1.57927 -0.563033 0.178794 -0.516995 -0.139234 -0.0658749 -0.82761 0.370406 -1.91685 -1.35539
322 0.16994 0.0456846 -0.127131 0.137461 0.190093 0.540412 -0.149573 -0.0787765 -0.22085 0.00852935 -0.421819 -0.0563971 0.0861895 0.774318 -0.187566 -0.114494 0.0748128 0.360083 0.0166578 0.239335 -1.76704 -0.135679 -0.0212556 0.209581 0.0194498 0.213296 -0.62405 0.359017 -1.68744 -1.19968
555 0.116593 0.220968 -0.288883 0.23656 -0.250323 0.63074 0.139563 0.103035 -0.0595137 -0.0870901 -0.314456 -0.250319 -0.142376 0.621582 0.0580783 -0.507931 -0.224275 -0.00617638 0.079536 0.351396 -1.54971 0.0225299 -0.103673 0.244881 0.117727 0.179684 -0.634452 0.182381 -1.52344 -1.55392
839 -0.137524 -0.144386 -0.346881 -0.112836 -0.522813 0.519292 0.269928 0.260315 -0.00162042 -0.283065 -0.305662 0.00974089 0.645084 0.570857 0.214512 0.208036 -0.520575 -0.0434035 0.287001 0.119575 -1.86717 -0.335001 -0.538273 0.0862989 0.0855217 0.156431 -0.389083 0.241821 -1.99314 -1.62672
582 -0.382862 -0.189908 0.070286 -0.0687817 0.080694 0.250504 0.225457 -0.0905357 -0.332769 -0.269595 -0.072614 -0.0255947 0.0257482 0.885638 0.410943 -0.171941 -0.417457 -0.251372 0.456933 0.250163 -1.79337 -0.0900781 0.234028 -0.214747 -0.0851059 0.160371 -0.739711 0.321121 -2.07839 -1.18587
729 -0.399933 -0.199658 -0.0489504 0.087156 -0.102199 0.346313 0.430512 0.0776659 -0.134541 -0.380786 -0.0723982 0.0699099 0.167858 0.883546 0.32307 -0.497379 -0.347256 -0.163032 0.65087 0.344743 -1.74805 0.0421135 0.114357 -0.228131 -0.0656577 0.0849039 -0.604266 0.212958 -1.9143 -1.19202
999 -0.386341 -0.651952 0.521906 0.106992 0.00569244 -0.116065 -0.0122847 -0.0981497 0.115174 -0.262668 -0.168025 0.260413 -0.145952 0.283223 0.772874 -0.433713 -0.290071 0.067819 0.287316 0.270412 -1.29779 -0.15081 -0.31862 -0.113017 -0.314089 -0.199174 -0.714462 0.791292 -2.20366 -0.545523
11 -0.102545 -0.0464544 0.0110528 -0.0529766 -0.00246842 0.228803 -0.310736 0.207924 -0.218806 0.150479 -0.290592 0.142207 0.208881 0.623579 -0.146891 -0.0226524 -0.225179 -0.110878 -0.0312094 -0.167695 -1.72533 -0.358397 0.0438989 0.176464 0.183902 0.238851 -0.57373 0.255219 -1.54633 -1.35303
537 -0.191747 -0.0961959 -0.24786 -0.0266867 -0.301649 0.518622 -0.0689342 0.305896 -0.218455 0.0497262 -0.092753 0.0400338 0.318343 0.906349 -0.130524 -0.400727 -0.284736 0.0995639 0.331368 0.111927 -2.07138 -0.27033 -0.102843 0.108113 0.0414966 0.30673 -0.502452 0.11055 -1.87538 -1.66922
830 -1.29911e-05 -0.372244 -0.273407 0.124757 -0.472736 0.745042 0.277888 0.0227528 0.0662474 0.170621 -0.139926 0.150684 -0.185384 0.924177 0.464996 -0.51893 0.0305951 0.238034 0.149805 -0.142337 -1.73557 -0.557419 0.00347997 0.342025 -0.0988796 0.140173 -0.491395 0.391969 -1.74992 -1.70989
930 1.19429 0.0257798 0.0100837 0.337633 -0.548389 0.191715 0.716719 -0.0479745 0.34552 0.0387764 -0.0911165 0.101408 -0.0933684 0.483593 0.527658 -0.139101 0.0850771 0.483965 -0.0562495 -0.506613 -1.5242 -0.810714 -0.343769 0.481032 -0.0788645 -0.228315 -0.44687 0.585541 -1.74662 -1.59235
84 0.2436 0.0866247 -0.0659815 0.0914387 -0.152471 0.383407 -0.0596214 0.316452 0.220773 0.21145 -0.249658 0.160241 0.520497 0.229058 0.0903277 -0.264144 -0.288386 -0.283968 -0.0694767 0.210461 -1.56994 0.175215 0.0284396 -0.320241 -0.064406 0.0175922 -0.28515 0.203299 -1.79244 -0.740269
489 -0.208936 -0.215243 -0.186567 0.0187173 0.0895063 0.446939 0.00921998 0.240369 -0.23505 0.132317 -0.129566 -0.0171797 0.387132 0.822088 -0.108175 -0.122328 -0.250983 -0.209958 0.071233 0.0756088 -2.06969 -0.194325 0.0717767 -0.150783 0.104988 0.273709 -0.601046 0.110205 -1.84294 -1.78205
621 -0.200131 0.0157004 0.0188076 0.0296965 0.168325 0.262258 -0.113164 0.323781 -0.268105 0.0285888 -0.116924 0.0834719 0.162899 0.903285 -0.259072 -0.148101 -0.490959 -0.115833 0.405526 0.104029 -1.91604 -0.0951528 0.132369 0.0400909 -0.0290673 0.293018 -0.583775 0.167217 -1.81862 -1.20568
623 -0.241689 -0.00152726 -0.363967 0.0553979 -0.255481 0.343473 -0.0140955 0.358463 -0.201243 -0.00876907 -0.08142 0.026647 0.60017 1.03254 0.0413035 -0.254954 -0.550876 -0.141077 0.29004 -0.161642 -2.15895 -0.521587 -0.0839875 -0.0258646 0.067971 0.296471 -0.658304 0.0125729 -2.19356 -2.12556
695 -0.216823 0.283662 -0.204322 0.157967 0.051483 0.268066 0.530205 -0.264799 -0.0323325 -0.17004 0.0320426 0.336102 0.821785 0.446194 0.28132 0.00190764 -0.34286 -0.420235 -0.121691 -0.299753 -1.79682 -0.553594 -0.435764 -0.479692 -0.16559 0.156504 -0.218651 0.440769 -2.05241 -1.13284
797 0.0658304 0.091336 -0.0632062 -0.00597016 -0.102262 0.130307 0.546353 -0.104727 0.150476 -0.164014 0.0367371 0.356059 0.917991 0.283094 0.300879 -0.141209 -0.222522 -0.0479574 -0.443397 -0.305316 -1.5525 -0.363414 -0.201921 -0.780875 -0.174305 0.158628 -0.28748 0.444369 -2.08772 -1.08886
926 -0.160515 0.457732 -0.39598 -0.0864639 -0.521041 0.581026 1.23873 -0.348297 0.287628 -0.342064 0.104615 0.408702 1.16087 0.192118 -0.0949634 -0.343479 -0.197113 0.0185343 -0.341662 -0.181372 -1.72276 -0.0804537 -0.383632 -0.488929 -0.254009 0.259264 -0.281067 0.34496 -2.18656 -1.34533
848 -0.117865 -0.0498311 -0.0796853 -0.0490207 -0.196499 0.334631 0.0247143 0.411211 -0.34848 -0.452513 -0.188845 -0.104199 -0.347537 1.0364 -0.362039 -0.315742 -0.748763 0.020806 0.457455 -0.0195343 -1.74367 -0.397169 -0.193878 0.274318 -0.0392972 0.137572 -0.819679 0.199416 -1.69309 -1.73047
883 -0.397505 -0.466407 0.12889 0.174421 -0.0103637 0.176039 -0.324862 0.617489 -0.22396 -0.0860217 0.209721 0.0557812 -0.0721368 1.0538 -0.355088 -0.60315 -0.611985 0.0257179 0.497555 -0.238533 -1.93843 -0.644193 0.062965 -0.0679416 -0.326365 -0.0573874 -0.908304 -0.0266679 -1.84817 -1.48029
208 0.0915235 -0.200933 0.023196 0.160589 0.0938785 0.252631 0.294517 0.1513 -0.310194 -0.132382 0.0607107 0.20577 0.117512 0.764163 -0.415647 0.177938 -0.186487 0.0313198 0.12461 -0.115056 -1.58647 -0.646193 0.115691 -0.0619414 0.00815407 0.0508993 -0.675367 0.295568 -1.51387 -1.33057
728 -0.149638 -0.153124 -0.173963 0.0390107 -0.0802147 0.19048 -0.125513 0.200299 -0.205971 0.0542401 -0.0258873 0.16575 0.240724 1.16566 0.03159 -0.0530628 -0.641373 -0.0956647 0.589351 0.0729168 -2.05929 -0.3538 0.0184638 -0.00501162 0.118615 0.339166 -0.616029 0.128693 -2.0262 -1.93656
441 0.162483 -0.0635075 -0.318734 0.0272078 -0.0781386 0.51933 -0.240289 0.406254 0.109544 0.0233659 -0.308222 -0.283291 0.346416 0.559252 -0.109034 0.0146556 0.007285 0.176426 0.0735243 0.244151 -1.67216 -0.239494 0.0139371 0.0191325 -0.232791 0.206198 -0.546425 0.564102 -1.96333 -0.700546
628 -0.204909 -0.353121 -0.0806728 -0.11619 -0.101783 0.577764 0.0609845 0.382273 0.149237 -0.0364668 -0.169765 0.080849 0.00819783 0.785276 0.187967 0.236821 -0.229747 -0.09999 0.260002 0.30056 -1.71957 -0.242189 -0.47294 0.0682193 -0.00508622 0.254219 -0.765792 0.272118 -1.99653 -1.21176
714 0.236171 0.139482 -0.255552 0.106172 -0.435965 0.458757 0.389097 0.449931 0.224429 -0.132637 -0.0723353 -0.00523644 0.772483 0.474132 -0.0127349 -0.451264 -0.956357 -0.307848 0.0872503 0.0271492 -1.88428 -0.272528 -0.265007 -0.199164 -0.19983 0.312408 -0.394087 0.112126 -2.14937 -1.84997
721 0.231559 0.429794 -0.0944397 -0.041414 -0.182228 0.316819 0.0977813 0.460581 0.0249587 -0.0821585 -0.152367 -0.119038 0.724786 0.318696 0.266828 -0.356093 -0.622304 -0.482026 -0.0362875 0.0479059 -1.44966 -0.243173 -0.0445311 -0.362866 -0.295561 0.27383 -0.331172 0.283651 -2.20362 -1.23492
928 0.264283 0.300018 -0.415693 0.200641 -0.697857 0.62058 0.56954 0.813061 0.275417 -0.240571 0.28598 0.0159556 1.30706 0.302733 -0.20995 -0.504359 -0.967918 -0.08165 0.272285 0.0392485 -2.01132 -0.359465 0.161511 0.0192841 -0.368506 0.00444384 -0.351542 0.108399 -2.19955 -1.91943
989 0.918366 -0.0933394 -0.15175 0.308579 -0.62423 0.0550077 0.643624 0.665396 0.731426 -0.188459 0.222435 -0.180701 0.325725 -0.149977 0.201208 -1.04518 -0.668805 -0.195612 0.0824661 -0.00147109 -1.20512 0.508655 0.0440508 0.476981 -0.515986 -0.335031 -0.400023 0.276068 -2.15487 -0.560085
452 -0.044652 0.252958 0.0903657 0.0155951 0.24842 0.361779 0.626573 -0.244779 0.0466551 0.19261 -0.0952779 0.423436 0.770071 0.463897 0.177594 0.213073 0.00197533 -0.0365957 -0.101098 -0.0384573 -1.56804 -0.542752 -0.319847 -0.166211 0.0477416 0.115232 -0.298614 0.493277 -1.78833 -0.890179
912 -0.0411761 -0.236865 -0.0207815 0.0512361 -0.297514 0.252014 0.172125 0.445241 0.07409 -0.316881 0.105536 0.287255 0.872308 0.431535 0.386296 -0.317179 -0.733039 0.17824 -0.841334 -0.600179 -1.95155 -1.00839 -0.628603 -0.615468 -0.211543 0.161688 -0.367017 0.458268 -2.50978 -1.53499
887 0.132536 -0.323253 -0.0780049 0.0649727 -0.494084 0.413995 0.442998 0.118955 0.311638 -0.0704194 -0.0389067 -0.00920396 0.767556 0.52314 0.90628 -0.0753753 -0.934461 0.0434236 0.394463 -0.220518 -1.6618 -0.874029 0.382149 -0.317426 -0.290884 0.0229926 -0.63039 0.168304 -1.94276 -1.93777
802 0.222991 0.179718 -0.141559 0.0102371 -0.252158 0.688998 0.244433 0.214774 -0.129619 -0.365082 -0.136624 -0.081952 0.0438965 0.735967 -0.248612 -0.413049 -0.544275 0.0462155 -0.109591 -0.148699 -2.16898 -0.103533 -0.497484 0.124578 -0.0902127 0.505507 -0.439347 0.420893 -1.94169 -1.55262
832 0.403543 0.206597 -0.543275 0.0706866 -0.522456 0.579416 0.515329 0.182227 0.0312855 -0.433342 -0.0763678 -0.174738 0.271727 0.561071 -0.35034 -0.495424 -0.953092 -0.0770155 0.19602 0.0655746 -1.90516 0.00394349 -0.354257 0.331868 0.119736 0.233105 -0.498599 0.203157 -1.99617 -2.0822
894 0.762019 0.441476 -0.0941419 0.0325205 -0.386658 0.36301 0.381518 -0.263941 0.0450871 -0.486623 0.0649778 0.329913 0.314075 0.400903 -0.437268 -0.232552 -0.873236 0.125883 -0.103392 -0.257166 -1.70226 -0.464476 -0.485559 0.648385 -0.149162 -0.0982366 -0.823355 0.541309 -1.9584 -1.39313
338 -0.0951391 0.346873 -0.293679 0.0943168 0.197107 0.300058 0.64335 -0.147187 -0.0173588 -0.111499 -0.197419 0.0806621 0.345952 0.329944 0.252323 -0.0501042 -0.0143313 -0.191757 -0.0109448 0.0715203 -1.60737 0.0876829 -0.309467 -0.463786 -0.0867627 -0.0338711 -0.347181 0.620532 -1.79224 -0.643836
696 -0.169926 0.0963137 -0.172492 0.0535666 -0.0812942 0.300716 0.929512 -0.24848 -0.00680928 -0.268633 0.139826 0.292985 0.773821 0.43344 0.321999 0.108837 0.0225711 0.0226093 -0.0658735 0.0693474 -1.49534 -0.176508 -0.218864 -0.335578 -0.23271 0.0883965 -0.282602 0.529346 -1.77893 -0.824334
4 0.0701006 0.0928278 -0.00611367 0.0695148 -0.121967 0.408689 0.401332 -0.0758995 -0.142582 0.143833 -0.223583 -0.0113994 0.0697867 0.737886 0.493 -0.0250568 0.100279 -0.123668 0.0788433 -0.0299331 -1.25182 -0.40731 -0.135912 0.181526 0.133497 0.0541338 -0.445647 0.394632 -1.54517 -1.10194
927 0.104586 0.199443 -0.160213 0.14819 -0.283818 0.285742 0.391981 -0.265381 0.63595 -0.0081668 0.116011 0.109869 0.87905 0.229693 0.799572 -0.622088 -0.843029 -0.475983 0.15424 0.0608111 -1.6056 -0.0864542 -0.253907 -0.457105 -0.111249 0.0407727 -0.515578 0.403418 -2.54304 -1.08171
521 -0.0155244 0.0196334 -0.341954 0.233117 0.347019 0.144262 0.115685 -0.0778098 -0.0283687 0.00353562 -0.0455405 0.0895561 0.812971 0.29174 0.19181 0.369888 -0.185648 -0.0818151 0.694695 0.324764 -1.88366 -0.470292 -0.234184 0.0936776 0.4173 0.127769 -0.737566 0.272465 -1.72352 -1.93132
526 -0.0137928 -0.201351 0.00289544 0.136786 0.29889 0.182867 -0.0487528 0.16427 -0.023374 0.157604 -0.00844528 0.330353 0.749358 0.565855 0.319977 0.00123563 -0.0439489 -0.00558692 0.42277 0.30677 -1.81776 -0.5566 0.227026 -0.0296857 0.101413 0.233484 -0.64082 0.31966 -1.81462 -1.5941
759 -0.167882 -0.383008 -0.237373 0.263534 0.0237893 0.276653 0.135388 0.136255 0.221426 -0.0223086 0.304133 0.416286 1.44402 0.193317 0.224305 -0.127598 -4.60645e-05 0.285417 0.671422 -0.00247688 -1.68713 -0.676919 -0.0563758 0.0915865 0.153518 0.129257 -0.741698 0.152763 -1.88295 -1.9638
879 -0.294706 -0.205477 -0.479674 0.185617 0.00628176 0.252317 0.151881 0.0414578 0.300956 0.113787 0.0315006 0.368636 1.4602 0.259431 0.0582312 -0.0827115 0.119603 0.200106 0.603652 -0.0298258 -1.75373 -0.723297 -0.091359 -0.116311 0.259332 0.09892 -0.85775 0.0568082 -1.88121 -2.19005
950 -0.209119 -0.200075 -0.298055 0.202535 -0.0977399 0.327292 0.248995 -0.0331369 0.232731 0.00591322 0.292049 0.5703 1.42095 0.242332 0.125439 -0.247667 -0.0389994 0.258653 0.507341 -0.289882 -1.87351 -0.771773 -0.178382 0.0862303 0.0163311 0.114651 -0.547274 0.15759 -1.73769 -2.15447
962 0.0120423 -0.0824331 -0.0722478 0.183408 -0.211985 0.273959 -0.262332 -0.152686 0.434689 0.0558145 0.135985 0.634481 1.54395 -0.145296 0.0627434 -0.759319 0.18029 0.361258 0.432929 0.0552326 -1.75999 -0.295844 -0.269873 0.16374 0.14011 -0.0193084 -0.576123 0.548794 -1.68603 -1.67415
965 -0.365492 -1.23866 0.305117 0.869575 0.0797514 -0.218436 0.339618 0.555279 0.606792 -0.0371643 0.229922 0.456873 1.32704 -0.438561 0.298946 -0.128784 0.296301 0.0432673 0.726362 -0.111092 -1.40073 -0.608202 -0.286015 0.237047 -0.254264 0.0478032 -0.713044 0.0871984 -1.66255 -1.23545
393 0.0282738 -0.171871 -0.0523929 0.0036601 0.0186861 0.136701 -0.0428212 0.361758 -0.490865 -0.3633 0.0829142 0.0877303 0.25905 0.535853 0.064234 0.15738 -0.292098 0.0270706 -0.416053 -0.202232 -1.48183 -0.312985 -0.205034 -0.374586 0.0676722 0.145202 -0.696398 0.182396 -1.78442 -1.03379
884 0.289435 -0.169971 0.150413 0.238346 -0.15769 0.280857 -0.123618 0.724054 -0.0759379 -0.266035 -0.165059 -0.010107 0.917928 0.593479 0.324842 -0.0597368 -0.498564 0.177426 -0.371439 -0.214404 -2.04725 -0.995805 -0.496816 -0.41168 -0.25121 0.0544691 -0.469441 0.630406 -2.63575 -1.27286
562 -0.0201069 0.00810304 -0.218729 -0.0209211 -0.0138859 0.410204 0.869102 -0.346842 -0.000186791 -0.0873192 0.052552 0.19519 0.846298 0.445749 0.289172 0.0211857 -0.402681 -0.0917715 -0.0913084 -0.0318091 -1.73558 -0.445934 -0.11179 -0.40142 -0.153906 0.0586872 -0.511249 0.32693 -2.20402 -1.13821
578 -0.280748 0.149612 -0.189106 0.181003 0.0430965 0.211537 0.613645 -0.225602 0.0083031 0.134105 -0.0913413 0.292189 0.768537 0.361369 0.153262 0.0672337 -0.170091 -0.0580334 0.0445588 0.282925 -1.76883 -0.400149 -0.302325 -0.3625 0.0101885 0.272012 -0.313876 0.376083 -1.92665 -1.00101
992 0.0730238 -0.359714 0.489555 0.524484 -0.298863 0.142713 1.01241 0.605566 0.418683 -0.337738 0.52888 0.116446 0.0683821 0.327092 0.390842 -0.329716 -0.504858 -0.0372677 -1.0453 -0.72791 -1.22474 -1.02288 -0.341383 -0.30683 -0.770721 -0.420854 -0.355331 0.549057 -2.1214 -0.183713
216 -0.0104359 -0.227305 0.28491 0.0582891 0.465228 0.0384488 0.245327 -0.232514 -0.415717 -0.208107 -0.0655526 0.0367795 -0.0318452 0.840922 0.152799 0.158314 -0.18486 0.0353219 0.250748 0.259483 -1.47572 -0.446608 -0.11158 -0.331379 -0.113926 0.109765 -0.819552 0.232301 -1.63007 -1.10831
745 0.101458 0.210055 -0.0531043 -0.0533873 -0.445639 0.82383 -0.00999315 0.262032 -0.172589 -0.326561 -0.35625 -0.0771385 -0.235765 1.00337 -0.0321072 -0.181139 -0.438174 -0.00805112 0.125811 0.145825 -2.02288 -0.0764874 -0.363464 0.0794548 -0.0214679 0.427573 -0.69572 0.234918 -2.03524 -1.94213
1 0.106998 -0.03399 0.16863 -0.121753 0.0400839 0.1241 -0.00785371 -0.0428977 -0.0489937 -0.152424 -0.0662419 0.197196 0.049305 0.742411 0.165512 -0.176793 -0.077311 -0.369693 0.493056 0.33851 -1.49502 -0.00155823 0.268664 -0.148643 -0.100821 0.249382 -0.573931 0.46801 -1.70334 -0.983776
111 0.322058 0.092173 0.342228 0.00858395 0.15584 0.15309 -0.0688845 0.334951 -0.0228422 -0.0513507 -0.403697 0.0742335 0.339446 0.112685 -0.0648295 0.00176786 -0.382529 -0.00227225 0.117399 0.133254 -1.56076 -0.275222 -0.071084 -0.118593 -0.0364738 0.150498 -0.52949 0.675703 -1.74754 -0.625328
225 0.322866 0.0963321 0.036571 0.206549 0.0473829 0.38683 0.0871487 0.405164 -0.116146 -0.126903 0.01561 0.0430654 0.373066 0.642376 0.177008 -0.025207 0.0365136 -0.109701 0.193859 0.19309 -1.71162 -0.230907 -0.193967 0.0877715 -0.129345 0.0735429 -0.530414 0.626068 -1.9568 -0.944187
515 0.197666 0.0946547 -0.141481 0.11394 -0.0312172 0.46323 0.0614532 0.686049 -0.118082 -0.163086 -0.0257898 -0.0118196 0.512655 0.534135 0.0452478 0.129505 -0.385345 -0.230697 0.230551 0.213351 -1.94148 -0.299444 -0.162599 0.0893224 -0.28346 0.0959645 -0.580966 0.624758 -2.197 -1.01225
617 0.597104 0.0278803 0.0036221 0.162271 -0.174595 0.352817 0.225952 0.480982 -0.184667 -0.157885 -0.429241 -0.0298864 0.369126 0.309512 -0.101533 -0.135159 -0.194818 0.0463496 0.0637673 0.0350813 -1.54919 -0.414117 -0.267084 0.261746 -0.0171354 0.039026 -0.626432 0.564404 -1.92915 -1.01725
709 -0.0274948 -0.281597 -0.0449292 0.135271 0.00776099 0.189031 -0.0455694 0.522544 -0.040216 -0.0370898 -0.126602 -0.222597 0.511893 0.333785 0.267914 -0.116507 -0.513618 -0.426685 0.573093 0.357687 -1.47611 0.0865632 0.259358 -0.0242243 -0.0975011 0.169658 -0.558357 0.232688 -2.05478 -0.651171
735 -0.0699467 -0.359303 -0.314708 0.174498 -0.319442 0.39115 -0.013926 0.871102 0.000438522 -0.0694784 0.0294708 0.261482 0.591487 0.795141 -0.0986473 0.316615 -0.906843 -0.168632 0.288256 -0.114516 -1.90908 -0.557458 -0.135998 0.37089 -0.116475 0.155109 -0.498379 0.127931 -1.97561 -1.40042
923 0.435092 -0.0711316 -0.190482 0.375249 -0.422272 0.203162 -0.22181 1.00156 0.330589 -0.226725 -0.0746062 -0.0563481 0.89059 0.237197 -0.0100562 -0.169422 -0.427837 0.00478773 0.638654 0.263629 -1.68983 -0.367831 -0.0780313 0.458746 -0.36577 -0.211458 -0.590575 0.730296 -2.22429 -0.841891
625 0.282876 0.436355 -0.298268 -0.103104 -0.0588889 0.317924 0.125745 0.282633 -0.0284864 -0.065745 -0.340607 -0.221662 0.378811 0.477732 -0.328659 -0.132663 -0.682418 -0.36863 0.12199 0.247117 -1.9053 0.084341 -0.0733198 -0.421788 -0.227329 0.137887 -0.501168 0.251607 -2.02977 -1.31823
769 0.330616 0.0890743 -0.301553 -0.0254378 -0.379165 0.356645 0.164724 0.417546 -0.0450544 -0.137661 -0.274133 -0.15697 0.407726 0.589172 -0.00110578 -0.319646 -1.00984 -0.112008 0.1893 0.0818265 -1.7593 0.0287932 -0.155689 0.135113 0.00774848 0.192207 -0.373175 0.0847033 -1.88568 -1.72335
273 0.224922 0.143075 0.07397 0.145906 0.166295 0.431838 0.310727 0.0252011 -0.439494 -0.298003 -0.306677 -0.0400493 0.0542517 0.657682 -0.17797 -0.0459932 -0.164045 0.0649462 -0.131941 -0.0448025 -1.70246 -0.502657 -0.196508 -0.352655 -0.03452 0.187489 -0.635275 0.261429 -1.6764 -1.34848
463 -0.112663 -0.00573334 -0.0252762 0.0879852 0.235669 0.239286 0.221579 -0.0669121 -0.194915 -0.0253144 -0.155283 0.119742 -0.195645 0.859912 0.235707 -0.123998 -0.239852 -0.160434 0.511582 0.27082 -1.74005 -0.214412 -0.0481799 -0.074083 0.0204607 0.335124 -0.839765 0.295626 -1.92795 -1.44394
492 -0.132632 -0.175939 0.400478 0.175296 0.400995 -0.00261676 0.103121 0.0943591 -0.0239954 0.206673 -0.20519 -0.0661175 -0.302259 0.714811 0.295999 0.0327732 0.0241257 -0.295011 0.377701 0.389629 -1.64057 -0.173834 0.0309811 -0.314848 -0.210671 0.0661367 -0.647232 0.555263 -1.80423 -0.885785
345 0.173071 -0.0903554 0.164359 0.05926 0.0302061 0.225195 -0.191981 0.149837 -0.182115 -0.116366 -0.0399629 0.175131 -0.435613 1.0026 -0.0167924 -0.23226 -0.174383 0.173689 0.162195 0.0634126 -1.70434 -0.228427 -0.300066 -0.00758315 -0.00283989 0.180723 -0.625821 0.320553 -1.58361 -1.2412
811 0.162994 0.0406261 -0.188283 -0.0560708 -0.230216 0.607819 0.311191 0.215183 -0.0566341 -0.355468 -0.11842 -0.166046 -0.10316 0.926365 -0.29333 -0.618766 -0.821676 -0.0259449 0.289992 0.0873195 -2.01008 -0.00455303 -0.373785 0.430806 0.132701 0.281724 -0.485784 0.378063 -1.95154 -1.8586
334 -0.0630831 0.108051 0.0613077 0.018251 0.0525113 0.357591 0.333669 -0.247473 -0.326577 -0.0687311 -0.0388912 -0.100918 -0.10051 0.696443 0.370096 -0.255856 0.206035 -0.0891725 0.0895322 0.166917 -1.38734 -0.30604 0.236937 0.0903686 0.0600182 0.176458 -0.667145 0.35209 -1.60492 -0.915352
820 0.354765 -0.00182572 -0.27784 0.15875 -0.172312 0.297352 0.342646 -0.0179365 0.361375 0.286139 -0.0904673 0.249631 0.302872 0.637925 0.644036 -0.538574 -0.110907 0.242629 0.0670122 -0.245397 -1.54035 -0.773847 0.0137855 -0.0703599 -0.0233052 0.119161 -0.583948 0.388935 -1.79627 -1.32896
627 0.217161 0.00230275 0.0281901 0.0913912 -0.135362 0.385243 0.438373 -0.133209 0.065699 0.0113709 -0.255915 0.225108 -0.193944 1.039 0.330877 -0.471278 -0.00989386 0.186345 -0.173066 -0.0766677 -1.76395 -0.507189 -0.0693943 -0.0474971 0.113781 0.00851981 -0.449522 0.322363 -1.86088 -1.23692
53 0.193016 0.0577224 -0.0822683 0.0378531 0.24732 0.0489615 0.250013 -0.0379508 -0.315243 -0.202083 -0.24093 0.163621 -0.0419489 0.61714 -0.108554 -0.209382 -0.177232 0.241451 -0.0233866 0.175902 -1.29019 -0.559721 -0.280849 -0.340106 0.140552 0.284679 -0.742932 0.408988 -1.64829 -1.19557
731 0.382209 0.0576447 -0.0440706 0.156161 -0.0153307 0.131073 0.4317 0.127194 -0.181049 -0.299611 -0.0795374 0.138205 0.416824 0.433013 0.0520833 0.31305 -0.447176 0.217455 -0.142128 -0.288665 -1.76704 -0.899862 -0.358656 -0.24081 -0.144602 0.191715 -0.612904 0.350614 -1.65169 -1.68869
791 -0.168132 -0.0672498 0.256791 0.176701 0.267526 0.0970735 -0.0690645 0.280414 -0.00146888 0.123253 -0.126899 0.0901029 0.567712 0.433364 0.337697 0.403418 -0.363742 -0.295453 0.105253 -0.00993653 -1.64417 -0.725681 -0.170901 -0.380074 -0.121029 0.0664978 -0.578472 0.512155 -1.95999 -0.848304
964 -0.0498775 -0.425845 -0.0681335 0.29951 -0.364841 0.259599 -0.0805226 0.628816 -0.0235202 -0.0877833 0.197721 0.04744 0.333754 1.09634 -0.0654173 -0.370813 -0.796281 0.0717316 0.156241 -0.446132 -2.0172 -0.956445 -0.145998 0.022699 -0.179895 0.00178823 -0.786064 -0.0691605 -1.86658 -1.91787
323 0.140971 0.144685 -0.179968 0.00489254 -0.138879 0.386657 0.341854 -0.192833 0.196258 0.127275 -0.184752 0.252795 -0.250139 0.976606 0.247354 -0.361604 -0.0574472 0.160476 0.0197693 0.0179293 -1.51958 -0.574199 -0.061971 0.185825 -0.155014 0.0140587 -0.418167 0.41907 -1.56205 -0.822662
858 1.11214 0.29699 0.288657 0.261302 -0.293307 -0.019653 0.545422 -0.128704 0.0989498 -0.158787 -0.191365 -0.0266784 -0.0693937 0.446331 0.349448 -0.41912 0.0629509 0.322383 -0.0932452 -0.266641 -1.3201 -0.527385 -0.399252 0.106571 0.075913 -0.200032 -0.487053 0.607299 -1.74454 -1.09075
502 -0.0419864 0.0365844 -0.143371 0.0267615 0.149413 0.445287 0.0640933 0.2526 -0.186402 -0.0729143 -0.112493 0.0305338 0.376108 0.608358 0.573176 0.0586657 -0.484442 -0.168466 -0.377866 -0.145315 -1.98384 -0.63773 -0.276605 -0.352249 -0.275254 0.240106 -0.443491 0.501253 -2.40313 -1.24371
804 -0.179122 -0.293009 -0.0545126 0.0098886 0.00128072 0.231134 -0.0572471 0.300178 0.0533418 -0.369931 -0.0141818 0.233464 0.63776 0.316685 0.296202 -0.106804 -0.416613 -0.0196623 -0.474068 -0.509621 -1.53382 -0.597298 -0.413817 -0.700952 -0.334248 -0.0562501 -0.414267 0.464213 -2.08771 -0.845958
886 0.742704 0.105656 -0.00489507 0.0642606 -0.169548 0.204709 0.884637 0.019968 -0.209096 -0.532448 0.0716301 0.0266218 0.328011 0.382269 -0.314842 0.00529287 -0.571141 0.193943 -0.217844 -0.273152 -1.55493 -0.82626 -0.465244 0.114003 -0.132209 -0.0114728 -0.527219 0.387464 -1.57406 -1.64416
945 0.0379923 -0.164199 0.106501 0.00830665 -0.0492983 0.102143 0.260463 0.0213 -0.322138 -0.584611 0.0587449 -0.0955213 0.544763 0.159388 0.0704112 -0.943201 -0.216456 0.0476787 0.0285839 0.282135 -1.41829 0.308503 -0.387819 -0.478546 -0.115306 0.127884 -0.664515 0.248746 -1.89261 -1.30973
507 0.118527 0.0864603 -0.0516488 0.0022242 0.202323 0.319225 0.138998 0.161383 -0.130843 0.0635166 -0.190824 0.189017 0.242282 0.624122 0.167972 0.0805794 -0.281995 -0.194114 0.0351903 0.255279 -1.57321 0.208887 -0.274548 0.13752 0.125158 0.319136 -0.58342 0.31297 -1.61645 -1.25875
564 0.0492267 0.102186 -0.337774 -0.0881338 -0.25201 0.436541 0.372328 0.261785 -0.126012 -0.172922 -0.128796 -0.160759 0.305681 0.599363 0.156924 0.136819 -0.598827 -0.186876 -0.0514713 0.0265638 -1.80508 -0.259485 -0.312342 0.0535966 -0.00951353 0.289207 -0.492989 0.29448 -1.73791 -1.82189
772 -0.258296 -0.230464 -0.281203 -0.0270105 -0.334922 0.60433 0.0866446 0.0194886 -0.11358 -0.252776 -0.00183397 0.102123 0.472972 0.704318 0.237656 0.0926413 -0.635262 -0.19909 -0.202164 0.181269 -1.93545 -0.446384 -0.506268 -0.0566175 -0.169422 0.356921 -0.559357 0.338313 -2.29177 -1.37468
775 -0.192577 -0.212014 -0.115036 0.00572132 -0.140077 0.383721 0.182897 0.124723 -0.157547 -0.292855 -0.314816 0.159633 0.198327 0.636992 0.166045 0.299677 -0.371675 -0.290444 0.137037 0.111338 -1.79709 -0.20465 -0.242548 0.249644 -0.0902291 0.157525 -0.489326 0.289853 -1.90355 -1.21295
805 0.247534 -0.142151 0.0975883 0.0829652 -0.173883 0.456242 -0.0420797 0.407405 -0.0570102 -0.119534 0.00620228 -0.0568416 0.21334 0.577359 0.0185802 -0.0853745 -0.496391 -0.0260631 0.302643 0.121273 -1.53878 -0.466887 -0.1783 0.143713 -0.309961 0.0243942 -0.189469 0.634713 -2.11116 -0.263661
177 0.0446989 -0.161486 0.322381 0.173653 -0.0129954 0.395206 0.043831 -0.0451374 -0.340446 -0.175374 -0.370691 -0.352639 0.275488 0.518444 -0.273974 -0.570829 -0.119599 -0.153147 -0.0313533 0.450999 -1.62304 0.227743 -0.237067 -0.307469 0.190554 0.391866 -0.585033 0.269357 -1.64183 -1.08481
400 0.0999554 -0.10866 -0.0187375 -0.0295607 0.0694057 0.425652 0.260879 -0.282319 -0.368959 -0.254659 -0.34408 0.00358675 0.232442 0.373647 0.095618 -0.404089 0.0361991 0.0968392 -0.0700579 0.321852 -1.72046 -0.0312883 -0.119764 -0.245765 0.0612749 0.251784 -0.682511 0.363373 -1.88714 -1.55765
405 0.107412 0.0800148 -0.255526 -0.0107396 -0.0708588 0.335279 0.0562435 0.0420738 -0.541948 -0.464539 -0.219516 -0.251187 0.360182 0.498311 0.160604 -0.468733 -0.0901927 0.0872835 0.231481 0.335259 -1.46623 0.289211 -0.281973 -0.328132 0.023789 0.399859 -0.643624 0.346214 -1.98726 -1.30316
527 0.154546 0.0117274 -0.234329 -0.0621215 -0.0875767 0.410076 -0.0740175 0.188892 -0.52038 -0.414198 -0.17779 -0.0110522 0.360216 0.476358 -0.167463 -0.546392 -0.228792 -0.235432 -0.0364308 0.201945 -1.63285 0.255096 -0.153229 -0.478556 0.0263783 0.289689 -0.508883 0.409343 -2.17707 -1.44585
874 0.203763 -0.105232 -0.218009 0.306977 -0.0462579 0.269538 0.342391 0.16413 0.330387 0.142053 -0.121218 0.0392123 0.927949 0.547909 0.803176 0.392556 -1.01431 -0.0879098 0.413894 -0.256573 -1.90063 -0.876578 0.251428 -0.162669 -0.215835 -0.00962534 -0.959977 0.115806 -2.28213 -2.20627
346 -0.252482 -0.00469291 0.0482884 -0.108138 -0.205104 0.296318 0.247622 0.0699864 -0.0665104 -0.00423901 -0.246859 0.195467 0.243212 0.364605 0.325113 0.227121 -0.39473 -0.175141 0.333785 0.104556 -1.58011 -0.24199 0.0481945 0.203239 0.0745704 0.11252 -0.691924 0.263867 -1.62357 -1.01518
509 -0.328546 0.0683567 -0.0117581 0.000542598 0.26209 0.326376 0.197752 0.177099 -0.00276211 0.246652 -0.0586816 0.407317 0.369956 0.839047 0.344396 0.353936 -0.127262 -0.0538511 0.494315 0.218657 -1.65211 -0.355175 -0.148616 0.233962 0.0093888 0.143995 -0.505708 0.561739 -1.90075 -1.18741
97 -0.103305 0.0414781 -0.0531175 0.181257 0.0929131 0.24996 0.0659118 -0.0123103 0.145314 0.0156137 -0.282006 0.0532807 -0.0126674 0.543563 0.319127 -0.339792 0.148596 0.172799 0.248288 0.0345634 -1.42275 -0.46838 -0.0375216 0.245133 0.216819 0.120601 -0.369785 0.568977 -1.14648 -1.28981
406 0.0860268 -0.262076 -0.033893 0.111481 -0.13797 0.742458 0.321412 0.117069 0.0332848 -0.0229837 -0.181231 -0.189725 0.16187 0.743033 0.40789 -0.399249 -0.358635 0.100466 0.190877 0.0693699 -1.89601 -0.438515 -0.113397 0.274587 0.0475816 0.192453 -0.566872 0.21026 -1.7137 -1.37465
634 0.170378 -0.269528 -0.0870655 -0.036255 -0.465037 0.573253 0.304027 0.176559 -0.047961 -0.223508 -0.221405 0.0475978 0.118206 0.585051 0.450608 -0.427463 0.00632719 0.286883 0.197826 -0.181313 -1.72273 -0.429996 -0.367266 0.159259 0.110808 0.130568 -0.603728 0.284277 -1.63649 -1.57694
396 0.223981 -0.00221647 0.05987 -0.0012956 0.191678 0.0217495 0.390231 -0.0875807 0.0505673 0.214245 0.0364246 0.12459 0.583851 0.412336 0.234581 0.0190392 -0.442664 -0.452589 0.212827 0.192493 -1.52993 -0.513402 0.11729 -0.357136 -0.0247248 0.148341 -0.691629 0.352186 -1.81354 -0.86627
751 0.0548889 -0.101851 -0.136896 0.0270725 0.0266295 0.0838534 0.249584 -0.203824 0.30743 0.279247 -0.0951799 0.109992 0.391473 0.45926 0.377868 0.178173 -0.665388 -0.305119 0.502118 0.1436 -1.6647 -0.59938 0.193775 -0.263311 -0.0191865 0.05522 -0.756546 0.331284 -1.78615 -1.64001
903 0.199978 -0.218711 -0.244787 0.0443488 -0.249272 0.236407 0.296399 0.0502835 0.283043 -0.0767996 -0.0789974 0.23114 0.512073 0.54055 0.72506 0.135655 -1.07485 -0.10804 0.436739 -0.117168 -1.74163 -1.09919 0.17867 -0.158622 -0.218062 -0.0656402 -0.744776 0.160705 -2.11244 -1.98818
413 0.152843 -0.0573989 -0.237052 -0.158996 -0.0617962 0.303932 0.00835412 0.13902 0.144137 -0.00161044 -0.234012 0.00654135 0.351778 0.57038 -0.33803 -0.358076 -0.571734 -0.347278 -0.204345 -0.0899611 -1.55777 0.0548076 -0.158436 -0.219153 -0.0327907 0.13202 -0.291744 0.234476 -1.71895 -0.97599
422 0.262879 0.289814 -0.36389 0.0444924 -0.250692 0.503322 0.269723 0.0803504 0.0931592 0.00567662 -0.0555235 -0.116014 0.514371 0.254492 -0.0919311 -0.43112 -0.650128 -0.486383 0.0749533 -0.023518 -1.79904 -0.0020798 -0.167976 -0.149231 -0.087354 0.383125 -0.50393 0.142889 -1.97887 -1.47818
793 0.460155 0.195026 -0.255147 0.0950825 -0.202073 0.417924 0.0848798 0.289172 0.183659 0.00333861 0.0333645 -0.139646 0.156012 0.618436 0.341733 -0.564885 -0.568776 -0.338147 0.341878 0.048388 -1.59578 0.0030858 0.24422 -0.0482193 -0.264337 0.0555782 -0.436471 0.177117 -1.9091 -1.3266
494 0.236806 -0.139561 0.0341791 0.172855 0.159119 0.0642178 0.144775 -0.120916 0.237104 0.192348 -0.232602 0.0244112 0.289483 0.459057 0.303784 0.137324 -0.402498 -0.0147961 0.27401 0.363069 -1.33148 -0.48888 0.171423 -0.181841 0.0973291 0.169916 -0.661927 0.426159 -1.63255 -1.05944
513 0.208782 -0.0630104 -0.101277 -0.0272232 -0.119383 0.279133 -0.00617422 0.073288 0.11831 0.105068 0.0399488 -0.136287 0.346189 0.724103 0.621347 0.119001 -0.449357 -0.484716 0.406049 0.192678 -1.71629 -0.238899 0.147426 -0.175232 -0.160309 -0.0307432 -0.641171 0.564799 -1.92253 -1.71202
497 -0.168331 -0.41445 -0.127875 0.0825548 -0.0469985 0.477448 0.197417 -0.0222689 -0.139311 0.081744 -0.238578 -0.0545317 0.16886 0.518636 0.149034 -0.00243668 -0.289939 -0.263264 0.236846 0.478507 -1.71776 0.187576 -0.29553 -0.107155 0.0843988 0.336532 -0.422645 0.361209 -1.83947 -1.23197
782 -0.0830819 -0.176634 -0.22926 0.105702 -0.41564 0.699388 0.265701 0.243947 -0.149689 -0.319928 -0.141492 0.250681 0.358572 0.851381 0.0678198 0.11134 -0.738046 -0.121959 0.370299 0.140044 -1.89706 -0.477524 -0.282957 0.0272601 -0.302366 0.41433 -0.389154 0.431464 -2.48413 -1.33251
789 -0.306183 -0.188515 -0.311202 0.0783568 -0.333531 0.543841 0.378981 0.166828 0.107058 -0.303492 -0.0969503 0.207606 0.38467 0.562482 0.183504 0.00152895 -0.67446 -0.10189 -0.0577131 -0.0587212 -1.9417 -0.475624 -0.504543 -0.0899687 -0.0893863 0.226256 -0.375091 0.390714 -2.15104 -1.43403
827 -0.0977056 -0.207 -0.247539 0.279727 -0.33292 0.373997 -0.129997 0.448001 -0.0946344 0.0301075 0.0988163 0.209996 0.861375 0.76574 -0.153052 -0.155298 -0.557218 0.0138442 0.338036 -0.297853 -2.07832 -0.92054 -0.0417997 -0.0134389 0.168848 0.278076 -0.803974 -0.144621 -1.95804 -2.36266
79 -0.0758558 0.428462 -0.36495 -0.023698 0.178489 -0.151051 -0.0322237 0.0548233 0.065925 -0.152284 -0.282727 0.128243 0.303675 0.515115 -0.281055 -0.170783 -0.322177 -0.208176 -0.131673 0.392399 -1.90806 0.140909 0.366304 -0.461685 -0.0871672 0.304897 -0.522678 0.308643 -1.98267 -1.02069
480 0.166507 0.00937165 0.068971 -0.0640993 0.00794384 0.30891 0.0516656 -0.046823 -0.325947 -0.39135 -0.125993 -0.241053 0.372418 0.479544 0.226774 -0.320487 -0.319124 -0.291748 0.174478 0.271984 -1.71913 0.124657 0.0949444 -0.259022 0.120543 0.359673 -0.776165 0.226899 -1.9485 -1.77784
575 0.250822 0.0229265 -0.311959 -0.0606497 -0.280202 0.357221 0.185409 0.168047 0.0788435 -0.0621941 -0.224485 0.0412531 0.48276 0.465484 0.0601613 -0.466549 -0.486429 -0.397387 0.015709 0.14025 -1.88589 0.046165 -0.0323294 -0.121246 -0.0763823 0.271669 -0.230171 0.295416 -2.1617 -1.10045
378 0.451799 0.0389647 -0.194784 0.0218095 -0.0754222 0.47629 0.133695 0.112831 0.0451511 0.134807 -0.0381888 0.130408 0.256288 0.524369 0.275623 -0.24845 -0.21476 -0.291604 0.184651 -0.0667704 -1.58413 -0.0965323 -0.00535481 -0.310827 -0.143564 0.0206222 -0.290772 0.439486 -1.65121 -1.31982
385 -0.0955496 -0.221973 0.0506484 0.0225131 -0.0225833 0.475078 0.431923 -0.0440265 -0.116892 -0.0155973 -0.374704 0.011377 -0.186765 0.753492 0.107816 -0.371032 0.0316217 0.235685 -0.01897 0.154136 -1.54886 -0.395015 0.123345 -0.000682888 0.15574 -0.0616912 -0.469141 0.370346 -1.34758 -1.19189
896 -0.26966 -0.282782 -0.762777 0.255452 -0.932782 0.862968 0.851898 0.0546953 0.174011 -0.127652 0.0028337 0.121668 0.471307 0.909057 0.264938 -0.304275 -0.590557 0.058704 0.504848 -0.0524086 -1.93989 -0.597425 -0.270096 0.558624 0.0306118 0.154018 -0.556206 0.362048 -2.3138 -2.25943
125 -0.388337 -0.357623 -0.398085 -0.169243 0.259609 0.394629 0.160602 -0.0105837 0.0246947 0.12304 -0.0470844 0.143423 0.169444 0.816888 0.124744 0.212351 -0.0820932 0.0338048 0.0287125 0.233889 -1.77195 -0.235155 -0.136822 0.225684 -0.0526528 0.260235 -0.581402 0.368347 -1.67297 -1.25379
796 0.281036 -0.00805918 0.329931 0.171882 0.0838336 0.474328 0.12854 0.318201 -0.156193 -0.152096 0.0781949 -0.00197672 0.100359 0.69788 -0.0623851 0.107493 -0.489356 -0.223919 0.252608 0.199085 -1.51569 -0.534897 -0.186707 -0.217258 -0.286613 0.114336 -0.271412 0.742752 -2.32474 -0.473016
803 0.328208 -0.0041532 0.194168 0.0145381 -0.341282 0.510357 0.470404 -0.119538 0.00181189 -0.267971 0.0616006 0.0425869 0.0324871 0.651524 0.0224494 0.214225 -0.505765 0.249319 0.0880795 0.0470438 -1.44921 -0.671779 -0.261281 -0.142433 -0.200982 0.0750693 0.021885 0.804893 -1.9339 -0.636824
973 0.58898 -0.127905 -0.580786 0.136727 -1.19252 0.559144 0.407409 0.619721 0.613315 0.0264182 0.299359 0.0621608 1.01077 -0.19809 0.0904261 -0.797266 -0.673449 0.114246 0.0883306 0.0132189 -1.47998 0.164182 -0.246509 0.592085 -0.320819 -0.178333 -0.395736 0.777577 -2.24876 -1.10579
448 -0.162303 -0.280816 -0.114577 0.0800082 -0.051487 0.317011 -0.096574 0.203288 -0.133868 0.0657942 -0.0825851 0.0726893 0.0150193 0.912584 -0.252583 -0.101835 -0.140034 -0.125776 0.163891 0.0768806 -1.75895 -0.270874 0.130959 -0.187194 0.0846132 0.173365 -0.734941 0.0678676 -1.66068 -1.39287
931 -0.0803365 -0.148039 -0.323072 0.233512 -0.189648 0.23668 0.0941006 0.00579766 0.0969745 0.181781 0.107198 0.448419 1.29786 0.297789 0.133912 -0.0412206 0.0756176 0.186253 0.451874 -0.250299 -1.74602 -0.80667 -0.25116 0.0858878 0.137175 0.133011 -0.592754 0.147217 -1.74671 -2.06731
668 0.189358 -0.115926 -0.106171 0.30503 -0.109824 0.365288 -0.208125 0.92043 -0.049036 -0.0522995 0.00192929 -0.0386042 0.494085 0.470361 0.013576 -0.165496 -0.491765 0.065255 0.0053981 -0.00809351 -1.86043 -0.441267 -0.00623256 0.249444 -0.212727 -0.0615246 -0.728376 0.561225 -2.03112 -0.936318
408 -0.0836971 0.200355 -0.247474 0.00295059 -0.0521337 0.32394 -0.0504517 0.179127 -0.033672 0.063926 -0.216183 0.100936 0.567372 0.463247 -0.0909236 -0.405671 -0.234275 -0.151923 0.19803 -0.0203856 -1.71906 0.0812599 -0.0459737 -0.234581 -0.028039 0.124774 -0.424261 0.349123 -1.85852 -0.785152
813 -0.20987 0.0820547 -0.342978 -0.0437917 -0.175431 0.45869 0.617867 0.110727 0.00110117 -0.307644 0.065577 0.0753602 0.776992 0.519449 0.140562 -0.0702501 -0.700032 -0.218158 -0.1264 0.0729577 -1.84472 -0.199133 -0.195239 0.000342758 0.0424611 0.376121 -0.596447 -0.00728012 -2.14734 -1.75644
181 -0.311179 -0.0757038 0.0704892 0.0467086 0.150467 0.0992104 -0.222472 0.164125 -0.103513 0.105805 -0.264187 -0.226376 0.273806 0.55519 0.344467 -0.0802289 -0.158138 -0.0724841 -0.435395 -0.0545985 -1.4774 -0.477186 -0.048671 -0.775876 -0.234441 0.230555 -0.576114 0.606037 -1.86406 -0.897475
25 0.0800211 0.119659 -0.0210424 0.13192 0.171998 0.316475 -0.123526 0.470918 0.0767277 0.0936132 -0.210495 -0.253611 0.377844 0.369087 0.196653 0.133106 0.0834667 -0.103313 0.328437 0.345955 -1.66175 -0.0939245 -0.212012 -0.0737209 -0.0148976 0.0808376 -0.561497 0.621828 -1.89815 -0.815103
733 0.283089 -0.189596 -0.23666 0.125851 -0.237121 0.490871 -0.198096 0.89221 0.00938723 -0.0266828 -0.0506657 0.0507639 0.870153 0.347272 0.0832611 -0.311526 -0.226023 -0.162118 -0.120982 0.0180843 -1.8261 -0.477219 -0.392133 0.0866727 -0.375242 -0.0348454 -0.586949 0.448564 -2.27254 -0.69392
863 0.248269 -0.304148 -0.0643275 0.230767 -0.23654 0.168377 0.0250207 1.04013 -0.0807281 -0.223054 0.00573863 0.0909983 0.824094 0.419841 0.170923 -0.0165562 -0.326788 0.0581599 -0.194786 -0.227047 -1.69234 -0.918859 -0.170362 -0.0714681 -0.341976 -0.0837995 -0.534391 0.496513 -2.14467 -0.858648
612 -0.108839 0.0460169 -0.338657 0.0066557 -0.00294364 0.303017 0.608843 -0.112212 0.146414 -0.0237105 -3.36946e-05 0.267763 0.570982 0.421973 0.288217 0.0229801 -0.261381 -0.175886 -0.172532 0.161248 -1.82337 -0.0163011 -0.238965 -0.423143 -0.0886064 0.268535 -0.369585 0.432945 -2.13465 -0.738986
826 -0.159454 0.130126 -0.278107 -0.108284 -0.218988 0.296737 1.03898 -0.678977 0.439929 -0.035169 0.00712014 0.370683 0.870355 0.25116 0.33319 -0.120509 -0.380197 -0.0264999 -0.256633 -0.237826 -1.74839 -0.531911 -0.283597 -0.491279 -0.106388 0.133424 -0.41774 0.39829 -1.96638 -1.3483
859 -0.00522034 0.285981 -0.274452 -0.0645014 -0.24754 0.324772 1.11929 -0.409895 0.324475 -0.242692 0.0673737 0.489436 1.04847 0.341289 0.354701 -0.146162 -0.322482 -0.0798888 -0.201372 -0.116974 -1.6248 -0.384389 -0.277362 -0.308862 -0.190889 -0.0468965 -0.314088 0.44215 -2.09953 -1.24391
824 0.0483 0.204232 -0.297214 -0.00434971 -0.0918397 0.315187 0.602683 -0.034313 0.145418 -0.216733 -0.0925526 0.280796 1.01472 0.158971 0.229039 -0.107843 -0.43577 -0.0691918 -0.458453 -0.229823 -1.54616 -0.26921 -0.329615 -0.749573 -0.256996 0.0535499 -0.300157 0.428465 -2.00243 -1.0137
841 0.280498 0.0647131 -0.318938 0.0498874 -0.411196 0.378838 1.01347 -0.169681 -0.147542 -0.331708 -0.023144 0.114748 0.515888 0.686618 -0.134468 -0.00387086 -0.533485 0.191185 -0.276259 -0.312848 -1.89709 -0.909505 -0.472386 0.0369273 0.0679272 0.176517 -0.442664 0.244721 -1.85923 -1.85459
847 0.429729 0.0687281 -0.376241 0.0278632 -0.454469 0.389044 1.00153 0.0273847 -0.235044 -0.381495 0.143746 0.120131 0.520269 0.522014 -0.466074 -0.181491 -0.661181 0.111709 -0.640694 -0.530503 -1.67611 -0.920585 -0.31873 -0.173889 -0.215418 0.0999539 -0.436617 0.0451789 -1.75567 -1.66728
142 0.408692 0.238764 -0.183528 0.198078 0.0759348 0.316678 0.3559 0.0120443 -0.104356 0.0455313 -0.357304 -0.258673 0.275287 0.507986 0.223369 0.0545402 -0.33613 -0.15692 0.264174 0.348151 -1.47354 -0.146349 0.119776 -0.0639164 0.153864 0.276004 -0.571676 0.27255 -1.60112 -1.38821
770 0.2016 0.076966 -0.0990951 -0.0438557 -0.128315 0.116854 0.205535 -0.116513 0.245515 0.28283 0.0148216 -0.096491 0.268379 0.584367 0.580142 0.0875119 -0.550835 -0.464766 0.388898 0.132655 -1.77542 -0.666086 -0.0604727 -0.260862 0.057143 0.0755726 -0.790783 0.434228 -2.06729 -1.65058
257 0.0137465 -0.311309 0.232382 0.0290273 0.269389 0.143008 0.305324 -0.076761 0.0385488 0.226284 -0.390042 -0.120781 0.246835 0.559373 0.221043 -0.12184 -0.270667 -0.295259 0.482436 0.214349 -1.68748 -0.0753089 0.265331 -0.139037 0.0551492 0.136027 -0.644816 0.408346 -1.56797 -1.16674
481 0.129872 0.149098 -0.0672353 0.0185724 0.315717 0.0651841 0.120804 -0.0417721 -0.112583 -0.100034 -0.13227 0.0790853 -0.0502055 0.726699 0.247664 0.0495858 -0.469164 -0.395354 0.394235 0.246601 -1.69335 -0.0881038 0.172061 -0.130834 0.127873 0.18815 -0.685716 0.257892 -1.65431 -1.62851
792 -0.504114 -0.218891 0.019029 0.0795332 0.160939 0.0954035 0.0375441 -0.155223 -0.158975 -0.00436338 -0.122989 0.243952 0.0988824 0.648651 0.424029 -0.571318 -0.019185 0.0454053 0.709531 0.329752 -1.66873 -0.142439 -0.0294058 -0.0673008 0.127873 0.0471186 -0.807723 0.374921 -1.84507 -1.32211
187 -0.29549 -0.0548141 -0.0115387 0.17372 0.549151 0.071807 0.174685 -0.111211 -0.0527107 -0.0768255 -0.0646154 0.392308 0.689322 0.701447 0.173363 -0.370519 0.0968004 -0.0757679 0.293944 0.247254 -1.68258 -0.0853257 0.260053 -0.152719 0.136223 0.288153 -0.514306 0.254066 -1.39347 -1.05696
449 -0.00594952 -0.271818 -0.0580989 0.0464036 -0.0901563 0.331398 0.152707 0.0716373 -0.0371235 0.160379 -0.128164 0.121988 0.656591 0.467476 0.431149 0.0862237 -0.133144 0.163389 0.683935 0.374454 -1.99772 -0.466576 -0.129591 0.0179517 0.270169 0.154623 -0.784304 0.155934 -1.76 -1.6491
693 -0.350176 -0.384713 0.113652 0.193369 0.210788 0.295687 -0.205815 0.0351515 -0.0277283 0.0991965 -0.0297053 0.297321 0.4357 0.688362 -0.0385633 -0.334101 0.129307 0.288517 0.635995 0.167198 -1.73491 -0.607711 0.0839945 -0.134206 0.24327 0.111091 -0.673112 0.409271 -1.64537 -1.3984
872 -0.266585 -0.45946 -0.128323 0.340779 0.0792203 0.21724 -0.266297 0.335005 0.069746 0.0260186 0.159292 0.316804 0.992923 0.629123 -0.188375 -0.376097 -0.25041 0.069949 0.721741 -0.0581995 -1.72533 -0.76722 -0.00855222 -0.0637185 0.0324535 -0.0186029 -0.903283 -0.0118075 -1.55928 -1.85082
616 -0.0757906 -0.116025 0.130447 -0.125311 -0.146845 0.427034 0.257284 0.052947 -0.256883 -0.171654 -0.062738 0.0185707 -0.114762 0.800193 -0.00803536 0.0445626 -0.686898 -0.228974 0.0736717 0.092303 -1.73849 -0.0376465 -0.229804 -0.12464 -0.194544 0.125911 -0.425829 0.436693 -2.03496 -0.712617
784 0.0606569 0.155429 -0.0154668 0.255677 0.242634 0.290595 0.350229 -0.0881912 -0.101038 -0.0278583 0.0981203 0.0500893 0.170419 0.577317 0.223695 0.159715 -0.400671 -0.20405 -0.0245789 0.0408181 -1.61801 -0.366048 -0.335556 -0.301839 -0.235094 0.0815564 -0.42878 0.606501 -2.20411 -0.542789
985 0.179791 -0.0744416 0.338595 0.163817 -0.319343 0.185842 0.43974 0.00267316 0.079406 -0.265989 -0.0130151 0.188166 -0.0937816 0.282956 0.146616 -0.502088 -0.346966 0.0813144 0.0484471 0.229083 -1.30804 -0.0403304 -0.505214 0.0458441 -0.58013 -0.308024 -0.629186 1.05092 -2.40631 0.0804244
885 -0.0930018 -0.0862775 -0.0309004 0.167861 -0.0637872 0.341143 -0.232731 0.335233 0.0808481 -0.156191 -0.0898288 0.232085 0.450968 0.42752 0.175636 -0.0234124 -0.476801 -0.115622 -0.422043 -0.504146 -1.45631 -0.686012 -0.470686 -0.49881 -0.0759893 0.33031 -0.25726 0.387587 -2.11714 -0.940977
924 -0.147211 -0.218557 0.00598003 0.110203 -0.123178 0.194778 0.0047349 0.451065 0.131111 -0.220359 -0.125208 0.269392 0.861858 0.529504 0.428674 -0.25374 -0.559461 0.0866877 -0.783286 -0.667104 -1.75365 -0.814555 -0.588999 -0.648043 -0.24389 0.145247 -0.368506 0.512633 -2.44085 -1.39936
215 -0.0303821 -0.25185 -0.000596523 0.0967001 0.182733 0.054149 -0.113525 -0.0265724 0.167394 0.0346107 -0.153432 0.362981 0.657695 0.339607 0.183359 0.305345 -0.186689 0.0001388 -0.681912 -0.120323 -1.67171 -0.433055 -0.166584 -0.57857 -0.0116709 0.0109439 -0.253572 0.533687 -1.68353 -0.882216
685 -0.220513 -0.196477 0.0687089 0.232113 -0.0523813 0.48182 -0.0964927 0.293134 -0.205504 -0.0758493 -0.0140297 0.1451 0.354327 0.771058 0.101267 -0.0812369 -0.323834 -0.0165805 -0.519015 -0.308383 -1.78608 -0.659324 -0.297149 -0.531054 -0.231906 0.150092 -0.496613 0.353108 -2.14785 -1.0698
909 -0.191748 -0.295337 -0.032459 0.193576 -0.10458 0.147134 -0.0481404 0.463521 0.117386 -0.265878 0.0989882 0.195184 0.641089 0.298319 0.418543 -0.295398 -0.312026 -0.0206288 -0.707651 -0.42267 -1.47428 -0.701592 -0.543891 -0.528349 -0.127654 -0.00475479 -0.456094 0.435051 -2.15941 -0.842664
624 0.18992 0.00428209 0.0363886 0.0870364 -0.144245 0.461716 0.378008 -0.107019 -0.0120761 0.00134883 -0.178824 0.310134 0.10009 0.660715 0.434982 -0.256889 -0.00383569 0.212575 -0.000738724 -0.136357 -1.64154 -0.667674 -0.0711333 0.0545361 -0.0148708 0.164392 -0.467048 0.408048 -1.74445 -1.25701
421 -0.166475 -0.120274 0.0580352 -0.0460036 0.285072 0.0766228 -0.119498 -0.0356782 -0.198625 -0.097504 -0.231892 0.0214962 -0.0225547 0.838089 0.121477 -0.048131 -0.238288 -0.139227 0.385815 0.34357 -1.69894 0.0917558 0.0653413 -0.228274 0.163532 0.207676 -0.705075 0.374071 -1.73423 -1.30766
622 0.0165437 0.0809973 -0.174965 0.030705 -0.0718948 0.251371 0.00122913 0.186981 -0.188599 0.285209 -0.0390125 0.191798 0.121364 1.0087 0.0200159 -0.114285 -0.518198 -0.219909 0.485113 0.0621701 -2.00906 -0.253095 0.0233123 0.200137 0.0320643 0.320225 -0.725537 0.160085 -1.78084 -1.9973
49 0.138507 0.101511 0.120106 0.0400869 0.361852 0.0748086 0.199491 -0.0397299 -0.00596669 0.244676 -0.0589992 0.20588 0.328318 0.534866 0.493892 0.375503 -0.230176 -0.248825 0.24313 0.19809 -1.49476 -0.577884 0.127325 -0.144917 -0.0522555 0.120637 -0.76097 0.260187 -1.73613 -1.20845
779 0.514475 -0.0413988 -0.249536 0.123478 0.0101739 0.123737 0.328736 0.0329212 0.170437 0.122425 -0.102036 0.09478 0.469672 0.225405 0.544795 0.0758846 -0.440608 0.0139798 0.395207 -0.013872 -1.64815 -0.529143 0.0851909 -0.0407584 0.0572417 0.166811 -0.611983 0.12192 -1.77367 -1.66281
300 0.0555083 0.195648 0.177111 -0.0750226 -0.140314 0.0340005 0.253875 0.0889336 -0.250071 -0.0967914 0.0598761 0.141896 -0.00421059 0.771959 0.00618581 -0.0440008 -0.170714 -0.0260392 -0.0684552 0.0689209 -1.24015 -0.386007 -0.215097 -0.168332 -0.189361 0.0838133 -0.352864 0.556036 -1.63101 -0.346976
462 0.169345 0.0012754 -0.0661032 0.0177911 -0.0310292 0.305715 0.124503 0.0248701 -0.255799 -0.231096 0.0259897 0.0858685 0.0873496 0.915437 -0.157369 -0.0560425 -0.650071 -0.31861 0.212817 0.0113625 -1.48075 -0.341592 -0.139496 0.0362712 -0.246608 0.142588 -0.316138 0.494704 -2.14644 -0.770885
918 -0.32536 -0.116821 -0.183159 -0.156083 -0.355352 0.669911 0.618627 -0.3157 0.0258015 -0.292263 0.255244 0.248852 0.449371 0.565071 -0.130281 -0.166459 -0.728988 -0.0649263 -0.466925 -0.164995 -1.43008 -0.24836 -0.319 -0.303259 -0.508093 -0.015587 0.0105324 0.530138 -2.16343 -0.280372
294 0.206158 0.21991 -0.0520599 0.00322957 0.0482642 0.326983 0.1841 0.0357625 -0.0728183 0.170149 -0.355146 0.0367063 0.038584 0.33752 0.256405 0.206837 -0.415595 -0.193129 0.701971 0.0960622 -1.66234 -0.255731 0.116302 -0.0463193 0.0539469 0.086263 -0.713504 0.376353 -1.81737 -1.35888
331 0.148358 -0.133346 0.00209775 -0.152464 0.143177 0.216406 0.127346 -0.153716 0.114201 0.258698 -0.275904 -0.12317 0.432928 0.537515 0.230719 0.120126 -0.496131 -0.231837 0.314853 0.188664 -1.43825 -0.424981 0.104643 -0.21 0.0983219 0.0166859 -0.490595 0.274444 -1.73124 -1.07206
795 0.162346 -0.12747 -0.298654 -0.012398 -0.12987 0.148386 0.443168 -0.00173143 0.251038 0.131986 -0.0569384 0.0258483 0.863092 0.246607 0.678454 0.104294 -0.642831 -0.116155 0.586713 -0.109997 -1.68261 -0.891951 0.177435 -0.121272 0.0292229 0.152019 -0.696314 0.0766137 -1.86526 -2.04016
269 0.0273864 0.164385 -0.165115 -0.0215665 -0.000260261 0.299581 0.0418979 0.324853 0.149118 0.0488136 -0.223423 0.00268872 0.611625 0.312802 0.00226097 -0.128626 -0.389019 -0.160061 -0.199442 0.160907 -1.80898 0.242581 0.135444 -0.091734 -0.191838 0.233182 -0.294646 0.335084 -1.73145 -1.08445
790 0.383115 0.115398 -0.357559 0.0462194 -0.435699 0.512186 0.327561 0.272986 0.265006 -0.26463 0.0921107 0.113617 0.831621 0.443302 -0.129594 -0.380633 -0.779219 -0.20838 -0.0598155 -0.048713 -1.75798 -0.21343 -0.0652766 -0.306574 -0.258883 0.343297 -0.45981 0.128583 -2.05694 -1.23706
707 0.150905 0.0365055 -0.400293 0.134252 -0.103851 0.405688 -0.0204597 0.452583 0.00586823 0.00202872 -0.141384 0.0737355 0.721672 0.41813 -0.0655634 -0.526087 -0.448747 -0.296338 0.317063 0.0948843 -1.66832 0.0271354 -0.123972 -0.151363 -0.143312 0.27555 -0.566866 0.0863086 -1.96223 -1.54619
977 1.01762 0.386051 -0.307014 0.338301 -0.581658 0.505459 0.786715 -0.225794 0.889922 -0.0558075 0.145181 0.233034 0.900241 -0.0496901 -0.431933 -0.974263 -0.722484 0.0489362 -0.0459944 -0.0498737 -1.58797 -0.229447 0.266491 0.290977 -0.278955 -0.133309 -0.57353 0.392389 -1.95755 -1.3257
64 -0.0414555 -0.313891 0.159415 0.00570804 0.179648 0.293685 0.251306 -0.160771 -0.232486 -0.124727 -0.0813454 -0.176322 -0.0295548 0.633673 0.160232 -0.0994879 -0.0957229 -0.0421743 0.187139 0.327901 -1.24951 -0.31691 -0.0170677 -0.171081 -0.0847284 0.0910403 -0.501118 0.422563 -1.59241 -0.630584
569 -0.322057 -0.168145 0.248592 0.0182603 0.0591175 0.258169 0.18053 0.0614064 -0.326301 -0.183012 -0.160568 0.0328929 0.0377659 0.645155 0.332186 0.0248813 -0.265357 -0.203022 0.390377 0.191885 -1.65041 -0.330865 -0.039669 -0.266238 0.0274617 0.139113 -0.638878 0.430466 -1.78744 -1.28393
788 -0.132959 -0.131836 -0.123332 0.0966337 -0.136937 0.392979 0.0979768 0.263202 -0.255727 -0.141758 -0.0547081 0.0620635 0.128451 0.731019 -0.14217 -0.582026 -0.464225 -0.44078 0.486618 0.576426 -1.8241 0.180927 0.222304 0.0128113 -0.00185897 0.215889 -0.650841 0.209134 -1.99698 -1.36533
558 -0.132758 -0.00532956 -0.383345 -0.0587643 -0.0907354 0.212153 0.67844 -0.105877 -0.126399 -0.0916811 -0.324765 0.16856 0.435378 0.449275 0.2825 0.0461999 -0.0214283 0.103649 -0.144351 0.177178 -1.65143 -0.324629 -0.0978652 -0.437002 0.00887538 0.10894 -0.412353 0.325702 -2.09098 -0.887644
16 -0.165724 -0.319211 0.160482 0.050671 0.329226 -0.160791 -0.0302249 -0.114053 -0.0924841 -0.131797 -0.218182 0.137231 0.184436 0.282807 0.298346 -0.0647568 0.0582402 -0.130553 0.143833 0.276226 -1.22145 -0.0701555 0.334527 -0.307513 0.0593622 0.145866 -0.455044 0.552423 -1.57784 -0.474264
