1000 64
266 -0.0174362 -0.0303809 0.24577 -0.0781103 -0.00245335 -0.0687047 0.109921 0.0735508 -0.0370799 -0.0619724 0.168404 0.103057 -0.0256061 0.138939 -0.146995 0.0931523 0.132312 0.060321 -0.287925 -0.678515 -0.299451 0.191386 0.269347 -0.120818 -0.394539 -0.0787708 -0.364242 1.83925 -1.15468 0.724077 -0.11216 -0.120826 0.0520534 0.525486 -0.103001 0.0669005 -1.41225 0.887593 0.281857 0.208181 -0.251723 0.61874 0.0847498 0.00741348 -0.214515 0.532768 -0.340506 0.277182 0.432216 -0.821608 0.272678 0.162231 0.773189 -0.00915225 -0.283951 0.026352 0.231351 0.66969 0.893789 -1.38668 0.379611 0.480053 0.148698 -0.306434
550 0.0234348 0.0606597 -0.000623172 -0.109627 -0.0871611 -0.314135 -0.00171716 -0.0649532 -0.0712437 -0.186217 0.580778 -0.504183 0.0867255 0.0259104 0.0773069 0.0681607 -0.0646092 0.213295 0.026692 -0.553944 0.0810636 0.0196585 -0.347435 0.104853 -0.201129 -0.217988 -0.695037 2.00402 -1.16866 0.99637 -0.442934 -0.129116 0.17049 0.682488 -0.3014 0.0545743 -1.34857 1.13749 0.206185 0.128589 -0.373551 0.505688 0.135096 0.0610105 -0.528382 0.343959 -0.332998 0.307337 0.450558 -0.84854 0.387295 0.299056 0.990545 0.182738 -0.252466 0.0650958 0.312449 0.819346 1.30941 -1.20409 0.514035 0.588092 0.0707462 0.0106956
815 -0.0177994 0.129092 -0.197968 0.380978 -0.118824 -0.170097 -0.0180656 -0.0988839 -0.216196 -0.0991662 0.456463 -0.45929 -0.0155822 -0.0277749 0.0375409 0.0214562 -0.132988 0.216401 -0.164148 -0.788972 0.205651 -0.374703 -0.435064 -0.121429 -0.392849 -0.161983 -1.0654 1.87967 -1.13562 0.779832 -0.513684 -0.225114 -0.170128 0.507624 -0.231903 0.341765 -1.53327 0.96842 0.0548847 -0.0732962 -0.0853657 0.613783 0.177712 -0.186048 -0.334987 0.396752 -0.195682 0.368205 0.386715 -0.908159 0.398046 0.167063 0.791995 0.0897269 -0.400633 0.0561772 0.14582 0.833803 1.23346 -1.25111 0.332497 0.530198 0.176805 -0.199286
870 -0.142053 0.0559938 0.133466 -0.22152 -0.306177 -0.353425 -0.0693576 -0.207885 -0.186551 -0.276817 0.055788 -0.37238 -0.0485388 -0.0507647 0.0780524 0.0683725 -0.26124 -0.065284 -0.17179 -0.44067 0.398066 -0.099248 -0.436484 0.146906 0.120168 -0.141388 -0.729064 2.25882 -1.36116 0.964728 -0.411769 -0.174247 0.405255 0.535785 -0.2142 0.177814 -1.3896 1.35387 0.114052 0.242048 -0.317003 0.543954 0.0793622 0.0915779 -0.366366 0.252417 -0.365562 0.487739 0.574998 -1.0292 0.310143 0.493143 1.10414 0.426754 0.134636 0.0910991 0.464493 1.01619 1.29722 -1.47662 0.645243 0.386487 0.140682 0.126695
956 0.211824 0.31432 0.170888 0.0861993 -0.458746 -0.339031 0.127369 0.0901058 -0.399612 -0.230937 0.425718 -0.464382 -0.202516 -0.0877132 0.266135 0.465972 -0.542168 -0.275797 -0.207765 -0.163492 0.210875 -0.154021 0.121571 0.206029 0.468024 0.146813 -0.970867 2.04722 -1.55624 0.858093 -0.03719 0.178945 0.692921 0.365312 0.0403113 -0.0341856 -1.00487 1.46994 0.383459 0.408295 -0.418735 0.303182 0.484689 0.0425847 -0.147174 0.13869 -0.336112 0.654466 0.641951 -0.566286 0.339666 0.765686 1.0831 0.436205 -0.754608 0.0511642 0.413312 0.920168 1.80125 -1.14213 0.560384 0.195517 -0.0717058 0.0771417
0 0.0609871 -0.279887 -0.463774 2.93653 -0.425835 -0.281403 -0.325956 1.2237 -0.1927 -0.143248 -0.0439589 0.198678 -0.766611 0.574185 1.4798 0.294544 -0.328311 -0.511697 0.72206 0.259346 -0.340899 0.515438 0.016273 0.3645 -0.382854 0.68082 -3.05372 8.70173 -0.642913 -0.255269 -0.547948 0.327204 0.260559 0.119065 -0.798028 0.436723 -0.453015 1.13037 0.0340419 -0.586466 -1.57844 -0.240169 -0.0695433 -0.566785 -0.106883 0.549756 -0.0911982 0.673493 0.0841514 -0.340101 0.956204 0.724934 1.72223 0.426339 0.035563 0.0948877 0.143434 1.43046 0.28775 0.439995 0.259679 0.432344 -0.301264 0.0212501
492 -0.0472022 0.173143 -0.0353301 0.174852 -0.0873409 -0.0691596 0.0161744 -0.0206323 0.0602325 0.0653906 -0.122069 0.17156 0.0958126 0.122505 -0.188156 0.0442779 -0.197269 0.240185 -0.00298978 0.151806 -0.588485 -0.0413852 0.294197 -0.239184 -0.126149 -0.236957 -0.600978 1.77107 -1.26671 0.349849 0.258359 -0.375288 0.259953 0.461183 -0.205512 0.14865 -1.1941 0.598397 -0.0525794 0.315364 -0.377622 0.246303 -0.0222189 -0.0343919 -0.48044 0.318983 -0.366772 -0.00759889 0.23514 -0.763776 0.479724 0.0497329 0.592567 -0.0532331 -0.325897 -0.178008 0.0772967 0.733906 0.639645 -1.33688 0.464689 0.238788 0.133427 -0.225846
729 -0.20857 0.078528 0.0557928 0.108168 -0.19945 -0.0529968 0.0231654 -0.164224 -0.00143852 -0.0917902 -0.277473 0.039803 0.0540009 0.109439 0.0760595 0.0264066 -0.00732258 0.102456 0.244573 -0.183219 -0.232135 0.271134 0.297956 0.112261 0.309967 -0.101308 -0.931409 1.81667 -1.27846 0.436362 0.142736 -0.323796 0.31563 0.43716 -0.316665 0.228262 -1.37535 0.750721 0.097638 0.207417 -0.582525 0.464288 -0.00933717 0.0767105 -0.402641 0.404675 -0.110946 0.13618 0.383574 -0.805691 0.269722 0.282545 0.835808 0.0616367 -0.304437 0.324421 0.0737554 0.660353 0.979037 -1.38552 0.519333 0.160343 0.121209 -0.0443713
793 -0.0854936 0.174373 -0.0156469 0.053326 -0.112667 -0.00888634 -0.219433 -0.158573 0.26366 0.114003 -0.0794798 0.172542 0.0070932 0.0824461 -0.179183 0.0680173 0.259299 -0.340125 0.315272 -0.749989 0.135172 0.26859 -0.51585 0.022684 0.134717 0.0759093 -0.669025 2.0807 -1.23421 0.620506 0.38733 -0.384277 0.295266 0.422588 -0.153944 0.51183 -1.30379 1.18337 -0.115629 0.196222 -0.607417 0.590217 0.0257883 0.0618022 -0.342894 0.504651 0.205409 0.251858 0.299508 -0.875662 0.334043 -0.0161502 0.936407 0.0580705 -0.373349 0.0100241 0.062278 0.802391 1.37747 -1.25181 0.762369 0.0269082 0.23373 -0.0563326
906 0.216474 0.0221667 0.337052 -0.22348 -0.173974 0.178497 -0.0869923 -0.208235 0.0599642 -0.0480431 0.255941 -0.384479 0.141026 -0.0531629 0.185259 0.235791 0.191575 0.141209 -0.533089 -0.370597 -0.766426 0.350223 -0.483406 0.0248984 0.697507 -0.0782966 -0.681708 2.28336 -1.47122 0.873096 0.375785 -0.21881 0.353508 0.526699 -0.34607 0.251699 -1.11151 1.46043 0.230975 0.144727 -0.40801 0.611473 -0.130421 -0.0483976 -0.498195 0.182822 0.338125 0.221209 0.109665 -1.1202 0.52309 0.384087 0.935486 0.3918 0.0210492 -0.189992 0.145417 1.07523 1.27099 -1.60516 1.00241 -0.205346 0.0237034 -0.126282
943 -0.0192345 0.198516 -0.297929 0.295775 -0.385205 -0.496773 -0.204023 -0.0942037 -0.15772 -0.230734 0.436451 -0.416465 -0.236046 -0.0954278 0.167116 0.361781 0.0734719 -0.422671 0.320347 0.358859 0.360795 0.698014 -0.303578 0.218249 0.578393 0.0911291 -0.901654 1.98252 -1.3828 0.633024 -0.164196 -0.275092 0.742935 0.547136 -0.489402 -0.0753003 -0.684992 1.56578 0.168373 0.269437 -0.490409 0.240382 0.0500265 -0.0608876 0.0419415 0.152328 0.379734 0.373283 0.532016 -0.705913 0.220209 0.699629 0.887226 0.0221543 -0.212467 -0.00511539 0.0906658 0.952184 0.840032 -1.79581 0.656139 -0.0481484 -0.249633 -0.0310412
929 0.13408 -0.136021 0.820984 -0.297516 -0.148178 -0.253466 0.0529702 -0.19429 -0.561862 -0.0577588 0.826186 -0.566034 -0.078629 0.133511 0.474652 0.162612 -0.483969 0.332742 0.302486 0.60898 0.504042 -0.293643 0.112275 -0.468083 1.02164 0.0569251 -0.620002 2.09469 -1.39596 0.747548 -0.0829852 0.540346 0.238697 0.339152 -0.141091 0.154743 -0.887493 1.60236 -0.0354495 0.152694 -0.859864 0.296539 -0.33245 0.298785 -0.211836 0.20357 -0.451132 0.409858 0.0748737 -0.919146 0.172454 1.05368 1.02546 -0.234813 0.429357 -0.118251 0.189455 0.755351 1.06758 -1.45791 0.893027 -0.343362 0.230648 -0.0778533
932 -0.0728437 0.134867 0.561004 -0.0455532 -0.244139 -0.296108 -0.115978 0.100049 -0.194106 0.0603638 -0.186554 -0.588033 -0.192164 0.146379 0.30426 -0.240864 -0.59244 0.658806 0.823712 0.290011 0.55086 -0.0266115 0.0345559 0.153786 1.32624 -0.128643 -0.896041 1.83164 -1.583 0.521477 -0.44831 -0.0934257 -0.0217099 0.154752 -0.149031 0.712354 -0.673344 1.50321 0.241938 0.206867 -0.817693 0.566217 -0.0048568 0.106607 -0.544018 -0.0547442 -0.319914 0.38229 0.567715 -0.62505 0.37259 0.877287 1.25368 -0.0745561 -0.0967301 0.446781 -0.831911 0.657163 1.41788 -1.06818 0.547833 0.249177 0.101031 -0.0312175
986 -0.0430725 0.232185 -0.066613 -0.335737 -0.294056 -0.118804 -0.0764965 0.00791741 -0.478001 -0.330162 0.114425 -0.0458244 -0.130044 -0.149384 0.0557896 0.390911 -0.350346 0.353489 0.0336548 0.941226 0.407093 0.456144 -0.331535 0.228711 0.948141 -0.0445076 -0.776274 1.97884 -1.32045 0.751586 0.0628009 0.120879 -0.103095 0.129499 -0.189957 0.251374 -0.78799 1.47125 0.337719 -0.457796 -0.31841 0.664736 -0.352263 0.295787 -0.0924734 0.0433116 -0.191458 0.0980108 0.355738 -0.65692 0.00227011 0.837761 1.06572 -0.100425 0.402198 -0.0344442 -0.289806 0.874425 1.67129 -1.17985 0.83211 -0.211822 0.360264 0.551243
899 -0.247775 0.102338 -0.133222 0.423557 -0.224187 -0.255882 -0.102912 -0.0673691 -0.109814 -0.0447394 -0.206614 -0.334711 -0.0769037 0.0861753 0.243502 0.296574 0.275564 0.135235 0.383091 0.346668 0.0816582 0.0622646 -0.117081 -0.179868 0.529724 -0.105254 -0.871807 2.22053 -1.56432 0.494429 -0.260483 0.258892 -0.0819212 0.773907 -0.00564529 0.168043 -0.792412 1.45392 -0.142139 -0.202365 -0.31681 0.830406 -0.217846 0.127981 -0.105231 0.248444 0.145922 0.18471 0.347147 -0.86068 0.550717 0.237714 0.822422 0.451897 -0.462297 0.0633542 -0.150311 0.795128 1.23914 -1.54627 0.808422 0.108103 0.269323 0.450856
909 -0.14402 0.048973 0.257214 -0.117888 -0.131194 0.0691887 0.130748 -0.121585 -0.376722 -0.153672 -0.0653176 -0.336517 -0.00837138 0.0138996 0.0891596 -0.000989793 0.159329 -0.139626 0.366814 0.335174 -0.0144878 -0.256643 0.0375643 0.101927 0.292397 -0.179109 -0.950242 2.17141 -1.28309 0.817959 0.086602 -0.23049 -0.156003 0.469921 -0.150608 -0.0786464 -1.12308 1.36036 -0.418862 -0.113907 -0.37547 0.605173 -0.202909 -0.0437131 -0.394129 0.404223 -0.0704515 0.274823 0.0295155 -0.991809 0.551818 0.0745887 0.937353 -0.0559304 0.00463735 -0.016205 0.0777544 0.827651 1.33728 -1.50194 0.584123 0.312195 0.241411 0.0256471
998 -0.234949 0.091718 0.317443 -0.428569 -0.134757 0.100127 0.0830916 -0.0810186 -0.0872191 -0.204616 0.0873374 -0.234715 0.0561474 -0.0380984 0.11751 0.00699025 -0.0855332 0.0241416 0.0853593 0.440811 -0.0731087 0.0501285 -0.0781735 0.10207 0.435552 -0.127514 -0.607223 2.09147 -1.06262 0.913957 0.202597 -0.218656 0.0922125 0.460059 -0.353243 -0.0805851 -0.879943 1.21458 -0.0984486 0.2211 -0.224054 0.473735 -0.0453676 0.135425 -0.283839 0.490079 -0.225823 0.135383 0.281712 -0.968022 0.457354 0.349088 0.980318 -0.00916893 -0.0134071 0.00360215 -0.0556835 0.753413 1.24814 -1.51854 0.436898 0.472562 0.317443 -0.0812278
977 0.25668 0.147669 -0.0923585 -0.0123988 -0.379113 -0.484231 -0.128528 -0.0807093 -0.140312 -0.00967787 0.356641 -0.154814 -0.116947 -0.21304 0.146704 0.161331 -0.318285 0.254289 0.6187 0.155336 0.470222 0.14729 0.260385 -0.13285 0.995961 0.27645 -0.776566 2.36139 -1.19437 1.187 0.131866 0.67595 0.617602 0.523948 -0.0395157 0.340642 -1.14697 1.34126 -0.106855 -0.0863524 -0.696481 0.551763 0.33538 0.192858 -0.278845 0.169242 -0.414756 0.04798 0.608581 -0.681543 0.603262 0.485774 1.16516 0.170752 0.439993 -0.515637 -0.152498 0.848152 1.38271 -1.39701 0.737693 -0.315127 -0.0557165 0.257061
988 -0.12229 0.279648 0.612702 0.435693 -0.118184 -0.403964 -0.160802 0.0155523 -0.103506 0.0863292 0.224916 -0.209272 -0.210702 -0.372095 -0.0241009 -0.17061 -0.249413 -0.228984 0.530032 0.117506 0.476121 0.119956 -0.13909 0.361903 0.947566 -0.304151 -0.943668 2.24001 -1.5028 0.900371 -0.327384 0.136294 0.233239 0.267249 -0.216445 0.397838 -1.17409 1.34329 -0.0607775 -0.0997389 -0.414034 0.594777 0.0351324 0.00721783 -0.402783 0.218255 0.164998 -0.0277989 0.118939 -0.74311 0.356888 0.974613 0.974577 0.0235581 -0.0166824 -0.413106 -0.472894 0.837306 1.79647 -1.03153 0.721794 0.14172 -0.550262 -0.341826
940 -0.233325 0.0292958 0.17624 0.152122 -0.158754 -0.0724084 0.123194 -0.0979267 -0.0222437 0.0172631 -0.0516993 -0.242499 -0.06859 -0.0384373 0.280343 -0.211142 -0.168018 0.286424 0.105121 0.0625293 0.256636 0.314368 0.0700924 0.382397 0.606878 -0.0168276 -0.752933 2.04374 -1.3066 0.828959 0.187756 0.199581 0.386136 0.263053 -0.106582 -0.0717595 -0.718512 1.21237 0.174984 -0.364617 -0.47128 0.332987 0.143227 0.141717 -0.362094 0.552828 -0.110802 0.0721331 0.268266 -0.667523 0.699065 0.111085 0.764875 0.464289 -0.62885 -0.199885 -0.136375 0.875591 1.35976 -1.40219 0.668391 0.147116 0.0161473 -0.263221
526 -0.136864 0.222872 -0.036587 0.101928 -0.0810959 -0.0893579 0.0489566 -0.00474565 0.041214 -0.0797941 0.197939 -0.0476232 0.0113946 0.0968776 0.0884854 0.045815 0.252756 0.0135847 -0.210439 -0.477571 -0.148647 0.119492 0.333499 0.0164149 -0.174017 -0.237708 -0.254502 2.03959 -1.26544 0.819298 0.122431 -0.274799 0.0801145 0.677839 -0.185607 0.285805 -1.34723 1.24198 0.167552 0.165083 -0.431987 0.534065 0.0793375 -0.0482801 -0.250097 0.514598 -0.0330033 0.282952 0.286877 -0.829922 0.235874 0.181619 0.860207 -0.0991219 -0.153111 -0.320106 0.0289508 0.677535 1.08778 -1.35605 0.561494 0.548777 0.459065 -0.263782
706 -0.157147 0.110277 -0.0269622 0.0126988 -0.117092 -0.0393925 -0.160135 -0.0564617 -0.00294944 0.0195704 0.0400095 0.0805818 0.0791035 0.206487 -0.116532 0.188933 0.243207 0.0648162 0.310973 -0.406057 -0.0468317 -0.11599 0.241484 0.144522 -0.105863 -0.225125 -0.482873 2.05013 -1.05438 0.715619 0.140728 -0.312638 -0.162017 0.60893 -0.121148 0.283724 -1.24061 1.04792 -0.00244569 0.106122 -0.519934 0.277125 0.134397 -0.0618687 -0.345072 0.630104 -0.282631 0.323298 0.266615 -0.777099 0.345915 0.170425 0.754072 -0.223693 -0.188447 -0.41822 0.00957138 0.70318 1.26383 -1.18857 0.411716 0.516557 0.514072 -0.0624736
769 0.00376269 0.154149 -0.250891 -0.15525 -0.0919194 -0.0806132 -0.189679 -0.1489 0.320434 -0.016972 -0.253881 0.13634 0.0216052 0.155824 -0.140171 -0.113095 0.601668 0.0645923 0.360973 -0.397944 0.0795616 0.287257 -0.310499 0.0572505 0.0842517 -0.0050431 -0.764781 2.00909 -1.18097 0.692571 -0.0318174 -0.228163 0.0806272 0.360164 0.0452156 0.5402 -1.09229 1.17296 0.165142 0.125727 -0.337203 0.531371 0.027022 -0.117662 -0.48555 0.286122 -0.238882 0.0857501 0.123416 -0.880703 0.375205 0.274578 0.837832 0.0982638 -0.256802 -0.146481 0.119968 0.732237 1.4855 -0.915441 0.481637 0.507421 0.304099 0.0925206
989 0.139163 0.156264 0.522809 -0.210896 -0.152773 -0.431707 -0.0607795 0.0669931 0.0104725 0.13349 0.0338123 -0.0544183 -0.119266 -0.0896344 -0.0660693 -0.182431 -0.147299 -0.11406 0.214192 0.0749912 -0.192661 0.280761 0.0958418 -0.0814117 0.760565 -0.0946699 -0.793493 2.05527 -1.53521 0.544475 -0.0690483 0.338855 0.407144 0.371021 -9.28474e-05 -0.111781 -0.764509 1.30281 0.415944 -0.42536 -0.638664 0.628718 0.183419 -0.00581055 -0.298131 0.305104 -0.148289 0.0297438 0.0907999 -0.914194 0.721428 0.322767 0.85517 0.292662 -0.040103 -0.453347 -0.120266 0.933116 1.63543 -1.04647 0.679307 0.27698 -0.319152 -0.250256
722 -0.0539837 0.113663 -0.0912994 -0.120513 -0.061278 -0.0256323 0.159952 -0.0625316 -0.195612 -0.162502 0.357905 -0.0927056 0.22467 0.233774 0.0801347 -0.0231217 -0.22094 0.274725 -0.211244 -0.0316724 -0.101402 -0.621539 -0.178457 -0.181556 -0.22786 -0.0458212 -0.514038 2.01243 -1.28246 0.306776 0.190485 -0.152867 0.587062 0.335891 -0.0815994 0.136038 -1.54525 0.762716 -0.0194376 0.185631 -0.55849 0.52217 0.112748 0.00606649 -0.367033 0.480611 -0.123479 0.347804 0.28514 -0.839379 0.220898 0.327353 0.811089 -0.0438997 -0.443445 0.117436 0.283632 0.504369 1.13165 -1.27813 0.51273 0.553219 -0.147163 -0.186427
954 0.254609 0.310363 0.218081 0.208855 -0.274 -0.533045 -0.312381 -0.0613711 -0.249098 0.0533695 -0.0601957 -0.363292 -0.354903 -0.000511443 0.0658445 -0.120142 -0.516545 0.390776 0.198141 -0.380742 0.166341 -0.249015 -0.437563 0.332666 0.539381 -0.122903 -0.684412 2.20504 -1.37598 0.686474 -0.589948 0.109191 0.356617 0.683825 0.0385686 0.295592 -0.919172 1.32732 -0.323701 0.168646 -0.494784 0.368822 0.161144 0.0921794 -0.636968 -0.176627 -0.19099 0.277067 0.338561 -0.781088 0.601557 0.338653 1.18989 0.708947 -0.417937 0.349426 -0.521063 0.932501 1.29185 -1.28328 0.460538 0.436376 -0.134789 0.15496
233 0.018685 0.041503 -0.0491731 -0.103034 0.0778801 -0.0763331 -0.114077 -0.00659979 0.0433865 -0.0753659 0.224261 0.016616 0.130801 0.174426 -0.12884 0.0449837 0.529634 0.156586 -0.250237 -0.00840575 -0.102974 0.0671867 0.210552 -0.388134 0.0521319 -0.589438 -0.22315 1.96923 -1.07829 0.666051 0.160788 -0.54964 -0.0964029 0.538951 -0.134211 0.19856 -1.10998 0.909325 0.233763 0.341316 -0.103572 0.498429 0.18618 -0.00855355 -0.221682 0.414343 -0.480517 -0.133346 0.396487 -0.759361 0.561059 0.171481 0.69382 0.00249353 -0.148382 -0.0119981 0.0802835 0.617878 1.20764 -1.12557 0.279316 0.426419 0.286184 0.0434234
822 -0.0709271 0.185829 -0.142219 0.0377858 -0.189423 -0.204512 0.11324 -0.0101221 0.0224028 -0.0454443 0.431778 -0.164909 0.0669886 0.149862 0.0660303 -0.0635472 0.359507 -0.0271097 0.213141 -0.0122493 0.138029 0.0991709 -0.15808 -0.054838 -0.149154 -0.373223 -0.621158 2.06793 -1.2039 0.518616 -0.229234 -0.442678 0.125236 0.480255 -0.0829788 0.244439 -1.25572 1.11427 0.315623 0.389762 -0.307215 0.44293 0.12403 -0.100521 -0.200616 0.55352 -0.524219 0.0413566 0.289857 -1.01199 0.657045 0.203797 0.684201 0.0407398 0.067412 -0.0662787 0.37743 0.803255 1.70252 -0.89843 0.311163 0.633227 0.251315 0.0036682
848 -0.0520966 0.0407974 -0.00798813 -0.176615 -0.150187 -0.160785 -0.0217143 -0.0575452 -0.0382667 -0.0409876 0.573559 -0.320249 0.0951135 0.00161125 -0.0924588 0.239806 0.392151 -0.147715 0.011122 0.343671 -0.316489 0.273978 -0.0767502 -0.242276 0.303407 -0.120899 -0.256459 2.23107 -1.31791 0.399243 -0.298679 -0.462022 0.0888592 0.510637 -0.332282 0.43838 -1.18686 1.11877 0.39353 0.102674 -0.0160423 0.676213 0.0268412 -0.00907376 -0.275033 0.338886 -0.299406 -0.241458 0.298006 -0.755039 0.590253 0.196745 0.888264 0.163715 -0.288985 0.00448928 0.118477 0.626168 1.35902 -1.26459 0.237205 0.618408 0.476387 0.152012
951 0.051342 0.0803859 -0.284087 -0.0412733 -0.0764988 -0.280864 -0.179785 -0.255926 -0.183157 -0.125356 1.0059 -0.568815 0.0455784 0.0676436 0.181867 0.0536682 -0.0160101 -0.149981 0.346241 0.3503 -0.137054 0.196042 -0.352182 0.0082811 0.403288 -0.176442 -0.474998 2.25672 -1.38765 0.761708 -0.219336 -0.367556 0.175889 0.487579 -0.465866 0.230161 -1.34576 1.02769 0.487249 0.286315 -0.163078 0.426659 -0.103013 -0.0782273 -0.347937 0.397033 0.28666 -0.234647 0.525804 -0.742103 0.44633 0.492196 0.801089 0.19122 0.316936 -0.67565 0.346571 0.970356 1.43925 -1.36972 0.763211 0.235316 0.328075 0.0173241
996 -0.0523224 -0.00571542 -0.138323 0.196489 -0.149954 -0.0878397 0.0680245 0.0403615 0.0918386 -0.00936063 0.941349 -0.450013 -0.0131128 0.218266 -0.154368 -0.0360377 -0.566529 -0.495388 0.470094 0.627712 -0.0401786 0.318561 -0.312624 0.223437 0.38666 -0.288119 -0.572164 2.33091 -1.30783 0.94426 -0.045492 -0.0709825 0.026106 0.320983 -0.283115 0.0721416 -1.03296 1.03479 0.529074 0.186733 -0.324887 0.454977 0.0893319 0.0497025 -0.361294 0.51593 -0.10558 0.278923 0.0502232 -0.798274 0.495292 0.333586 0.952738 -0.0746334 -0.626303 0.108859 -0.196082 0.833318 1.53873 -1.43242 0.494187 0.454692 0.0813449 -0.155151
667 0.000712809 0.155079 0.0010664 -0.160532 -0.143345 0.132289 -0.0730416 -0.141622 -0.0176076 -0.111321 -0.01743 0.27962 0.150362 -0.000858568 -0.103882 0.0852635 -0.0507158 0.195114 0.193269 0.164045 -0.337163 -0.00916212 0.0664465 -0.203046 -0.334058 -0.297806 -0.563139 1.90448 -1.271 0.420519 0.257578 -0.465198 0.187815 0.416072 -0.174919 -0.0320558 -1.163 1.10894 0.173743 0.551197 -0.225212 0.463903 -0.125742 0.00479224 -0.0970256 0.279644 -0.140343 0.1914 0.303 -0.724651 0.0984004 0.486704 0.726829 0.16045 -0.418968 -0.0208238 0.145546 0.645369 0.900573 -1.27055 0.413387 0.421372 0.288354 -0.0791082
673 -0.0979601 0.0274938 -0.135629 -0.118905 -0.0873849 0.00943832 -0.0151697 -0.0743555 0.102871 -0.243475 0.161258 0.0481299 -0.00766657 -0.00695391 -0.0220331 -0.236273 0.015823 0.228687 0.0981177 0.0928006 0.129101 -0.300999 -0.128116 -0.343624 -0.112768 -0.230081 -0.412598 2.34669 -1.56229 0.238341 0.500508 -0.229607 0.188397 0.519706 -0.0559151 0.143963 -1.46006 1.19565 0.267264 0.2385 -0.308345 0.421079 0.0340497 0.0556183 -0.431607 0.468164 -0.173319 0.175333 0.217339 -0.930777 0.431356 0.3022 0.898099 -0.00128115 -0.195601 -0.0549609 -0.00143925 0.783438 1.40873 -1.37668 0.54098 0.290557 0.217658 -0.169421
796 -0.112263 0.0881523 0.0627009 -0.0600957 -0.176973 0.100726 0.00370517 -0.141464 -0.0710686 -0.23568 0.270073 0.14451 0.0465744 -0.00294583 0.0704775 -0.143934 -0.0131629 0.356447 0.181214 0.0198946 0.00607643 -0.365577 -0.145225 -0.463945 -0.0670961 -0.220994 -0.247702 2.41914 -1.57546 0.376576 0.248271 -0.129089 0.287272 0.543091 -0.203135 0.20852 -1.49188 1.20673 0.212582 0.233422 -0.340418 0.578476 -0.171441 0.079916 -0.296822 0.406572 -0.11798 0.413598 0.311429 -1.01349 0.534573 0.338492 0.939387 0.0166694 -0.301736 -0.0684545 -0.0252563 0.805994 1.3754 -1.71053 0.596052 0.323428 0.0525863 -0.345521
803 -0.0556566 -0.0374432 -0.0788699 0.094494 -0.21915 -0.16581 -0.0726577 -0.0156818 -0.0754668 -0.00692956 0.174083 -0.0138625 -0.0644868 0.0220746 0.125406 -0.19155 -0.141368 0.139698 0.472705 0.315503 0.337688 -0.155072 0.0884811 -0.477488 0.130884 -0.0837583 -0.404249 2.09671 -1.56342 0.076882 0.2107 0.0702518 0.26672 0.515761 -0.0929165 0.237235 -1.15224 1.13029 0.0473906 0.100102 -0.481904 0.543134 -0.156067 -0.0135464 -0.267178 0.203592 0.308661 0.0395422 0.146247 -0.956266 0.366557 0.235187 0.787673 -0.0910023 -0.0933422 0.14285 -0.18418 0.799097 1.31795 -1.22089 0.563565 -0.00563098 -0.269188 -0.283159
963 0.0282265 0.0971176 -0.220146 0.124449 -0.248381 0.0862515 -0.144078 -0.255456 -0.0850031 -0.186178 0.41372 -0.510755 0.107564 0.0651581 0.17904 -0.256352 -0.5092 0.513166 0.020846 0.350297 0.256321 0.0600846 -0.244382 -0.120972 0.462144 0.0917362 -0.431217 2.18631 -1.35574 0.826451 0.685639 0.431004 0.274274 0.155963 -0.398058 0.192873 -1.02268 1.14579 0.409542 0.0391389 -0.219658 0.630635 -0.0920603 0.0165559 -0.309948 0.285414 -0.230242 0.100305 0.0859514 -1.15894 0.469255 0.503215 0.927757 0.0929892 -0.0610976 0.367737 0.133333 0.968627 1.265 -1.48767 0.297393 0.102322 0.259023 0.202285
572 -0.00787132 -0.0252797 0.142194 -0.141356 -0.047606 0.0696385 -0.0535992 0.0151572 0.0912586 -0.134381 -0.32307 0.108212 0.200743 0.0660418 0.105702 0.0630402 0.565346 0.101731 -0.356021 -0.0220337 0.113474 -0.331024 0.385279 -0.315479 -0.0684191 -0.100228 -0.560225 1.74408 -0.938475 0.767145 -0.0100995 -0.38228 0.304559 0.491394 -0.29771 0.319371 -1.10935 0.977274 0.0694034 0.142861 -0.248636 0.513451 -0.0978052 0.03613 -0.199215 0.574926 0.0282439 -0.0154136 0.130547 -0.770338 0.281947 0.10517 0.708266 -0.0253042 -0.227537 0.0294679 0.18538 0.589744 1.0192 -1.20786 0.676919 0.0273919 0.0572937 -0.275611
886 -0.0924348 0.0557616 0.0267091 -0.146025 -0.302372 -0.0482668 0.0181221 -0.104478 -0.0607273 -0.127229 -0.214486 -0.360857 0.0739364 0.0372591 0.0763259 -0.0248099 0.365346 0.111484 -0.392058 0.592318 0.391938 -0.494252 0.0571282 0.0833129 0.36824 0.107002 -0.192968 2.42936 -1.42978 0.945991 -0.0721014 -0.134151 0.670737 0.40355 -0.215788 0.317854 -1.29747 1.38014 0.249878 0.071863 -0.136973 0.597406 -0.208762 0.0203452 -0.306532 0.209207 -0.099073 -0.25205 0.132015 -1.05158 0.267848 0.572758 0.924497 0.270013 -0.073955 0.0820972 0.232078 0.96737 1.42701 -1.54063 0.674987 -0.00277548 0.269064 -0.183507
901 -0.153184 0.137733 -0.0992196 -0.280537 -0.250607 -0.219715 0.262777 -0.0368621 -0.161579 -0.0802351 -0.268712 -0.0938461 -0.000627588 0.124122 0.0963076 0.0962056 0.089809 -0.0896639 -0.00783019 0.332872 0.712855 -0.347877 0.395692 -0.31316 0.503388 -0.0374185 -0.277685 2.32117 -1.47652 0.761426 -0.419199 -0.119832 0.968505 0.145403 -0.0916561 0.178017 -0.887646 1.53993 -0.0997373 -0.123436 -0.566196 0.601013 -0.00708475 -0.00395683 -0.288589 0.336156 -0.0794673 0.121661 0.278701 -1.05315 0.73658 0.365914 1.17463 -0.0248471 -0.0713001 0.0537923 0.0361337 1.05606 1.46834 -1.45324 0.901777 -0.232507 -0.209297 0.125924
920 -0.135702 0.00134335 0.597418 0.0818933 -0.18732 -0.502713 -0.210623 0.0313178 -0.0132456 0.0120448 -0.318242 -0.0833905 -0.277277 -0.204771 -0.0515649 -0.148222 0.0743107 -0.366863 0.00240047 0.821185 0.326199 -0.23198 -0.312029 0.615889 0.492029 -0.121439 -0.216585 2.28928 -1.48499 0.601787 -0.469667 0.156594 0.538532 0.182784 -0.194635 0.292267 -0.731709 1.69378 0.352872 0.225476 -0.504771 0.336221 0.336348 -0.0381689 -0.511729 0.019551 0.132972 -0.19092 -0.0702177 -1.06114 0.149317 0.817195 1.18222 -0.12256 0.107365 0.39468 -0.300781 0.923892 1.36779 -1.30165 0.811427 0.111088 0.408782 -0.658278
385 -0.0324032 -0.0922398 -0.114585 -0.036753 -0.0799212 -0.00439629 0.121861 -0.0823751 -0.0114112 -0.0245043 0.27337 0.00216979 0.117017 0.166101 -0.00403255 0.0270116 0.387349 0.0288186 -0.0192293 -0.424636 -0.190178 0.264784 0.0812562 -0.285588 -0.236862 -0.0751319 -0.520771 1.83915 -0.906485 0.624557 0.332321 -0.233847 0.0596407 0.721943 -0.202426 0.186374 -1.18051 1.01543 -0.0642949 0.2686 -0.327275 0.487987 0.118834 -0.104708 -0.291123 0.654329 -0.116671 0.189546 0.078112 -0.822879 0.289067 0.287691 0.664317 -0.0565145 -0.234705 -0.0363303 0.0738615 0.675842 0.714364 -1.22202 0.567956 0.163021 -0.159196 -0.455046
654 0.0629453 -0.0040832 0.0730383 0.0779004 -0.148847 -0.085226 -0.0864878 -0.0167093 -0.100723 0.0252897 0.301265 -0.0662462 0.0119989 0.0581509 -0.0945329 0.0102674 0.357223 0.133951 -0.0502023 -0.545995 -0.19393 0.318629 0.0791753 -0.304793 -0.111142 -0.0736346 -0.352593 2.02088 -1.05754 0.889939 0.164116 -0.358366 -0.104961 0.604777 -0.218198 0.295279 -1.19073 1.16996 0.0833328 0.165791 -0.203444 0.417226 0.0598662 0.0127847 -0.305597 0.502626 0.0593056 0.193457 0.306197 -0.953719 0.355976 0.24379 0.695857 0.0997514 -0.239152 -0.135421 -0.166106 0.687658 0.980456 -1.50302 0.78458 -0.00452051 -0.0303876 -0.272647
736 -0.163869 -0.0422945 0.108284 -0.0393823 -0.0981916 -0.245569 0.125227 -0.0813629 0.0573919 -0.280726 0.0328533 -0.0156924 0.104966 0.106029 0.0202814 0.0544964 0.40692 -0.0468445 0.0443666 -0.446454 -0.15094 -0.0593821 0.218551 -0.476432 0.0248021 -0.0586129 -0.154391 2.16878 -1.19155 0.695782 0.112047 -0.497621 0.18896 0.730826 -0.0504397 0.411451 -1.05428 1.48506 0.130382 0.110939 -0.279606 0.463621 0.0525224 -0.145247 -0.239765 0.424939 0.000452864 0.334085 0.132001 -0.799269 0.187002 0.428444 0.741988 -0.181437 -0.142016 0.0788599 -0.0697094 0.720331 0.835483 -1.60488 0.67407 0.0719207 -0.135199 -0.434648
748 -0.0140638 -0.0370728 0.0568462 0.135547 -0.119321 -0.184359 0.0158517 -0.11709 -0.0187716 -0.151026 0.160368 -0.185033 0.0706965 0.0778739 0.0556052 0.0884803 0.379135 -0.0715824 0.24533 -0.317586 -0.19913 0.352589 0.174344 -0.547284 0.0210048 -0.143814 -0.355608 2.00942 -1.13801 0.885172 0.163721 -0.19011 0.0523952 0.628336 -0.340588 0.251899 -0.941996 1.32422 -0.186078 0.24476 -0.415806 0.438418 0.041566 0.0103537 -0.022886 0.432953 -0.037646 0.311737 0.120914 -0.964199 0.269258 0.435729 0.843873 0.00613009 -0.167805 -0.0559102 -0.0122368 0.662111 1.1857 -1.38673 0.610711 0.214408 -0.277464 -0.415412
771 -0.126158 -0.08115 0.193926 0.0670622 -0.131498 -0.0318148 0.144666 0.00151291 0.0880608 0.019805 0.107293 -0.285052 0.158635 0.0135085 -0.00014511 -0.0369813 0.492628 0.00121556 -0.332718 -0.0930049 -0.0883192 0.248506 0.0421361 -0.242482 0.143442 -0.0636314 -0.419005 2.15684 -1.22075 0.88388 0.030949 -0.34475 0.210986 0.607228 -0.117416 0.309809 -1.05041 1.29998 -0.359979 -0.0744934 -0.340916 0.570992 0.180294 0.0614381 -0.248991 0.441416 -0.220902 0.109883 0.362896 -0.890085 0.370498 0.334866 1.00049 0.0739235 -0.0351092 0.0425898 -0.143391 0.77408 1.09245 -1.33794 0.763577 -0.117819 0.0186316 -0.500159
878 0.0693396 -0.0510033 0.320661 0.309564 -0.236703 -0.259151 -0.118709 -0.228339 -0.238811 -0.0324276 0.252026 -0.517275 -0.0566823 0.0477464 0.107651 0.141726 0.0815669 0.0499437 0.121801 0.295316 -0.445058 0.580669 -0.358786 -0.115949 0.768794 -0.17287 -0.240276 2.23858 -1.60076 0.472891 -0.400995 0.2318 0.162498 0.688988 -0.0616273 -0.0826491 -0.757125 1.5367 -0.885869 -0.087136 -0.881664 0.404206 0.00212509 0.115371 -0.282103 0.320682 -0.169057 -0.0300762 0.295879 -0.700243 0.177782 0.743626 0.995994 0.253171 -0.105751 0.30447 -0.683454 0.601816 1.02181 -1.55862 0.872043 -0.297657 -0.124087 -0.0815926
915 -0.0481742 0.0280372 0.329793 -0.234141 -0.249461 0.114346 0.0577806 -0.351277 0.342528 0.115627 0.574708 -0.598017 0.021114 0.0514398 0.0300483 -0.207341 0.181537 -0.374762 -0.166166 0.237393 -0.115201 0.31038 -0.180499 -0.20958 0.799887 -0.205342 -0.630059 2.37103 -1.29883 0.791518 -0.0254101 -0.0537034 0.166098 0.547759 -0.151021 0.152869 -1.15304 1.00525 -0.259693 -0.325469 -0.301686 0.541067 0.0883363 -0.00909687 -0.219554 0.565743 -0.0311751 0.731725 0.299053 -0.941236 0.628303 0.386928 0.929169 0.198012 0.286389 -0.00446059 0.0364454 0.889526 1.00866 -1.87873 0.685939 -0.0615693 -0.226779 -0.557615
992 -0.0324611 -0.00833517 -0.119736 -0.118139 -0.272315 -0.241012 0.0659491 -0.00234274 -0.436339 -0.152266 0.269603 -0.65537 -0.0486584 -0.0549152 0.128916 0.141617 -0.588909 -0.106082 0.522541 0.812977 0.350313 0.355838 -0.0417107 0.295386 0.797702 0.182751 -0.532535 1.90544 -1.33153 0.761433 0.303909 -0.0192578 0.105801 0.123255 -0.38904 0.114764 -0.89907 1.43216 0.382441 -0.408218 -0.527816 0.757295 -0.186615 0.184894 -0.152875 0.0987253 0.031782 0.25428 0.688674 -0.428553 -0.0841413 0.793533 1.27612 -0.238607 0.203667 0.142379 -0.620938 0.853587 1.36373 -1.44273 0.645787 -0.235795 -0.51253 0.371141
863 -0.208265 0.0251124 0.16771 -0.34008 -0.171789 -0.00721582 0.046735 0.0121216 -0.172853 -0.210023 -0.31001 0.163169 0.113793 -0.121024 0.0092837 0.188539 0.0140193 0.20224 0.349993 0.339751 -0.34319 -0.211863 -0.0483244 -0.316102 0.0468611 -0.31282 -0.52644 2.23353 -1.22658 0.888205 -0.273218 -0.262642 -0.027381 0.640796 -0.199867 -0.177064 -0.803971 1.54839 -0.201572 0.331984 -0.292963 0.547129 -0.0338599 0.123 -0.279058 0.365891 0.0368109 0.668107 0.249183 -0.788023 0.251345 0.566465 0.958006 0.10953 -0.397641 -0.0903867 -0.0599117 0.790952 1.07344 -1.55811 0.538671 0.615556 0.123274 -0.125608
923 -0.144492 0.109358 -0.180068 -0.0585158 -0.113895 0.036433 -0.0816781 -0.0608021 0.0717889 -0.123047 0.0368762 -0.17593 0.066638 0.0629132 -0.132899 0.419479 -0.522403 0.38508 0.601277 0.44104 -0.152459 -0.176095 -0.13177 -0.0703618 0.243923 -0.0449092 -0.617888 2.36489 -1.23663 1.20993 -0.355535 0.00377782 0.774741 0.360912 -0.289264 0.182479 -1.17535 1.2599 0.0521351 0.0451508 -0.490438 0.666445 0.216639 0.0892514 -0.208368 0.604846 0.34229 0.222252 0.391973 -0.746411 0.471096 0.412278 0.929442 -0.039494 -0.170372 -0.170763 0.394798 0.825971 1.30717 -1.65365 0.389302 0.519554 0.26492 -0.581327
973 -0.0704847 -0.160481 0.662473 0.0292272 -0.416817 -0.311723 0.235473 0.278931 0.0656314 0.328531 0.0106111 -0.192727 -0.402976 -0.240222 -0.0876545 0.0819274 -0.45239 0.326844 0.472431 0.378838 -0.137576 0.24735 0.0701689 -0.433824 0.786052 -0.00805234 -0.816867 1.90586 -1.46369 0.800923 -0.537383 -0.0301174 0.956549 -0.0332706 -0.231182 -0.114137 -0.893414 1.40697 0.0301043 -0.0709591 -0.782478 0.512249 0.0362094 -0.178013 -0.305882 0.337295 0.205989 0.365288 0.0310088 -0.777465 0.735316 0.490964 0.905128 0.0756784 -0.0623245 -0.696561 -0.16273 0.854508 1.56042 -1.05625 0.583805 0.241941 -0.565869 0.212747
976 0.250074 0.200536 0.326811 -0.376144 0.0131835 -0.399628 -0.178581 0.364809 -0.472887 -0.0192516 -0.226698 -0.0758632 -0.257203 -0.301677 0.0892865 0.513505 -0.301977 0.581148 0.204249 0.371174 0.365811 0.487125 -0.417791 0.0592841 1.27322 -0.230218 -0.679482 1.65204 -1.41458 0.573169 -0.113947 0.192486 0.170204 0.231516 0.201476 0.481016 -0.659851 1.53666 0.398035 -0.668071 -0.879879 0.562143 0.764868 -0.05269 -0.153376 -0.0713282 0.106802 -0.054141 -0.289944 -0.923642 -0.263571 1.13646 0.948583 0.679239 0.145644 -0.0329332 0.230147 0.69901 1.20167 -1.23199 0.269222 0.225336 -0.384682 -0.183513
61 -0.0872638 0.0876033 -0.0550787 -0.0428587 0.104188 -0.249601 -0.162573 -0.0559085 0.0798599 0.187134 0.160994 0.218478 0.20762 0.0705374 -0.0663783 -0.0667847 0.488288 0.053571 -0.115507 0.109566 -0.22214 0.277999 -0.0175014 -0.336705 -0.233959 -0.316475 -0.352787 2.10342 -1.02622 0.659759 0.00973048 -0.570845 -0.113706 0.590915 -0.0895749 0.302965 -1.30812 0.872827 0.0601517 0.367939 -0.248255 0.535285 -0.0229651 0.008199 -0.201164 0.551772 -0.320641 0.0313206 0.311542 -0.842447 0.494221 0.00731053 0.880289 -0.0933356 0.0329593 -0.216224 0.181124 0.738434 1.19131 -1.05869 0.261287 0.593668 0.201613 -0.0392009
107 -0.134347 0.0224317 0.0391495 -0.0978793 0.00566278 0.01754 0.0474792 -0.0441545 0.26024 0.0644161 0.330428 0.211436 0.014308 0.00511347 -0.0623783 0.0101282 0.222275 0.123948 0.0963037 0.167359 -0.422519 0.176107 -0.000623417 -0.404453 -0.334083 -0.491569 -0.26201 2.03962 -0.945612 0.67139 -0.0812374 -0.582579 -0.283858 0.542102 -0.175022 0.353254 -1.07574 0.870595 0.0936512 0.483298 -0.149004 0.436856 0.0616131 -0.146111 -0.177282 0.475144 -0.317623 -0.162689 0.357182 -0.691057 0.519872 0.137685 0.799095 0.00243905 -0.29522 -0.169273 0.25828 0.501503 1.09896 -1.17259 0.341128 0.496337 0.296717 -0.12674
546 -0.245229 -0.0586312 -0.0400599 -0.00479794 -0.188611 -0.173225 0.0358136 -0.0166569 0.131901 -0.0155569 0.551969 -0.0851019 0.107664 -0.00496769 -0.0387361 0.0248952 0.466789 -0.164348 0.106401 0.122334 -0.221142 0.317196 -0.0581377 -0.224968 -0.223236 -0.224401 -0.252215 2.24973 -1.09371 0.572873 -0.113879 -0.668681 -0.146923 0.713429 -0.119241 0.407839 -1.18347 1.10661 0.112721 0.384199 -0.178807 0.443083 0.186891 0.100477 -0.353192 0.530253 -0.488198 -0.0107829 0.408976 -0.839592 0.549047 0.140454 0.851074 -0.12622 -0.229793 -0.0787788 0.194025 0.617378 1.22283 -1.30642 0.489084 0.801338 0.204814 0.114183
832 0.0286767 0.161406 0.0362485 -0.134685 -0.136005 -0.275551 -0.0497732 -0.0850785 0.315144 0.0978803 0.176964 0.103737 0.0951584 -0.013326 0.00111791 0.123619 0.551358 0.0196769 0.51931 0.416997 0.0573882 0.275635 0.201473 -0.295471 -0.0116038 -0.24455 -0.52336 2.41899 -1.25675 0.664205 -0.113273 -0.596876 0.122195 0.735281 -0.132129 0.490175 -1.2056 1.26018 0.258326 0.68032 -0.313467 0.289758 0.1365 0.0447079 -0.22874 0.507035 -0.0220984 -0.300278 0.308217 -1.03839 0.578526 0.422669 0.89085 0.117301 0.130282 -0.233544 0.240906 0.77238 1.59099 -1.33283 0.593596 0.291826 0.438142 -0.125784
359 0.0243734 0.0841101 0.12654 -9.77901e-05 -0.173223 0.0148039 0.0491955 -0.0105158 0.077566 -0.0446502 0.15984 0.184352 0.0934695 0.10841 -0.0336967 0.0389758 0.367782 0.451526 -0.000688105 -0.287376 0.0579182 -0.0593468 0.0683462 -0.309761 -0.137601 -0.195785 -0.695432 1.84218 -0.989012 0.472975 0.260966 -0.585432 -0.0176915 0.572611 -0.0291653 0.516892 -1.16033 1.03492 -0.0836562 0.44768 -0.154149 0.455362 0.113937 0.0571291 -0.202127 0.646353 -0.375013 0.0842013 0.034288 -0.908308 0.415856 0.127322 0.663909 0.104531 -0.107133 -0.158987 0.0610228 0.656414 1.21614 -1.04089 0.366507 0.466319 0.378572 -0.0572013
522 0.0508792 -0.0215601 -0.0294046 0.0349517 -0.0221936 -0.0920983 0.0415486 0.00407431 0.000998264 -0.104167 0.387372 -0.276981 0.0718368 0.1537 0.110791 0.0252175 0.227941 0.293807 0.149359 -0.751848 0.10441 -0.392633 0.126017 -0.282888 -0.332103 -0.288599 -0.988023 2.02093 -1.29546 0.526589 0.0610051 -0.374047 0.0408044 0.695196 -0.15296 0.273772 -1.3571 1.14302 0.129731 -0.0113681 -0.0943436 0.589449 -0.0240623 -0.208533 -0.145524 0.630756 -0.232776 0.056683 0.219902 -0.937492 0.455252 0.187464 0.802372 0.165371 -0.0904222 -0.134291 0.184271 0.666194 1.32507 -1.17691 0.495827 0.503997 0.231364 -0.0717593
948 0.469176 -0.0246998 -0.422019 -0.259668 -0.169258 -0.593995 -0.410915 0.376759 -0.037548 0.230172 0.223657 0.0110883 -0.536859 -0.371414 -0.0433918 0.0656545 0.102578 0.39439 -0.274755 0.229309 0.187753 0.21779 -0.460547 0.258031 0.878218 0.369444 -0.965003 1.88171 -1.29891 0.758327 -0.290003 -0.361764 0.654251 0.294157 0.0864051 0.184374 -0.817946 1.31788 0.20499 0.103767 -0.64574 0.635464 -0.183672 -0.307468 0.0697073 -0.110995 -0.194163 0.391303 0.0211449 -0.614342 0.00202334 0.515961 0.900586 -0.0730454 0.247538 0.0854269 -1.20667 0.967994 1.23217 -1.24712 0.389593 0.044436 0.489691 0.274387
368 -0.0276011 -0.00445296 -0.0445594 0.120013 0.00149636 0.028438 -0.0548798 -0.0209559 0.123498 -0.0937686 0.37436 -0.0531762 -0.154034 0.169316 -0.0281013 0.0223374 0.397475 0.148303 -0.216135 -0.470978 -0.311775 0.253848 0.0848688 -0.239708 -0.235171 -0.086333 -0.466018 2.06903 -1.10141 0.729376 0.238134 -0.327995 -0.113518 0.769921 -0.0358724 0.224888 -1.23097 1.09527 -0.117362 0.141245 -0.316005 0.441959 0.148631 0.0104237 -0.153367 0.569906 -0.122741 0.116555 0.311065 -0.967033 0.380591 0.127635 0.824089 0.00737361 -0.214097 -0.097819 -0.0413633 0.753284 0.969747 -1.4326 0.700374 0.137572 -0.0770952 -0.2869
579 -0.0246534 -0.0828848 -0.0738508 0.129922 -0.142156 0.0330609 -0.0106388 -0.0691425 0.0772623 -0.0728857 0.264411 -0.0790258 -0.129447 0.185363 0.170722 -0.00981226 0.296116 0.0790914 0.00488587 -0.232683 -0.151477 0.130861 0.174188 -0.363882 -0.0294354 -0.0757114 -0.224421 1.98309 -1.2772 0.676516 0.352109 -0.295777 -0.0253133 0.688439 -0.130967 0.233272 -1.03139 1.17092 -0.0830159 0.0669716 -0.340997 0.446886 0.102722 0.0329252 -0.226128 0.36109 -0.00456893 0.198785 0.156671 -0.78825 0.288937 0.328095 0.735279 -0.016458 -0.176255 0.0504051 -0.0871675 0.771977 0.966823 -1.20899 0.69785 0.151053 -0.142087 -0.479746
762 -0.147498 -0.136112 0.0264117 0.100425 -0.0945236 -0.0347523 0.0451532 -0.145506 -0.118462 0.0559671 0.20188 -0.219506 0.104605 0.0879435 -0.0363838 -0.00680559 0.579723 0.111502 -0.163709 -0.204823 -0.200572 0.211601 0.119151 -0.390789 0.207222 -0.264605 -0.659258 2.13379 -1.34964 0.884505 0.184781 -0.347517 0.242869 0.812933 -0.207199 0.23305 -1.08944 1.46095 -0.306925 -0.137927 -0.397191 0.503099 0.165866 0.0294508 -0.082836 0.575434 -0.258527 0.108662 0.352766 -0.888084 0.310034 0.375248 0.86832 0.176597 -0.346954 0.0948782 -0.0984945 0.793143 0.904961 -1.39862 0.704374 0.0615152 -0.11666 -0.419718
851 -0.00192974 -0.144102 0.129607 0.0905433 -0.138787 -0.453098 0.0698527 0.0124338 -0.00725457 -0.0933476 -0.0423316 -0.244966 -0.0711037 -0.0459562 -0.0955134 0.0313983 0.432222 -0.414851 0.0462748 -0.522348 -0.215748 0.101572 0.0490121 -0.410495 0.101404 0.0148101 -1.16546 1.89169 -1.26226 0.821164 0.256523 -0.545116 0.126728 0.694841 -0.195664 0.478007 -1.35134 1.48168 -0.419242 0.264611 -0.465958 0.480821 0.378408 -0.248121 0.00448487 0.449365 -0.0617357 0.295472 0.127003 -0.849706 0.0219469 0.612052 0.783365 0.248149 -0.303429 -0.0299322 0.172283 0.792196 1.03676 -1.32832 0.713129 -0.0412503 -0.220162 -0.393177
974 0.307967 0.0343905 0.697051 -0.647286 -0.33564 -0.74857 -0.377941 -0.0522505 -0.151596 0.309288 0.412808 -0.0864999 -0.333665 -0.26833 -0.167761 -0.1038 -0.211977 -0.412245 0.196938 0.00993164 0.380066 0.0604758 0.0133502 0.212308 1.37841 -0.0106188 -0.857581 1.82862 -1.24447 0.381991 -0.212438 0.0835065 0.692066 0.107333 0.147605 0.397817 -0.547907 1.48381 0.00772438 -0.275424 -0.428956 0.767581 -0.687578 -0.0852757 0.105635 -0.0720814 0.306891 0.115288 0.411174 -0.505979 0.5003 0.356453 1.17779 -0.220533 0.34654 -0.111297 0.191796 0.924556 0.969116 -1.33421 0.00751759 0.422737 -0.314479 -0.309465
568 0.0190606 -0.0460869 -0.122061 -0.29431 -0.00942979 -0.00483422 0.0276761 -0.0637792 0.107059 -0.124947 -0.14054 0.3047 -0.0741983 0.122974 0.0258042 0.215833 0.127043 0.265932 -0.0429425 -0.141633 -0.289394 -0.353208 0.113042 -0.48602 -0.475918 -0.201328 -0.681273 2.03641 -0.879887 0.954943 0.271733 -0.309603 0.0277284 0.419547 -0.244453 0.149222 -1.1469 1.03913 0.112117 0.185572 -0.0121857 0.686356 0.00998227 -0.172453 -0.0909132 0.572061 0.0496084 0.3401 0.138837 -0.84751 0.268921 0.365898 0.685825 0.232943 -0.390419 -0.0509914 0.172248 0.654733 0.857429 -1.36375 0.472794 0.414957 0.24033 -0.505562
733 -0.0547136 0.0514861 0.191429 -0.23605 -0.0422301 0.0665673 0.0077093 -0.0309996 -0.155686 -0.0583343 -0.290864 -0.132017 0.18276 0.0985744 0.0169593 0.0407827 0.0361412 0.316244 0.275655 0.236366 -0.179388 -0.2229 -0.277619 -0.297467 -0.187712 -0.287303 -0.576553 2.08592 -1.02843 1.1859 -0.00316147 -0.404012 0.141157 0.411798 -0.292097 -0.0928857 -0.976742 1.36198 -0.0884247 0.181018 -0.330843 0.599562 0.0443702 -0.0452107 -0.0584757 0.433415 0.144056 0.344582 0.225963 -0.679432 0.275217 0.392185 0.798494 0.0468401 -0.485591 -0.0927596 -0.0253144 0.832075 1.07697 -1.56043 0.420748 0.636601 0.302913 -0.0211274
979 -0.0931879 0.266366 -0.127436 -0.242958 -0.16072 -0.0176006 -0.198796 -0.11015 0.101669 -0.341698 -0.0645904 0.0538323 0.0111422 -0.0389789 -0.0707724 0.0795821 -0.367011 0.66179 0.569708 0.375916 -0.160411 0.101391 -0.0323036 0.0762023 0.414698 0.227328 -0.241331 2.46432 -1.20302 0.915615 0.0133279 0.290462 0.178981 0.684129 -0.277602 0.453605 -0.928213 1.41235 0.654191 0.386674 -0.241706 0.765403 -0.277143 -0.122474 -0.320599 0.31393 -0.0908728 0.258729 0.471218 -0.688069 0.802751 0.341812 1.01697 0.531176 0.0196149 -0.154183 0.121445 0.859751 1.44287 -1.49696 0.794304 0.174661 0.210227 -0.430929
993 -0.261043 0.0674749 0.515341 -0.0835203 -0.246873 -0.192397 0.0869758 0.144298 -0.297997 -0.152801 -0.115439 -0.171607 -0.117968 -0.229157 0.0694465 -0.00860135 -0.422112 0.693234 0.015062 0.692915 -0.409522 0.269198 -0.103164 -0.259342 0.266143 -0.332429 -0.548928 2.341 -1.42397 0.67131 -0.390721 0.108842 0.198388 0.655508 -0.413739 0.132481 -1.40466 1.22865 0.103321 0.483151 -0.0279851 0.383947 -0.190414 -0.227254 -0.326606 -0.0145165 0.0637844 0.207199 -0.281936 -0.976469 0.502351 0.631937 1.0206 0.285801 -0.224722 -0.424598 0.134917 1.19309 0.951453 -1.54356 0.603473 0.576813 -0.557165 -0.248578
950 -0.0178233 0.180635 0.0760262 -0.0239027 -0.195759 -0.364607 0.0340658 -0.0608765 0.269943 -0.207696 -0.437837 -0.34823 -0.178336 -0.162227 0.14297 -0.145894 -0.502359 -0.0727516 0.0772699 -0.202449 0.391174 0.174939 0.202614 0.501876 0.369418 -0.230605 -0.421511 2.50622 -1.56864 0.625353 -0.257334 -0.329055 0.322523 0.417813 -0.129712 0.2045 -1.55793 1.63439 -0.15198 -0.00327587 -0.586077 0.489505 0.112201 -0.00680337 -0.171015 0.172411 0.180479 0.367769 0.404338 -0.952999 0.0308514 0.754958 1.04762 0.35408 0.227166 -0.612794 -0.354298 1.08716 1.17243 -1.82679 0.65633 0.456727 0.35247 -0.0341854
962 -0.0828105 0.235417 0.255558 -0.29733 -0.27354 -0.256113 -0.175256 0.0535274 0.322483 -0.168995 0.338316 -0.015115 -0.360668 -0.104952 0.12621 0.0188243 -0.350009 0.411762 -0.0776216 -0.0392605 0.209142 0.217217 0.264162 0.356447 0.931616 -0.155628 -0.381629 2.32315 -1.60075 0.598107 -0.472946 0.477532 0.24512 0.344542 -0.0775899 -0.000779108 -1.3815 1.43283 0.0594691 -0.44976 -0.792274 0.827401 -0.580549 -0.134931 0.109597 -0.00515522 0.742081 -0.0422591 -0.300673 -0.962699 0.396723 0.516667 1.16685 -0.171108 -0.259488 -0.119019 0.0337538 0.913335 1.66515 -1.30435 0.582805 0.27989 0.0614533 -0.129209
965 -0.0298136 0.135249 0.0933155 -0.0225841 -0.222606 -0.630168 -0.105456 -0.216927 0.604876 0.357874 -0.15531 -0.636654 -0.385501 -0.116574 0.073774 0.066028 -0.310371 -0.0219818 -0.366895 0.165252 0.336632 0.612078 -0.0313996 -0.0520073 0.675211 -0.406635 -0.535837 2.27551 -1.56966 0.702997 -0.340996 0.521549 0.790752 0.145906 -0.0830708 0.137741 -0.945355 1.56841 0.170389 -0.293277 -0.618413 0.220089 0.191745 -0.230607 0.0798038 0.209571 0.559238 0.502547 -0.0108469 -0.958095 0.345713 0.826545 0.990733 0.329256 -0.254565 -0.181337 0.15085 1.10841 1.21722 -1.80045 0.358879 0.261101 0.252712 0.754047
714 -0.0064146 0.0847489 -0.0256036 -0.14712 -0.222715 -0.158323 0.0419592 0.00569523 0.0265211 -0.0128214 -0.290514 -0.0385876 -0.067179 -0.00332381 -0.180514 0.195726 0.403573 -0.0998853 0.342014 -0.604243 0.0284454 0.0188898 -0.0602639 -0.212204 0.183634 -0.0358159 -0.848451 1.90158 -1.24281 0.843212 0.187061 -0.0837766 0.168805 0.425722 -0.0156869 0.319522 -1.23895 1.1777 0.135196 0.18151 -0.374071 0.571488 0.159246 -0.0419236 -0.10041 0.476615 0.0199979 0.0264001 0.112387 -0.850453 0.301193 0.451297 0.74407 0.235876 -0.269281 -0.0754332 -0.0397736 0.742055 1.36338 -1.26169 0.544701 0.226119 0.0770476 -0.0056871
958 -0.0911331 -0.21129 0.560385 0.15102 -0.329498 -0.412957 0.0724353 -0.16756 -0.163786 -0.0719956 0.249006 -0.0475321 -0.151484 -0.127048 0.276948 0.121237 0.234043 -0.490479 0.720591 -0.185161 0.156813 0.0354333 0.196544 0.0160807 0.976382 -0.0322291 -0.542625 2.31543 -1.58407 0.788349 0.406259 0.212206 0.429926 0.21621 -0.0512971 -0.157316 -0.986031 1.78425 0.322267 0.158476 -0.627746 0.689186 -0.118808 0.219837 -0.315699 0.332429 -0.543627 -0.237139 0.201403 -0.845979 0.223612 1.10992 1.06492 0.182319 -0.527048 -0.209139 -0.455975 0.938183 1.61282 -1.32542 0.653825 0.10657 3.90286e-05 0.275765
972 0.213575 0.182307 -0.129543 0.293504 -0.349101 -0.814822 -0.236676 0.176314 -0.391174 0.0968614 0.0258159 -0.23901 -0.474732 -0.360804 -0.194456 0.323401 0.121044 0.042172 0.290889 0.153377 -0.0422256 0.424012 -0.194638 -0.12966 0.846641 -0.18229 -0.641562 2.10658 -1.51139 0.222158 -0.876786 0.945748 0.436666 0.449302 0.0920351 0.554911 -0.886885 1.55485 0.014587 -0.505529 -0.29277 0.760166 -0.362056 -0.0887708 -0.506461 -0.101943 -0.0644102 0.0773349 0.029586 -0.683236 0.582507 0.295004 1.29833 -0.0140716 0.00568958 -0.0907827 -0.347186 0.777912 1.3937 -1.11257 0.472219 0.274563 -0.381893 -0.0579432
108 -0.109489 -0.133664 -0.128111 -0.239298 -0.041735 -0.0282266 -0.0251085 0.0275274 0.0298194 -0.0866931 0.14415 0.334607 0.187037 0.255739 -0.0529526 0.100786 0.212362 0.222928 -0.0997701 -0.0310925 -0.314184 -0.0698487 0.326031 -0.0807722 -0.214748 -0.159606 -0.760865 1.81014 -0.976787 0.601471 0.0548817 -0.154674 0.104458 0.449958 -0.0961029 0.103182 -1.46267 0.593624 0.0555678 0.510346 -0.3904 0.518018 0.00423804 0.00750289 -0.373495 0.64285 -0.372426 0.36735 0.288508 -0.622159 0.277281 0.102525 0.844468 -0.103699 -0.308401 -0.132775 0.0854715 0.7559 0.883019 -1.31077 0.618917 0.243336 0.27045 -0.0864348
270 -0.0646269 -0.0201992 0.0415832 -0.0772608 -0.138274 -0.0720948 0.0939563 -0.0866463 -0.0968622 0.0969627 -0.0372301 0.0407154 -0.00173281 0.0734636 0.0289806 0.00647189 0.191411 0.0739941 -0.0675172 -0.135762 -0.389356 0.0852129 0.550905 -0.108828 -0.0691146 -0.138806 -0.718987 1.95767 -1.14051 0.591762 0.120743 -0.232301 0.136335 0.627493 -0.0532537 0.101273 -1.57932 0.674985 0.181583 0.354543 -0.321224 0.597137 -0.104267 0.0280584 -0.23508 0.313288 -0.242582 0.199528 0.203635 -0.867758 0.336374 0.268399 0.780977 -0.0197827 -0.263315 0.107634 0.0549779 0.617746 0.843551 -1.1899 0.657974 0.283819 0.245493 -0.0401465
554 -0.173312 0.0167325 -0.0064293 0.0119148 -0.206927 0.0290339 0.0742492 -0.0563044 -0.0828689 -0.115527 0.227823 -0.0704898 -0.0176068 0.169064 0.0153633 -0.00350814 -0.144163 0.124876 -0.00408222 -0.141024 -0.37657 0.242178 0.33701 -0.25285 0.0798544 -0.133539 -0.805573 1.76399 -1.22561 0.36201 0.357791 -0.0806218 0.364837 0.395348 -0.0881362 0.267947 -1.30415 0.737968 -0.0748543 0.235806 -0.524031 0.351147 0.0244066 -0.00573265 -0.391874 0.365251 -0.203203 0.121507 0.307248 -0.864699 0.192575 0.2621 0.911059 0.0107281 -0.187931 0.27906 0.167234 0.705471 0.936317 -1.3871 0.559249 0.28772 0.121666 0.0107317
647 -0.0805222 -0.047722 -0.108218 0.0625196 -0.181469 -0.120098 -0.0716527 -0.0725464 -0.137006 -0.0377466 -0.284627 -0.0466648 0.161807 0.0980679 -0.109259 0.27094 0.0267341 0.152641 0.0559374 -0.121423 -0.426087 0.20398 0.37359 -0.150442 0.210569 -0.191826 -0.967646 1.76308 -1.11739 0.629244 -0.0959637 -0.0529485 0.122155 0.443922 -0.190561 0.210769 -1.29078 1.10821 0.0411593 0.243946 -0.631618 0.466711 0.101346 0.0456935 -0.343581 0.424614 -0.293029 0.117901 0.374325 -0.73357 0.159916 0.365593 0.728976 -0.029259 -0.0434419 0.222871 0.232597 0.630065 1.04804 -1.21835 0.567192 0.456505 0.394107 0.00596586
723 -0.0834812 0.131029 -0.0389346 -0.0172061 -0.3178 0.0357635 0.0067118 -0.0842397 0.0134103 -0.0532831 -0.0727564 -0.0669498 -0.00680153 0.0811732 -0.185347 0.188851 0.12866 -0.0885976 0.269213 -0.0415033 -0.576644 0.276319 0.260561 -0.0775728 0.145367 -0.339429 -0.697091 1.92592 -1.27768 0.363556 0.0200196 -0.110298 0.305243 0.424438 -0.126593 0.131711 -1.43487 0.936943 0.267153 0.136895 -0.318967 0.469784 0.0884825 -0.125695 -0.312792 0.353307 -0.340096 -0.0962229 0.280269 -0.862906 0.36869 0.374552 0.898174 0.00200049 -0.160716 0.338809 0.133132 0.674441 1.12572 -1.40337 0.512428 0.340714 0.121255 0.108595
852 -0.156944 0.197332 -0.0545046 -0.0603409 -0.378273 -0.121608 -0.0930945 -0.288624 0.468999 -0.0309575 -0.16968 -0.126671 -0.0618252 0.0392655 -0.309392 -0.11607 -0.641673 -0.104223 0.24543 0.362754 -0.344404 0.192364 -0.0521167 0.204831 0.385621 -0.287246 -1.17814 1.98466 -1.50362 0.888708 -0.156264 0.135304 0.525666 0.33619 -0.290203 0.080347 -1.49354 0.871589 -0.0605722 -0.125942 -0.51423 0.432059 0.102274 0.0988701 -0.465387 0.179407 -0.0945418 -0.0942387 -0.0245955 -1.0699 0.435411 0.386998 0.953183 0.141349 -0.0688134 0.54717 -0.0736072 0.960266 1.23451 -1.55726 0.719178 -0.292458 0.179909 0.42889
942 -0.334847 0.144531 -0.0479713 -0.0415498 -0.220855 -0.240563 0.127775 -0.184819 -0.205983 -0.231008 0.28739 -0.178135 0.0954333 -0.0369592 -0.0421935 0.311982 -0.547009 -0.441238 0.382782 0.577488 -0.0213989 0.0433055 0.665508 0.292672 0.595429 0.0506383 -1.20439 1.93593 -1.6644 0.482846 0.11625 0.0268337 0.824125 0.274129 -0.371745 -0.169787 -1.12839 1.26073 0.466289 0.363859 -0.61634 0.394913 0.302188 0.131954 -0.317179 0.390628 -0.178736 -0.0320246 0.26652 -0.714474 0.475514 0.501496 1.00648 0.0586178 -0.351348 0.0608679 0.403893 0.852874 1.49746 -1.42873 0.722786 -0.0171642 -0.0860354 -0.101277
46 -0.0777698 0.0646556 0.00884788 0.020019 0.111983 0.026218 -0.0109648 -0.0188713 -0.0451462 0.0723127 -0.00300621 0.0904811 0.0599893 0.233923 0.00724208 0.0188654 0.395476 0.144611 -0.111472 0.0454004 -0.280491 -0.278305 0.037216 -0.204626 -0.33244 -0.189572 -0.559576 1.80525 -1.02936 0.418533 0.383668 -0.126216 -0.109652 0.775868 -0.120525 -0.0350419 -1.01504 1.1212 0.020663 0.130108 -0.247574 0.486776 -0.0610121 -0.172571 -0.200043 0.346037 -0.187893 0.374523 0.252116 -1.03406 0.421434 0.065924 0.640065 0.0119256 -0.406326 -0.0597331 0.124368 0.724586 0.922615 -1.1618 0.605774 0.329587 0.0977743 -0.168176
927 -0.106499 0.0609612 -0.16837 -0.141986 -0.209236 0.056615 0.063518 -0.0717361 0.0910824 -0.0894822 -0.558388 -0.0826717 -0.0060132 0.127062 0.0538655 0.0991134 -0.0813168 -0.0441406 -0.0691581 -0.157426 0.321146 0.127655 -0.0601779 0.0937167 0.433293 -0.269726 -0.990372 2.21484 -1.59328 0.853719 -0.0883997 0.424459 0.17619 0.341907 0.14373 -0.0969268 -1.2554 1.32583 0.682007 0.226174 -0.51164 0.447456 0.2874 0.0175195 -0.428457 0.573788 -0.0736082 0.16752 -0.104697 -1.2116 0.716189 0.00512024 1.00398 0.328458 -0.109793 -0.228599 -0.457868 0.886286 1.57097 -1.47027 0.682743 0.399832 -0.071387 -0.359186
980 0.257172 -0.268801 0.179359 0.55183 -0.209936 -0.632223 -0.221413 0.154999 -0.254339 0.187238 -0.261547 -0.211335 -0.665038 -0.123436 0.35861 -0.0249546 -0.238254 -0.144233 -0.0387004 0.149568 0.332402 0.0738419 0.0535287 -0.10943 1.20406 0.0591806 -0.964212 1.64256 -1.5654 0.530291 -0.596845 0.230389 0.515669 0.201909 0.0733729 0.0738897 -0.796401 1.14598 0.766543 0.36795 -0.775573 0.686779 -0.343642 0.184756 -0.250184 -0.0974534 0.832786 -0.388651 0.81719 -0.461211 0.0757179 0.0109812 1.09356 0.263743 0.242703 -0.273828 0.0275128 0.962974 1.41228 -1.59255 0.657693 0.393373 -0.111234 -0.0815392
983 0.494745 0.193152 0.337002 -0.766823 -0.144891 -0.728885 -0.516896 0.334315 -0.278905 0.117435 0.418912 -0.439622 0.0301466 -0.142494 0.265696 0.275148 -0.621702 -0.0953141 0.0694204 0.498026 0.673485 0.219071 -0.0576385 0.251528 1.15407 0.235527 -0.942727 1.69543 -1.43155 0.61017 -0.0581215 0.23082 0.768046 0.409532 0.11423 0.289389 -0.839656 1.29894 0.163775 0.31987 -0.770331 0.414657 -0.337556 0.130055 -0.678755 -0.241041 0.580981 -0.313204 -0.218891 -0.888614 0.760969 -0.114459 0.97285 0.194099 -0.282684 -0.100405 -0.307081 0.787227 1.01379 -1.44964 0.616058 0.347001 -0.024554 -0.0115389
861 -0.133987 0.147912 -0.0748588 0.108182 -0.0222022 -0.174933 0.05427 -0.108406 0.262222 0.0794472 0.628344 -0.344143 0.156321 0.0921998 -0.00457199 -0.127745 0.045917 0.0873033 0.127111 0.442451 -0.322104 0.195505 -0.35903 -0.25442 -0.0502724 -0.282625 -0.499371 2.14651 -1.49188 0.22583 0.480956 -0.282336 0.0261073 0.551015 -0.363268 0.31293 -1.27839 0.877364 0.386253 0.363824 -0.0617292 0.435821 -0.0564945 0.0148126 -0.408448 0.587911 -0.0112377 0.0213601 0.490242 -0.760268 0.451261 0.352773 0.694732 0.119683 -0.287069 -0.170606 0.0203732 0.742761 1.5106 -1.27843 0.491685 0.455589 0.13511 0.17056
907 0.255474 0.203564 -0.0724296 0.0888165 -0.185597 -0.275104 -0.11809 -0.112674 -0.12605 -0.133966 0.0129897 0.0636668 -0.196432 -0.091547 0.057506 -0.182516 0.00474471 0.476493 0.246238 0.197151 0.50382 -0.0467244 -0.603264 -0.0882894 0.579174 -0.316839 -0.708296 2.1144 -1.85337 -0.280458 -0.265031 0.322307 0.489813 0.372702 0.0103486 0.106668 -1.20774 1.26299 0.0987476 -0.151105 -0.559163 0.53143 0.00192185 -0.0254297 -0.026684 0.401821 0.135704 0.185968 0.288152 -0.725014 0.323624 0.463802 1.10076 -0.184025 0.28049 0.075422 -0.215051 0.880638 0.890077 -1.72334 0.626989 0.0908375 -0.200537 -0.291742
618 0.0403273 -0.0791648 0.119567 -0.183874 -0.0516417 0.039334 0.0355027 -0.103092 -0.0624079 0.0827942 -0.176161 0.0307814 0.201477 0.0547561 -0.0455835 0.35781 0.112467 -0.128925 0.159863 -0.0455201 -0.688392 -0.12359 0.291153 -0.0717032 0.0801056 -0.201099 -0.652033 1.82291 -1.21005 0.424897 0.0892025 -0.309071 0.550215 0.377077 -0.22605 0.216454 -1.14306 0.932501 0.116627 0.240243 -0.40524 0.425064 -0.145624 -0.0405333 -0.400731 0.467408 -0.274135 -0.0716763 0.179265 -0.907006 0.499627 0.215005 0.740838 -0.304065 -0.18615 0.141069 0.205543 0.614689 0.846048 -1.36508 0.508525 0.363161 0.194142 -0.202825
178 0.105268 -0.0367166 0.0176939 0.0852721 0.0288897 -0.0865016 -0.125106 0.106038 0.157711 0.0305469 0.14336 -0.127022 0.0248259 -0.0222287 -0.0110309 -0.0712839 0.365048 -0.00853783 -0.0935596 -0.234721 -0.0905122 0.187544 0.145171 -0.275139 -0.323922 -0.10965 -0.275803 1.87822 -0.922759 0.802255 0.298459 -0.410724 -0.0019575 0.731201 -0.0729836 0.235954 -1.14625 1.074 -0.00995922 0.311816 -0.249618 0.485356 0.0113875 -0.0553513 -0.265078 0.41742 -0.056455 0.349042 0.298558 -0.790742 0.25816 0.145113 0.623067 -0.0484755 -0.245642 -0.00728373 -0.00536734 0.751604 0.81268 -1.36576 0.690239 0.167706 0.0184204 -0.293966
460 -0.0381432 -0.13755 0.161784 -0.314659 -0.0188397 0.0865662 -0.0668808 -0.135331 -0.281076 -0.00605578 0.0979188 0.178502 0.148296 0.165054 -0.0441494 -0.101502 0.129882 0.2743 0.154683 -0.276275 -0.30474 -0.304755 -0.0826891 -0.555531 -0.369441 -0.161822 -0.524521 2.03993 -1.02469 0.992792 0.12489 -0.560314 0.00894569 0.546707 -0.227765 0.107481 -1.07311 1.19209 -0.0160091 0.398381 -0.0320526 0.523663 0.0121701 0.0314018 -0.127129 0.532992 -0.00439314 0.18793 0.299016 -0.783564 0.120349 0.386397 0.823718 0.0498794 -0.439601 -0.0433454 0.203679 0.732539 1.08612 -1.29268 0.385519 0.473803 0.218735 -0.0802294
631 -0.0654124 0.0169741 -0.0586921 -0.158504 -0.132294 -0.0349578 0.0311235 0.0904233 -0.0116846 0.0127056 -0.0919914 0.106018 0.190882 0.13872 -0.0921037 0.0333438 0.183964 0.330483 0.406386 0.0180746 -0.293701 -0.292119 0.18188 -0.397748 -0.3883 -0.329523 -0.417647 2.22597 -1.08121 1.15546 0.11507 -0.44227 0.137079 0.597334 -0.289265 0.147782 -1.00452 1.30934 0.0913281 0.176063 -0.261171 0.620258 -0.0151129 -0.169942 -0.10398 0.54872 0.104906 0.314608 0.315047 -0.956418 0.277318 0.419376 0.762511 0.122421 -0.430965 -0.195558 0.0902469 0.786794 1.10525 -1.47693 0.57254 0.526046 0.184906 -0.246958
713 -0.0510473 -0.00126367 0.133281 -0.0727185 -0.0445682 -0.0540472 -0.0206793 -0.0639852 -0.0783627 -0.18882 -0.130116 0.0405426 0.0777301 0.176446 -0.0512767 0.110839 0.370751 0.0966048 0.37685 -0.0648554 -0.10398 -0.444745 0.288126 -0.220671 -0.00941174 -0.203733 -0.582478 2.05404 -1.28989 0.610545 0.203051 -0.0437895 -0.227074 0.548792 -0.298779 0.0850851 -0.876182 1.37812 0.0979944 -0.138931 -0.277567 0.565755 -0.221496 -0.0514242 -0.279975 0.471361 -0.105005 0.202746 0.226527 -0.837567 0.547956 0.0597624 0.854263 0.0257023 -0.234988 0.188949 0.0379761 0.669368 0.983909 -1.38572 0.676346 0.380986 0.242929 -0.107487
840 0.0566207 -0.037784 0.0875074 0.191575 -0.210104 0.119642 0.0854801 0.0455471 -0.218244 -0.141517 -0.0543376 -0.731754 0.113545 0.102736 0.092807 -0.1859 0.103715 -0.086506 0.494668 0.174808 0.0133025 -0.236731 0.550699 0.108816 0.116988 0.0550286 -1.25609 1.63445 -1.12918 0.758744 0.0872708 -0.274855 -0.291965 0.415887 -0.336516 0.0273448 -1.06944 0.823994 0.110334 -0.267838 -0.158204 0.65756 -0.0620293 -0.154706 -0.183272 0.470593 0.278084 0.251384 -0.200147 -1.08007 0.464183 -0.139208 0.503977 0.252965 -0.352528 0.114254 0.352657 0.637569 1.19469 -1.25546 0.45748 0.317749 -0.148942 -0.651023
858 -0.0242256 0.112373 -0.118302 0.303947 -0.27872 0.0376417 0.120276 -0.0150586 -0.0631454 -0.126862 0.147249 -0.454151 -0.00707973 0.214346 0.262513 -0.171757 -0.113098 -0.301358 0.474181 0.0210428 0.0706432 -0.0369439 0.364239 -0.156779 0.17736 -0.106224 -0.669301 2.25941 -1.22831 0.750723 0.184375 -0.110176 0.0564598 0.329723 -0.203186 0.0811517 -1.12434 1.0395 0.239295 -0.050326 -0.387353 0.712035 -0.0839326 0.0414364 -0.215318 0.469246 0.223194 0.171798 -0.112877 -1.26416 0.610315 0.210461 0.61956 0.255079 -0.235845 0.360566 0.0499956 0.66276 1.50994 -1.18715 0.411064 0.542144 -0.428614 -0.850139
990 -0.0406177 -0.0134998 -0.121203 0.15926 -0.199796 -0.0111109 0.0051391 -0.130281 -0.322387 -0.321834 0.686702 -0.599333 -0.0973496 -0.129576 0.162495 0.107797 0.323802 0.241946 -0.135423 0.0767844 0.332365 -0.0842349 -0.423277 0.0963538 0.480616 0.0763982 -0.477908 2.34347 -1.36592 1.32161 0.173487 0.279639 0.508357 0.344133 -0.576783 0.400711 -0.874978 1.578 0.557201 0.536651 -0.235229 0.520027 -0.0863024 -0.118688 -0.0967697 0.282234 0.357436 0.275081 -0.116653 -1.43591 0.151988 0.850592 1.00197 0.0918889 -0.172126 0.0684814 0.662981 1.03745 1.2199 -1.58595 0.75096 -0.205689 -0.0134449 0.140611
834 -0.0611692 0.0791806 0.210932 -0.00417988 -0.172986 -0.170775 -0.088519 -0.0350516 0.407699 0.225588 -0.148646 0.080643 -0.0109169 -0.0711053 -0.250907 -0.0415404 0.492357 0.13126 0.694064 0.266676 -0.0607719 0.389922 0.0141387 -0.3722 0.132416 -0.338888 -0.547228 2.3978 -1.27193 0.883308 -0.134065 -0.391158 0.19815 0.438596 0.00105844 0.376296 -1.34504 1.46415 -0.00934162 0.322602 -0.453127 0.438389 0.230946 0.0520289 -0.173158 0.52339 -0.202985 -0.323661 0.0790113 -1.11354 0.491478 0.497178 0.820904 0.0355761 0.0826004 -0.0930805 0.254846 0.69752 1.68884 -1.21316 0.531252 0.243356 0.321289 0.137949
853 -0.0961623 0.0884711 0.232536 -0.0506918 -0.270815 -0.276626 0.0648929 -0.0371027 0.225277 0.20506 0.00353964 -0.146397 -0.0453299 0.148931 0.0666329 0.0106618 0.445931 0.165232 -0.129095 0.387243 -0.0878539 0.211417 -2.13364e-05 -0.303993 0.319114 -0.306369 -0.549968 2.48764 -1.52426 0.783153 -0.418101 -0.784748 0.0502427 0.469572 -0.00725251 0.367512 -1.25934 1.56307 -0.00656187 0.256548 -0.470108 0.631933 0.114119 0.0692177 -0.220964 0.426447 -0.132648 -0.287309 0.204805 -1.11353 0.564429 0.572908 0.927728 0.343367 -0.259226 0.244544 0.233744 0.869703 1.88584 -1.40263 0.5559 0.164761 0.605769 0.324692
890 0.151858 0.117016 -0.136242 -0.00778856 -0.354016 -0.38775 -0.081064 -0.0535778 0.118859 0.0357697 0.123444 -0.443036 -0.0481649 0.0853037 -0.0192811 0.0181642 0.237415 0.338182 0.246329 0.525681 -0.0991084 -0.0255524 -0.0762814 -0.185349 0.324851 -0.0430131 -0.577816 2.35957 -1.39224 0.921746 -0.570605 -0.321208 0.144187 0.52093 -0.160482 0.643027 -0.990475 1.63891 -0.032334 0.549621 -0.573488 0.383531 0.211557 0.0854962 -0.391572 0.271642 -0.209848 -0.364202 -0.238698 -1.21336 0.587014 0.518253 0.915227 -0.0348326 -0.0128948 0.0761128 0.649557 0.881788 1.80515 -1.18826 0.733276 -0.192077 0.532995 0.456727
900 -0.0375069 0.263784 0.177273 -0.0192031 -0.207649 -0.0217442 -0.0907116 -0.26031 0.0567449 0.0609633 0.126374 -0.378678 0.0483064 0.0421566 0.236901 0.0498948 0.125741 0.215685 0.297529 0.478185 -0.186944 0.381801 -0.815508 0.466538 0.525935 -0.493201 -0.224434 2.38671 -1.5834 0.549112 -0.55147 -0.517201 0.338236 0.366783 -0.226547 0.00837928 -1.13533 1.23454 0.178867 -0.0843955 -0.449819 0.473374 0.0463533 0.180448 -0.448018 0.364376 -0.146516 -0.241356 0.357779 -0.875576 0.558259 0.358698 0.999672 0.24277 0.209239 -0.315681 0.0177062 1.06279 1.38455 -1.66615 0.595169 0.0546829 0.337167 0.300346
987 -0.15521 0.128357 -0.253746 0.12622 -0.255502 -0.193262 -0.0322779 -0.0722193 0.161585 0.256057 0.440313 -0.269565 -0.237059 0.143791 -0.103789 -0.008925 -0.287096 -0.27651 0.545916 0.757648 0.0930868 0.555903 -0.281654 0.177611 0.628262 -0.264317 -0.369344 2.31086 -1.25472 0.909275 -0.367131 0.0391834 0.0079859 0.119668 -0.195 0.277811 -0.905009 1.39994 0.495769 0.277103 -0.502972 0.440293 0.1756 0.0885084 -0.39555 0.320015 -0.0344876 0.216332 0.0368253 -1.23335 0.8752 0.218627 0.938274 -0.22398 -0.491684 0.645985 -0.175511 0.832817 1.79486 -1.05493 0.399246 0.599421 0.157317 0.174721
756 -0.085783 -0.0146812 0.108398 -0.0324493 -0.122889 -0.0728927 -0.0407697 0.125553 -0.0713225 -0.0836761 0.192231 -0.338087 0.0913857 0.113136 0.13878 0.123424 0.090231 -0.0395821 0.0993266 -0.0933481 0.225507 -0.253904 0.109245 -0.453798 0.332797 -0.214248 -0.954767 1.85372 -1.26122 0.687427 -0.327049 -0.029354 -0.159828 0.685724 -0.229689 0.353618 -1.49941 0.753711 0.172666 -0.00365486 -0.309737 0.4657 0.0292246 -0.0410986 -0.00574378 0.578644 -0.0353582 0.147518 0.21662 -0.83266 0.263962 0.30236 0.59436 0.0667618 -0.322196 -0.186724 -0.218023 0.60266 1.1048 -1.28988 0.546459 0.10316 0.0771393 -0.127365
725 -0.172161 -0.180823 -0.0575877 0.139431 0.0120118 -0.0292385 -0.131565 0.065679 0.0119954 0.0116653 0.113502 -0.122589 0.158021 0.0981319 0.0425929 -0.0758845 0.0551545 -0.228636 0.0803291 0.0220609 0.293029 -0.225604 0.0851303 -0.55892 0.0529002 -0.41333 -0.789314 1.84091 -1.10908 0.752765 -0.0610048 -0.105415 -0.155285 0.699988 -0.184452 0.269634 -1.52782 0.632759 0.0843045 0.0834562 -0.245404 0.54015 0.188263 -0.106226 -0.112122 0.445946 -0.0075748 0.161771 0.220772 -0.872336 0.433643 0.413337 0.694746 0.131055 -0.484039 -0.159562 -0.091103 0.871665 1.03558 -1.52989 0.585984 0.0110879 0.314113 0.0779354
823 -0.13326 -0.0879067 -0.106886 -0.152943 -0.082399 0.0193221 -0.147672 0.0362006 -0.0785892 -0.100696 0.464234 -0.0955884 0.0745841 0.0309317 0.0670861 0.013945 0.100778 -0.306881 0.326601 -0.0918323 0.31378 -0.321009 -0.236589 -0.459674 0.189126 -0.52769 -0.675369 1.95987 -1.39857 0.511167 -0.271825 0.0820168 0.0424633 0.526789 -0.0590711 0.212143 -1.37669 0.979384 0.581215 0.163739 -0.52373 0.380984 0.205798 -0.00205703 -0.284222 0.351389 0.245865 0.123905 0.269762 -0.865423 0.32386 0.339331 0.739779 -0.0483731 -0.524196 -0.219524 -0.0468593 0.725148 1.31435 -1.42363 0.594394 -0.130694 0.0195224 0.258707
960 0.207029 0.260651 -0.0282417 -0.0894866 -0.230123 -0.388025 -0.0427531 0.148034 -0.383369 -0.0873289 0.143966 -0.221003 -0.190059 -0.262468 0.320262 0.388085 -0.117324 0.392091 0.0329863 0.486317 0.473602 0.410961 -0.293289 0.442873 1.35942 -0.500422 -0.918289 1.83742 -1.48086 0.439589 -0.210571 0.24119 0.2226 0.19674 -0.290793 0.632553 -0.736231 1.64298 0.466087 -0.367808 -0.740491 0.602295 0.572604 0.178562 -0.00176204 -0.19559 -0.109888 -0.128395 4.64827e-05 -1.01799 -0.0456784 0.993932 1.03826 0.554557 0.398525 0.397577 -0.191277 0.840433 1.22222 -1.35762 0.40108 0.0806872 0.0275274 -0.176065
258 0.054561 0.017073 -0.127301 -0.206197 -0.112239 -0.097845 0.0501588 0.0592788 -0.172996 0.0995512 0.0653512 -0.0463112 0.144877 0.211817 -0.0974883 0.173166 0.580755 0.10599 0.394026 -0.630824 -0.409193 -0.141733 0.277013 -0.415761 -0.242001 -0.201979 -0.523286 2.10529 -1.25332 0.217047 0.266504 -0.341492 -0.0430908 0.629483 -0.0394944 0.342746 -1.36675 1.1632 0.385264 -0.0155197 0.115468 0.63734 0.00694591 -0.0300636 -0.277331 0.50971 -0.216648 0.00726971 0.160757 -0.86916 0.323069 0.23835 0.938072 -0.256387 -0.202998 0.0646251 -0.164184 0.580538 0.839144 -1.33882 0.355946 0.526549 0.24528 0.00734475
544 0.0942639 -0.0947721 0.00706482 -0.1175 0.0734426 -0.116313 0.139102 -0.0785948 0.0130299 0.160906 0.042624 -0.110808 -0.00288135 0.0538569 -0.0863748 0.00267837 0.395837 0.0413383 0.26076 -0.725142 -0.191802 -0.273955 0.0676048 -0.0985752 -0.301758 -0.311668 -0.478826 2.25028 -1.25849 0.54666 0.123592 -0.301564 0.0514469 0.587969 -0.308905 0.335726 -1.41163 1.16933 0.502892 -0.0699345 -0.0703699 0.657573 -0.0861556 -0.16527 -0.150433 0.532964 -0.294696 0.110688 0.261441 -0.930139 0.458419 0.178026 0.922604 0.0924761 -0.283884 0.0629251 -0.0436782 0.745402 0.979724 -1.40079 0.313463 0.477523 0.36794 -0.117857
883 -0.0251231 -0.0835908 0.391586 -0.189436 -0.191778 -0.117377 -0.00406746 0.0268723 -0.123541 -0.12821 0.246655 -0.512557 -0.0576412 -0.153633 -0.0813863 0.191276 -0.0318815 -0.165807 -0.15121 0.114803 -0.480197 0.230126 -0.0704631 0.227819 0.608969 -0.13261 -0.377354 2.43703 -1.53383 0.608149 0.121063 -0.00474363 0.57359 0.290431 -0.134336 -0.132232 -1.23504 1.23427 0.438656 -0.617738 -0.479363 0.924702 -0.634627 0.247447 -0.37482 0.248285 -0.538738 0.0430006 0.494331 -0.719303 0.315191 0.727232 1.18758 0.176187 -0.473736 -0.191589 -0.156826 0.77249 1.11785 -1.7617 0.351388 0.193109 0.7295 0.0654533
24 0.121313 -0.0907971 0.200674 -0.369771 0.0569286 -0.040915 0.142705 -0.132364 -0.0538955 -0.149627 0.14892 0.340828 0.155277 0.183949 -0.0989657 -0.0576817 0.0566153 0.255942 0.094999 0.114863 -0.307696 -0.16649 0.0101181 -0.422473 -0.463503 -0.390699 -0.459375 2.02771 -0.8775 0.703262 0.246749 -0.352423 0.0391819 0.567415 -0.195252 0.0953115 -1.05861 1.0339 0.118312 0.388835 -0.0969049 0.572726 0.00815627 -0.10681 -0.266513 0.418995 -0.00557811 0.192087 0.345749 -0.664259 0.137531 0.218217 0.78385 -0.116575 -0.391342 -0.0599611 0.0547911 0.640338 1.05611 -1.26275 0.489648 0.543341 0.315814 -0.245272
500 -0.0813765 0.126304 0.109818 -0.254855 -0.00196743 0.0559583 0.00937399 0.0198441 -0.0986351 -0.0877638 0.0514411 0.00349994 0.0931776 0.037691 -0.0209352 0.0165873 -0.107085 0.227631 0.317604 0.0755655 -0.25439 -0.235857 -0.156285 -0.520988 -0.328164 -0.165451 -0.392124 2.01381 -0.944893 0.893112 0.151706 -0.389979 0.131523 0.494791 -0.268648 -0.0304843 -0.946506 1.36948 0.104283 0.26637 -0.165764 0.418714 -0.0707166 0.00240057 -0.23214 0.454492 -0.0738212 0.37062 0.462736 -0.709018 -0.0408887 0.43805 0.813036 0.0323513 -0.447944 -0.0219243 0.0520107 0.58681 1.05761 -1.50584 0.518488 0.341364 0.131957 -0.121036
617 0.0186752 0.0392397 0.0888434 -0.220145 -0.115022 -0.147904 -0.0188343 -0.00472275 0.00199582 -0.160307 -0.169991 0.0341528 0.134772 0.0519824 0.0215736 0.0565469 0.172232 0.349084 0.0198847 0.0653909 -0.220827 -0.214505 -0.0580254 -0.457394 -0.293376 -0.139572 -0.250701 2.01912 -0.993805 1.12217 0.146642 -0.501232 0.191466 0.302836 -0.182074 0.0994308 -0.979094 1.18544 -0.0433723 0.184792 -0.0694903 0.614677 -0.0520541 -0.0776698 -0.101779 0.294267 0.0792362 0.158977 0.28979 -0.742884 0.312675 0.207169 0.711038 0.142515 -0.357017 -0.0376258 -0.0516016 0.671685 1.06039 -1.55975 0.375842 0.613962 0.298133 -0.344216
661 0.0457991 0.0150111 -0.166982 0.148124 -0.021324 -0.0683737 0.143292 -0.0592038 -0.0183122 -0.0728841 0.468976 -0.333954 -0.0499603 0.0815198 -0.0175735 0.0230173 0.507936 0.0925023 -0.032179 -0.294263 -0.149764 0.160545 0.128825 -0.188519 -0.0791931 -0.142626 -0.437777 1.99824 -1.04829 0.81659 0.265633 -0.435372 -0.22792 0.649992 -0.0047973 0.109417 -0.820564 1.26033 0.166127 0.22483 -0.239258 0.541904 0.111452 -0.127565 -0.334199 0.418602 -0.134814 0.127267 0.171879 -0.821223 0.448599 0.0654311 0.641349 0.0831258 -0.214981 -0.202967 0.116991 0.546572 0.959614 -1.00478 0.370156 0.370076 0.0561253 -0.166789
842 0.0802911 -0.0835849 0.208442 0.0197972 -0.102386 -0.439773 -0.230896 -0.0335921 0.328858 0.0883263 -0.416139 -0.00877285 -0.000319886 0.0303323 -0.191473 -0.14219 -0.238078 0.0748452 -0.100812 -0.380175 0.0578928 -0.412418 -0.355963 -0.156263 0.446593 -0.406711 -0.792975 2.28741 -1.43667 0.918097 0.143837 -0.210062 -0.103416 0.65684 -0.129093 0.286502 -1.16436 1.23516 -0.0911501 0.265963 -0.190497 0.715993 -0.15339 0.0161886 -0.251228 0.323294 -0.291032 -0.285825 0.112456 -0.786437 0.547105 0.399521 1.08241 0.128109 -0.235696 -0.290534 0.123572 0.797105 1.45064 -1.68772 0.580329 0.103109 -0.0255409 -0.200991
874 -0.000605677 0.00382107 -0.0857742 0.111553 -0.136091 -0.205853 0.191052 0.0706137 0.0565644 -0.00459196 -0.0858591 -0.188281 -0.0704417 0.116512 0.0236346 0.0511305 -0.231365 0.16338 -0.334548 0.0603741 0.0969988 -0.329339 -0.00727173 -0.470205 0.224043 -0.58956 -0.570226 2.37505 -1.50909 0.943297 0.137274 -0.281169 -0.186703 0.672687 -0.231215 0.189061 -1.22058 1.41936 -0.195386 0.310484 -0.220572 0.665696 -0.0506308 0.206976 -0.314915 0.446937 -0.24078 -0.319366 0.37184 -0.882664 0.571539 0.281776 1.00033 -0.085577 -0.118669 -0.321098 -0.0601863 0.860011 1.42603 -1.64194 0.47293 0.342775 0.252987 -0.24579
887 -0.0133395 -0.0540093 0.182649 -0.0302068 -0.243235 -0.121611 -0.0614529 0.0570936 0.13452 0.198084 -0.268225 -0.255668 -0.251893 -0.135174 0.127099 0.0471914 -0.182152 0.43366 -0.532568 -0.074641 -0.0631583 0.0731057 -0.573791 -0.35416 1.01652 -0.562139 -0.48976 2.34609 -1.46051 0.888317 -0.0727621 0.0723181 -0.168863 0.427123 -0.213663 0.471347 -0.944648 1.61346 -0.134927 0.534141 -0.457912 0.753145 -0.186863 0.00611739 -0.16132 0.206909 -0.0282233 -0.188693 0.310939 -0.866599 0.477782 0.556019 1.16766 0.00559799 -0.185398 0.234141 -0.457389 1.13794 1.35355 -1.4575 0.562967 0.401386 -0.0506267 0.297279
902 -0.0398193 0.0999111 0.0187149 0.0118565 -0.0120277 0.0964065 -0.0251646 -0.0974919 -0.039738 -0.199604 0.0128311 0.0107399 0.114597 0.0244779 -0.091305 0.0768844 -0.138498 0.55777 0.38425 0.0579362 -0.0173345 -0.240554 -0.364489 -0.431686 -0.215521 -0.279662 -0.338897 2.30462 -1.08918 1.10791 -0.122418 -0.311984 0.378018 0.405527 -0.243719 0.0729479 -1.20677 1.24997 0.0559652 0.352055 -0.143077 0.579281 -0.0985551 -0.119548 -0.15101 0.439021 0.291563 0.228925 0.244028 -0.850326 0.410837 0.354979 0.97395 0.0304191 -0.400919 -0.158343 0.0125865 0.851095 1.08788 -1.68388 0.580738 0.59629 0.290612 -0.357552
413 0.160594 -0.17339 0.109777 -0.184254 -0.225313 -0.00561674 -0.0197688 -0.0706374 0.235385 0.0386966 -0.269036 0.429025 0.0348765 0.281288 -0.115015 0.059009 0.578896 0.0873742 0.238675 -0.777429 0.216184 -0.0856526 0.13219 -0.343317 -0.255176 -0.1415 -0.756631 1.77957 -1.12234 0.66898 0.22653 -0.322818 0.00590246 0.673929 -0.118924 0.287173 -1.42211 1.04396 0.110134 0.349108 -0.337171 0.48133 0.215582 -0.00332242 -0.217205 0.502827 -0.223579 0.0914326 0.171221 -1.02575 0.366872 0.147065 0.861703 -0.0267733 -0.191431 -0.146307 0.000384027 0.602375 1.23287 -1.15669 0.509066 0.312803 0.192296 -0.139341
740 -0.0738355 -0.00383443 0.223239 -0.108227 -0.106873 -0.0218414 -0.0551415 -0.0488094 0.0875819 -0.00602815 -0.206289 0.163341 0.00459674 -0.0414196 -0.212293 -0.0205809 0.336293 -0.11158 0.291937 -0.190776 0.103254 -0.11434 -0.170545 -0.29506 0.0177101 -0.0379829 -0.531012 2.02484 -1.13942 0.883209 0.0114083 -0.101135 0.0876908 0.33614 0.0990042 -0.0113865 -1.35361 1.05339 0.143367 0.246404 -0.419604 0.526401 0.179907 -0.0363103 -0.224009 0.458051 -0.126743 0.207684 0.25796 -0.941037 0.43315 0.234976 0.871364 0.0654065 -0.143721 -0.266078 0.0990315 0.698376 1.44056 -0.947589 0.53809 0.264747 0.117661 0.00671686
865 -0.14967 -0.0194435 -0.147853 -0.141083 -0.100598 0.0851803 -0.0378489 0.0820619 0.128017 -0.164944 -0.449383 0.383519 0.0930985 0.0439972 -0.0712664 -0.242147 -0.041726 0.0260189 0.549891 -0.544765 0.0316101 0.125126 -0.308065 0.145991 -0.138863 0.129667 -0.438729 2.00365 -1.00084 0.946428 0.302938 -0.145999 0.0986252 0.514387 -0.245917 0.240984 -1.21289 0.973892 0.281265 0.261708 -0.265402 0.548972 0.18128 -0.0177759 -0.453411 0.476394 -0.234534 0.381944 0.402857 -0.506579 0.426109 0.0432492 1.00576 0.276611 -0.427014 -0.120335 0.343429 0.712142 1.3271 -1.20346 0.638002 0.185742 0.514563 -0.393275
217 0.0785569 -0.130304 -0.0812615 0.00766634 -0.00817883 -0.126289 0.115028 0.0440319 0.0702064 -0.0492944 0.217528 0.176268 -0.0242833 -0.0144043 -0.0611322 -0.102482 0.265169 -0.155894 -0.0718822 -0.336961 -0.2806 0.205889 0.245059 -0.441716 -0.219834 -0.0593213 -0.24228 1.91625 -0.979232 0.753074 0.403299 -0.401495 -0.131299 0.532994 0.0269646 0.231141 -1.00064 1.13577 -0.0117514 0.159689 -0.256377 0.456601 -0.0628922 -0.085184 -0.28774 0.558069 -0.163696 0.186345 0.309956 -0.699519 0.452345 0.210436 0.608542 -0.055403 -0.280694 -0.0383558 0.0259012 0.618887 1.05092 -1.23923 0.563236 0.199597 -0.0055292 -0.299625
310 0.0494375 0.0534939 0.0375759 -0.10617 0.00328125 -0.111231 -0.042627 0.0942222 0.120307 0.0884222 0.287951 -0.0887523 0.0316426 0.0556107 -0.00424715 -0.0454127 0.412302 0.0334665 0.0133951 -0.424375 -0.408462 -0.0594093 0.15976 -0.282035 -0.187475 -0.181246 -0.404948 1.871 -0.973784 0.616488 0.347362 -0.400788 -0.0598445 0.69879 -0.0863529 0.114541 -1.11965 1.02916 0.200978 0.159912 -0.249527 0.355405 -0.0578726 -0.194419 -0.350554 0.424709 -0.0573788 0.22299 0.201286 -0.634934 0.416274 0.147117 0.791458 0.0764742 -0.0904764 -0.0228551 -0.0714259 0.708599 1.01558 -1.16065 0.410584 0.23778 -0.175813 -0.376463
395 0.0250924 -0.0638953 0.0643182 0.0275258 -0.0575062 -0.046184 0.0735967 0.0104726 0.129332 -0.0189286 0.178688 0.0365638 0.228645 0.289263 0.0181007 -0.182887 0.222306 0.286357 -0.131942 0.0267585 -0.00974862 -0.303236 -0.0535912 -0.300329 -0.263059 -0.0111625 -0.434351 2.12089 -1.47728 0.119059 0.509134 -0.231088 0.370603 0.637088 -0.145173 0.104635 -1.23668 0.752786 0.156352 0.454803 -0.33821 0.573845 -0.0132028 0.00115633 -0.0770007 0.503168 -0.129544 0.127507 0.419791 -0.831901 0.257882 0.106927 0.733493 -0.104309 -0.0880177 0.0399419 -0.142106 0.633416 1.12425 -1.17838 0.549859 0.281022 0.0027237 -0.107036
910 -0.0300413 0.151 0.338128 0.115122 -0.232598 -0.421271 0.0226656 0.129639 -0.0774044 -0.0437969 0.0403068 -0.209736 -0.0731866 -0.0741307 0.0581952 -0.105563 -0.0299824 0.0481588 0.0677034 0.246301 0.340297 0.103757 -0.468233 -0.329764 0.525603 -0.144577 -0.756436 2.08276 -2.04213 -0.331746 -0.0240963 0.150439 0.691763 0.485121 -0.224859 0.0455946 -1.04247 1.3232 0.0348719 0.152846 -0.641321 0.27222 -0.0203055 -0.0289887 -0.137007 0.172946 0.416556 0.167612 0.306904 -0.735056 0.338503 0.620624 1.00974 0.0967619 -0.0550362 -0.0773416 -0.325623 0.850247 1.17092 -1.45299 0.659723 0.0308963 -0.0309682 -0.0126647
985 0.027989 0.0999819 -0.164664 0.0135707 -0.120231 0.106752 0.094591 -0.0580172 0.0717041 -0.0993242 0.446251 -0.4332 0.154262 0.0638965 0.00769076 -0.299057 -0.37102 0.568259 0.0641415 0.317786 0.255236 0.0673963 -0.271482 -0.0387547 0.563792 -0.0231174 -0.453634 2.20405 -1.2656 0.743024 0.630887 0.378566 0.246109 0.193079 -0.254284 0.190589 -1.03748 1.16123 0.442784 0.0115383 -0.2452 0.600466 -0.0906473 0.169865 -0.37019 0.327667 -0.309794 0.192863 0.017552 -1.05413 0.588116 0.514476 0.987955 0.029704 -0.0529133 0.369719 0.106598 1.02926 1.28285 -1.47555 0.422466 0.249893 0.237013 0.181252
236 -0.02307 0.258124 0.00668328 -0.0341494 0.0156681 -0.0731284 0.100112 0.181252 0.143164 -0.0279866 -0.033008 0.114463 0.128921 0.179509 -0.0156507 -0.0747072 0.230254 0.275689 -0.0477581 0.100325 -0.0365796 -0.289204 0.140988 -0.543766 -0.393184 -0.0591898 -0.213532 2.1196 -1.13573 0.429573 0.462047 -0.418873 0.165266 0.512547 -0.0236206 0.284654 -1.3036 0.95593 0.139053 0.304017 -0.196909 0.4305 0.00127573 -0.0233301 -0.334213 0.39976 0.00751415 0.212508 0.340825 -0.971036 0.219827 0.147305 0.647749 -0.254493 -0.351928 0.118424 0.0913894 0.651647 1.12406 -1.13369 0.519852 0.179392 -0.0302861 -0.0295823
462 -0.1082 0.082309 -0.0210464 -0.00135274 0.0353312 0.0712573 0.0467571 -0.0773387 0.0361691 -0.0391115 0.147068 0.124887 0.0322775 0.214946 -0.161107 -0.0477369 0.0953104 0.259268 -0.0380211 -0.0239824 -0.0218701 -0.415089 -0.0313949 -0.339928 -0.172436 -0.27971 -0.320125 2.24492 -1.38161 0.235199 0.397047 -0.318511 0.212264 0.645027 -0.13775 0.216196 -1.17755 1.07688 0.146893 0.237753 -0.205027 0.542931 0.00352565 -0.0136687 -0.343239 0.40431 0.0648159 0.101045 0.30736 -0.883299 0.236061 0.151645 0.837803 -0.0321843 -0.261516 -0.0418693 -0.0371291 0.794063 1.2568 -1.19137 0.471509 0.281273 0.0271723 0.00201469
611 -0.0648091 0.0122158 -0.0439444 -0.124516 0.105506 -0.045264 0.128558 -0.0440597 0.169404 0.0200219 0.314311 -0.0567953 0.126732 0.137803 -0.0596785 -0.0729535 0.586367 0.114214 0.213229 0.179278 -0.0122532 0.107476 0.0250485 -0.25684 -0.253161 -0.277929 -0.56097 1.94434 -0.981624 0.642501 -0.138229 -0.515163 -0.163783 0.754937 -0.220974 0.253376 -1.07493 1.07707 0.309333 0.319355 -0.20655 0.538697 0.158363 -0.0650528 -0.0728605 0.505279 -0.191359 -0.0740891 0.238465 -0.687288 0.44953 0.0871999 0.626337 0.0447107 -0.122414 -0.223411 0.346754 0.714881 1.27683 -1.22987 0.391963 0.519156 0.269903 0.294564
621 -0.0610534 -0.0863289 -0.101785 -0.113479 -0.095514 0.0413413 0.0569356 -0.142117 -0.292071 0.09452 0.047332 -0.143053 0.0646866 0.0611032 -0.138281 -0.103802 0.343772 0.0616955 0.322372 -0.617913 -0.284962 -0.172037 0.101424 -0.379765 -0.225469 -0.22416 -0.431131 2.03827 -1.32349 0.217641 0.274506 -0.215142 0.0603444 0.513729 -0.179645 0.372852 -1.20448 1.09287 0.513679 0.0588169 -0.0378481 0.598712 -0.0400681 -0.0367638 -0.163185 0.345779 -0.293052 0.0524112 0.230695 -0.949346 0.260773 0.215019 0.833621 -0.0825427 -0.225565 0.00647274 -0.11901 0.720839 0.99712 -1.41477 0.328917 0.527186 0.381024 -0.0689342
941 -0.121206 0.00999236 0.0395904 -0.0977513 -0.239684 0.0962713 0.0806688 -0.148072 -0.182978 -0.0818643 0.087351 -0.155638 0.0465154 -0.00500055 -0.0669648 -0.00485545 0.400417 -0.449039 0.539803 -0.354491 -0.326657 0.12569 -0.59498 0.170125 -0.0653905 -0.132771 -0.649328 2.21332 -1.35663 0.41784 0.189849 0.17981 0.334224 0.324312 -0.12968 0.0817231 -1.18364 1.33118 0.530765 -0.190336 -0.123893 0.791445 -0.167203 0.0578265 -0.0816979 0.500783 0.00752374 -0.223755 0.271894 -0.94406 0.46353 0.2834 0.920353 -0.0196705 -0.110729 0.339933 -0.105634 0.904657 1.02351 -1.62633 0.455117 0.0862872 0.702021 -0.136053
715 -0.117745 0.201607 0.124918 -0.107074 -0.136379 0.043002 -0.0483965 -0.0644394 -0.329584 -0.0547664 -0.00265014 -0.0209597 0.198741 0.0769739 0.065345 0.0449768 0.101437 0.287286 0.258963 -0.632859 -0.450812 -0.254092 -0.0164068 -0.382077 -0.133392 -0.17783 -0.519281 2.03173 -1.24859 0.277456 0.147629 -0.158919 0.237536 0.552717 -0.0865389 0.2461 -1.20748 1.05693 0.306838 0.0432805 -0.0431975 0.709244 -0.0164873 -0.158209 -0.1065 0.440605 -0.415544 0.0280055 0.237481 -0.86351 0.282856 0.378106 0.819233 0.0701095 -0.0586774 0.351124 0.0100914 0.544361 0.808219 -1.40334 0.564126 0.357547 0.382468 -0.065652
982 -0.144572 0.216206 -0.150214 0.0438905 -0.15106 -0.250392 0.0254476 -0.303981 0.00784259 -0.0138911 0.128492 -0.138245 0.0515576 0.0310942 0.0089991 0.130391 -0.257676 -0.232829 0.29268 0.710695 0.0756168 0.223086 0.222287 0.44901 0.469828 -0.101508 -1.26279 1.86533 -1.52108 0.510047 -0.12859 0.0846448 0.723194 -0.0451325 -0.25466 0.0386028 -1.16609 1.00076 0.107073 0.0376271 -0.575615 0.372838 0.036469 0.103363 -0.384933 0.320455 0.137713 0.0201618 0.0110342 -0.835663 0.699825 0.236841 0.872234 -0.0508926 -0.411863 -0.0107888 0.277209 0.968359 1.23636 -1.54273 0.655185 0.091267 -0.085975 -0.183774
868 0.0938861 0.0380053 -0.255363 0.284563 -0.103651 -0.213122 0.207128 0.00024804 -0.0553635 -0.290977 0.0912387 -0.170701 0.0523178 0.0309562 0.0960893 -0.00498432 0.27187 0.295716 0.189231 -0.0932651 0.308503 -0.358546 0.380411 -0.230882 -0.0233524 -0.150341 -1.54474 2.14943 -1.60557 0.592217 0.309781 -0.264173 -0.016786 0.783219 -0.242891 0.246854 -1.19397 1.41122 -0.0262426 -0.126444 -0.308303 0.586876 -0.030518 -0.0592969 -0.178212 0.63648 -0.00256152 -0.0231893 -0.0593519 -1.09059 0.418145 0.286682 0.878655 0.261659 -0.00414615 -0.16587 0.139365 0.824312 1.46885 -1.30601 0.685772 0.307426 0.539013 -0.0731174
871 -0.124278 0.166498 0.0430736 -0.10756 -0.268152 -0.495901 0.0478941 -0.0344742 0.275598 -0.0442798 0.431954 -0.475263 -0.0757177 -0.039785 -0.113218 0.0619241 -0.00269516 0.202627 -0.0730997 -0.2176 -0.0554583 -0.136353 -0.0763054 -0.48591 0.246234 -0.0457603 -1.43219 2.03475 -1.7012 0.324594 0.122311 -0.53277 0.148311 0.568153 -0.204976 0.536302 -1.1741 1.72349 -0.0830014 0.187987 -0.568734 0.459592 0.196565 -0.02773 -0.194866 0.334535 0.0750051 -0.0986767 0.174111 -1.06509 0.216659 0.859095 0.982753 0.165275 -0.317068 0.148892 -0.199449 0.855822 1.60869 -1.23267 0.628426 0.0591896 0.148885 0.294234
916 -0.135852 -0.0667442 -0.223667 0.107981 -0.117304 0.00999996 0.0813992 -0.0982428 0.142932 -0.104758 0.158059 -0.148405 -0.00173937 0.117217 0.146687 0.0625271 -0.146635 0.616107 0.334483 -0.302752 0.160694 -0.138763 0.103401 -0.0172367 0.463312 -0.226934 -1.32167 2.34246 -1.49807 0.916544 -0.113238 -0.279943 -0.00555193 0.472041 -0.0504296 0.489501 -1.33217 1.36476 0.00530992 -0.249626 -0.306833 0.623785 -0.0124724 0.0962152 -0.289555 0.566405 -0.175288 0.113175 0.0787914 -1.0051 0.635664 0.293036 1.02727 0.100955 0.0814457 0.0491618 0.0934428 0.915098 1.7259 -1.47443 0.582602 0.322959 0.349191 -0.39832
16 -0.0903387 0.184827 -0.110768 -0.0383763 -0.076464 -0.0201745 0.0154541 -0.076708 0.0565123 -0.0852412 -0.302706 0.486593 0.137777 0.195214 -0.0835786 0.0201896 0.141965 0.300783 -0.0196072 -0.203879 -0.415416 0.0411503 0.344227 -0.0786629 0.000201068 -0.0649913 -0.648802 1.76812 -1.02159 0.646528 0.273279 -0.180724 0.156224 0.483627 -0.297014 0.0265645 -1.32655 0.56983 0.162862 0.487012 -0.218297 0.375309 0.102935 -0.135168 -0.401191 0.565808 -0.155169 0.113102 0.286747 -0.877524 0.277602 0.230359 0.697778 0.0762548 -0.444935 0.0520176 0.259511 0.514512 0.809321 -1.03425 0.454075 0.0497515 0.170505 -0.0161985
216 -0.0711691 0.0881221 -0.0711067 0.0684069 -0.172846 -0.0213341 0.0965747 -0.149227 0.189689 -0.0885856 -0.225779 0.0527089 0.0387226 0.0679201 0.0302299 0.0277263 0.18258 0.323063 -0.170264 -0.204155 -0.124229 0.0989926 0.660711 -0.0687193 -0.200378 -0.176045 -0.543966 1.68946 -1.0735 0.811267 0.0714862 -0.247141 0.0392241 0.701501 -0.0921772 0.333948 -1.41077 0.7376 0.146903 0.266849 -0.378695 0.426409 0.121825 0.0750072 -0.359092 0.395129 -0.271905 0.145524 0.250944 -0.857841 0.455054 0.234096 0.768597 0.041478 -0.308723 -0.191073 0.181508 0.726334 1.06726 -1.35335 0.546817 0.400139 0.195158 -0.0505954
334 -0.0581083 0.0743835 -0.116273 0.0525577 -0.0573347 0.0112746 0.014702 0.0099149 0.0242143 0.0148481 0.0557209 0.146263 0.157753 0.156618 -0.136376 0.0813783 0.184642 0.147431 -0.0655597 -0.226731 -0.516957 0.0934327 0.35352 -0.0854567 -0.187385 -0.134311 -0.82436 1.81517 -1.17866 0.549768 0.262807 -0.24271 0.0356987 0.631866 -0.0825559 0.130238 -1.32747 0.878498 0.0847835 0.323969 -0.528527 0.384647 0.1774 -0.12086 -0.256904 0.514158 -0.334003 0.206219 0.319062 -0.748579 0.328623 0.0926137 0.772408 -0.0158274 -0.178908 0.139748 0.309191 0.644251 0.982234 -1.26276 0.528943 0.20434 0.168423 -0.10576
569 -0.112839 -0.0561698 0.0924042 -0.0299526 -0.0390426 -0.0453888 -0.12662 -0.217607 0.0185485 -0.0269305 -0.0522838 0.35319 0.12509 0.00406998 0.0514858 0.213159 -0.0595407 0.123663 0.275597 -0.159501 -0.361216 0.425157 0.405435 -0.0699442 0.13915 -0.0883745 -0.796507 1.76051 -0.939562 0.695256 0.0503955 -0.265272 0.219598 0.442528 -0.134135 0.336495 -1.05274 0.864613 0.266099 0.423638 -0.446136 0.44854 0.0478336 0.033788 -0.439637 0.397622 -0.297396 0.225038 0.175949 -0.658418 0.13553 0.151163 0.727277 0.204032 -0.0197735 0.171397 0.306364 0.613344 1.00849 -1.40962 0.65647 0.0901311 0.455706 0.0211779
898 0.0759254 0.121489 0.158626 -0.0327305 -0.281733 -0.148214 0.0529037 0.0851817 0.326584 0.133035 0.0569289 0.00378008 -0.0474913 0.107159 0.0814083 0.0597211 -0.0540349 0.325726 0.843992 0.0579264 0.40517 0.235085 -0.190914 -0.0344512 0.553576 -0.543055 -0.958818 2.27031 -1.58613 0.571936 -0.577134 -0.536663 0.166948 0.410641 0.0133951 0.113174 -1.03655 1.63318 0.165346 -0.0796595 -0.762831 0.539214 0.13243 -0.0165611 -0.13374 0.481379 -0.130765 -0.0140345 -0.18518 -1.21913 0.554972 0.37591 1.04272 -0.05792 0.400407 0.214907 -0.168805 0.816272 1.37478 -1.70271 0.859817 0.0174127 0.411689 -0.123358
557 -0.0674565 0.180598 0.0600972 0.0117148 -0.0754805 -0.0726014 -0.153491 -0.0175491 0.0190263 -0.0909801 0.00385133 -0.0231142 0.0932266 0.0411828 0.0421368 -0.0244006 0.0726438 0.0516928 -0.119913 0.0361121 -0.339716 0.0021695 0.372636 0.0803729 0.0273707 -0.15111 -0.935127 1.681 -1.27747 0.545767 0.0916519 -0.178482 0.242395 0.409972 -0.299787 0.139401 -1.49465 0.646934 0.171602 0.257156 -0.434226 0.555078 0.148873 -0.153278 -0.374089 0.540866 -0.189791 0.130524 0.424837 -0.783819 0.429755 0.254171 0.669245 0.186077 -0.229204 -0.0515357 0.100689 0.6506 0.856361 -1.3379 0.493271 0.309012 0.213537 -0.12155
677 -0.0611595 0.118604 -0.0909725 0.358038 -0.277104 -0.140182 0.0994402 -0.169964 0.0227907 -0.0460909 -0.0991273 -0.0918532 0.0580801 0.0481922 0.0629362 -0.0956165 0.155671 -0.121428 -0.0415728 0.347319 -0.379988 0.420977 0.26597 0.178423 0.234214 -0.163042 -0.994183 1.64442 -1.3075 0.578506 -0.202786 -0.326595 0.0732858 0.480379 -0.180308 -0.0830155 -1.31181 0.799297 0.300061 0.466558 -0.377239 0.383152 0.229739 -0.0450219 -0.248929 0.375015 0.0445968 -0.00544825 0.288439 -0.784947 0.25284 0.351184 0.834784 0.502507 -0.120252 0.193974 0.169329 0.789299 1.11084 -1.22402 0.489074 0.107634 0.125617 -0.132507
819 -0.115895 -0.0761294 -0.198792 0.157303 -0.167461 -0.107089 0.052031 -0.0877349 0.0669104 -0.0679121 0.627928 -0.116402 0.163517 0.0217639 0.0515819 -0.0757686 0.338584 -0.227327 -0.0427348 0.676595 -0.33555 0.579404 -0.025843 -0.247555 0.21959 -0.444539 -0.512852 2.11669 -1.2134 0.63797 -0.214732 -0.684274 -0.197472 0.576358 -0.27303 0.190112 -0.992708 1.04489 -0.121609 0.244467 -0.0469102 0.289067 0.102894 0.00625341 -0.252666 0.453512 -0.320316 -0.139523 0.397821 -0.913146 0.328471 0.4125 0.816211 -0.0154811 -0.21759 0.0974241 0.0792891 0.728869 1.18901 -1.16133 0.423445 0.295792 -0.000487913 -0.206315
997 -0.0147073 0.158774 0.128364 -0.0563187 -0.269409 -0.193161 -0.0205148 -0.0566736 0.287116 -0.116198 -0.13355 0.101959 0.0713194 0.0610809 0.0553803 -0.0572013 -0.0441792 -0.0514074 0.562061 0.591354 0.152112 0.518471 -0.245341 0.441354 0.627326 -0.367524 -0.423157 2.36631 -1.26983 0.494376 -0.228921 -0.288666 0.245329 0.196881 -0.20368 -0.166569 -0.926525 1.34965 0.324287 0.119443 -0.477194 0.430192 0.0623283 0.105387 -0.329618 0.446336 -0.193401 -0.0445005 0.0814545 -1.03082 0.639754 0.287634 1.00098 -0.0223906 0.166836 0.109908 -0.287361 0.953519 1.20741 -1.57983 0.605208 0.155479 0.284375 -0.0334307
737 0.070433 -0.0289935 -0.0447451 -0.0141861 -0.180612 -0.15812 -0.125655 -0.0413233 0.0934614 0.0435462 0.442132 0.0585585 -0.0496627 0.137125 0.11473 0.10767 -0.0876964 -0.110691 -0.0224623 -0.29845 0.152568 0.176876 0.211185 -0.224736 0.37324 -0.329843 -0.00906275 2.46195 -1.23588 0.917878 -0.0947287 -0.16968 -0.0910766 0.762079 -0.0361726 0.355795 -1.31381 1.16491 0.291465 0.0235098 -0.417306 0.428497 -0.168333 0.171746 -0.364427 0.469069 -0.0211413 0.492549 0.563403 -0.609882 0.300787 0.201831 0.860742 0.0328767 -0.358704 -0.480494 -0.124771 0.551353 1.13047 -1.54523 0.396696 0.657486 0.594692 -0.166915
859 0.00865264 0.237709 0.16259 0.00630511 -0.137195 -0.238208 -0.0963825 -0.186871 0.0129115 0.000177624 0.49604 -0.462896 0.246376 0.166749 0.137042 -0.0283595 0.154208 -0.422041 -0.0304654 0.414771 0.206031 -0.0132148 -0.410966 -0.534589 0.521399 -0.229073 -0.77638 1.97775 -1.28862 0.786727 -0.193118 -0.151912 -0.149413 0.612898 -0.249281 0.4629 -1.62277 0.581837 0.371722 0.176423 -0.0993496 0.353449 0.0121837 -0.0287329 -0.108417 0.278817 0.0779017 0.219364 0.124001 -0.763131 0.283301 0.476279 0.676543 0.153177 -0.318554 -0.0825932 -0.144676 0.771823 0.985236 -1.39565 0.472718 0.229745 -0.0592239 0.245006
136 0.064973 0.0729346 -0.0256339 0.00280273 -0.0238425 -0.065525 0.0387021 0.102115 -0.0643174 -0.0351369 0.328275 0.0923759 0.0694959 0.109571 0.0226257 0.088573 0.250532 0.173683 -0.215294 -0.595487 0.184342 -0.493498 0.123655 -0.190728 -0.440311 -0.194371 -0.451648 1.86123 -1.08285 0.791217 -0.040234 -0.290619 0.0189519 0.576488 -0.114471 0.163543 -1.28672 1.07695 0.0362538 0.145565 -0.265976 0.498198 0.160261 -0.0432259 -0.368716 0.466798 -0.487662 0.203856 0.512329 -0.617511 0.354079 0.28535 0.692444 -0.0357039 -0.328595 0.0256868 0.151616 0.724367 1.21738 -1.21868 0.548821 0.517307 0.0997396 -0.128932
553 -0.0331525 0.0490311 0.023662 -0.057869 -0.103427 -0.0810961 0.0498947 -0.0636974 -0.151378 -0.149979 0.634982 -0.306429 0.195465 0.0894396 0.0715023 0.0614921 0.130701 0.0637509 -0.108299 -0.683368 0.0113347 -0.373013 -0.24242 -0.284304 -0.212856 -0.136966 -0.247307 1.98467 -1.3631 0.421904 0.0753763 -0.111352 0.201289 0.546744 -0.206097 0.0523311 -1.36114 0.985376 0.0385431 -0.0478599 -0.306557 0.656019 -0.0404953 -0.00462481 -0.200676 0.471717 -0.206529 0.215339 0.350844 -0.848491 0.437392 0.326227 0.810833 0.104707 -0.184908 0.249369 0.254744 0.718905 1.18069 -1.18755 0.516941 0.369523 -0.0412927 -0.142277
919 -0.135465 0.0965677 -0.0301507 -0.127704 -0.187186 -0.0895508 0.125318 -0.0975055 -0.0379951 -0.0690458 0.424356 -0.169002 -0.0566682 0.0769557 0.206585 -0.0379162 -0.358527 -0.0433506 0.0572106 -0.389391 0.543254 -0.160954 -0.142368 0.268752 0.281219 -0.266546 -0.834846 2.32901 -1.53165 0.884604 -0.305825 -0.0423931 0.35168 0.467046 0.036631 -0.248892 -1.11776 1.31889 -0.106071 -0.405692 -0.67199 0.569433 0.184853 0.122877 -0.473166 0.429267 -0.24416 0.182582 0.483538 -0.886059 0.657322 0.0577998 1.19348 0.23334 -0.502946 -0.0105461 0.2085 0.923167 1.80349 -1.35488 0.549583 0.361222 -0.101304 -0.0469504
484 -0.00339114 0.016921 -0.161375 0.0927936 -0.0239629 -0.0577069 0.00701774 -0.0166137 0.162285 -0.0132102 0.16373 -0.068357 -0.0290545 0.0845872 -0.130267 0.13974 0.358279 0.192908 0.0759544 -0.526626 -0.0258568 -0.172638 0.309642 -0.0358511 -0.262347 -0.0169964 -1.02328 1.81082 -1.19538 0.319922 0.234953 -0.324619 -0.0803258 0.530367 -0.222103 0.335558 -1.1102 1.12523 0.236528 0.0907403 -0.0213548 0.60121 0.00527063 -0.156478 -0.197804 0.540246 0.0236936 0.23464 0.0262799 -0.884215 0.16971 0.191182 0.645721 0.0416749 -0.231589 -0.10352 0.108133 0.860837 0.968041 -1.04611 0.274786 0.384023 0.306964 0.0273124
869 0.0108014 -0.0160606 -0.145907 0.290632 -0.039716 -0.278491 -0.0110565 0.0274446 0.203494 0.0418631 0.0643148 -0.283855 0.113813 0.0511363 -0.162186 -0.144981 0.0726121 0.545433 0.0161639 -0.144639 0.154747 -0.400325 0.0491353 -0.126712 0.0328078 -0.0338165 -1.28493 2.07658 -1.50534 0.730377 0.075385 -0.0309475 0.255089 0.460754 -0.32692 0.417267 -1.02296 1.50666 -0.103227 -0.131 -0.430852 0.592529 0.0587759 -0.0410132 -0.0843673 0.460622 -0.00591429 0.113365 -0.00982358 -1.02791 0.47314 0.230532 0.786107 0.215859 -0.0736687 -0.119091 0.276099 0.942215 1.36656 -1.52314 0.469748 0.155311 0.622073 -0.292808
698 -0.173881 0.0399725 -0.0281767 -0.118749 -0.115659 0.233336 -0.017148 -0.14483 -0.132446 -0.0745945 -0.0061465 -0.109672 0.0189468 0.156873 0.0760028 0.135885 0.0804195 0.236639 0.208017 -0.12392 -0.221979 -0.173846 0.263247 -0.0327801 -0.165031 -0.278095 0.0540892 2.02558 -1.39019 0.516432 0.376433 -0.121061 -0.112222 0.588276 -0.184611 0.15039 -1.15377 1.22818 0.0515912 -0.0238164 -0.145336 0.502266 0.0290219 -0.0742626 -0.276386 0.437508 -0.042979 0.43682 0.13414 -0.732978 0.424859 0.217731 0.595088 0.113273 -0.151922 -0.557414 0.111366 0.761491 1.05006 -1.33375 0.526435 0.498871 0.466469 0.116693
879 -0.275947 0.10867 -0.0628927 0.20279 -0.0406065 -0.0413783 -0.0128259 0.00266592 0.359574 -0.0830237 -0.0161929 -0.242003 -0.0522666 0.149965 0.0985918 -0.00146771 -0.178436 0.364015 -0.0139511 -0.382515 0.231961 0.100068 0.525624 0.0198464 0.186954 -0.156914 -0.265108 2.72672 -1.54558 1.04985 0.111614 -0.0900786 0.205009 0.618724 -0.146264 0.201504 -1.52788 1.43456 0.170347 0.160848 -0.5126 0.471818 0.239563 -0.0871137 -0.228223 0.575849 0.321822 0.321909 0.0494642 -1.21054 0.471126 0.451278 0.999494 0.26708 -0.318575 -0.315357 0.086712 1.01695 1.49406 -1.68777 0.701037 0.498573 0.529708 0.303357
697 -0.109103 -0.00648978 -0.0370127 0.120739 -0.00617504 -0.0309128 0.201556 -0.0584155 -0.0416043 0.0558424 0.0584619 -0.238695 0.143497 0.166587 -0.106386 -0.000203467 0.265766 0.0045367 -0.133796 -0.342393 -0.121858 0.234322 0.240922 -0.250685 0.172561 -0.161141 -0.352123 2.08332 -1.15292 0.825796 0.270702 -0.142989 -0.029442 0.723502 -0.218839 0.117836 -0.889851 1.28167 -0.0373763 0.154783 -0.45967 0.461122 0.0917367 -0.0585082 -0.060378 0.57067 0.0750283 0.297949 0.0548746 -0.955232 0.384805 0.25545 0.782296 0.0795001 -0.19085 -0.0334763 -0.00526035 0.636893 1.03489 -1.38577 0.643135 0.21779 -0.031207 -0.288623
241 -0.00339961 0.0759012 -0.118298 0.0949246 0.115676 0.0569729 -0.0325743 -0.10142 0.115308 -0.044934 0.217452 -0.0245415 0.0273838 0.0548597 -0.186016 0.0247542 0.499345 0.0147193 -0.113361 -0.313537 -0.243732 0.103526 0.247337 -0.397522 -0.385616 -0.171149 -0.299813 1.88748 -0.870835 0.763027 0.1938 -0.403982 -0.176474 0.680916 -0.111782 0.0892053 -1.26676 1.0937 0.0959729 0.202568 -0.327029 0.62719 0.0976764 -0.0861809 -0.411698 0.602314 -0.151036 0.200838 0.305097 -0.614186 0.264364 0.129048 0.807516 -0.143598 -0.244395 0.0109101 -0.130225 0.66675 1.00855 -1.22125 0.630323 0.156225 -0.045184 -0.265279
303 -0.027625 -0.103037 0.0178771 0.0762333 -0.0598691 0.0498609 -0.0121176 -0.0335017 0.166725 0.0302595 0.33167 -0.122017 0.106924 0.102158 0.0255132 -0.255836 0.402878 0.115 0.0137186 -0.390966 -0.0964242 0.232867 0.382416 -0.359427 -0.134555 -0.319868 -0.210841 1.8516 -0.911226 0.724432 -0.0122763 -0.269227 -0.30944 0.504995 -0.141806 0.119186 -1.14525 1.05877 0.0429702 0.103564 -0.314816 0.435754 -0.0354419 -0.108499 -0.303524 0.299147 -0.00653316 0.212876 0.324035 -0.820604 0.383265 0.172027 0.815268 0.1764 -0.236647 -0.151235 0.00145703 0.700321 0.871217 -1.24925 0.515675 0.207366 -0.00159964 -0.368685
640 -0.00341727 -0.053893 -0.0836924 0.0695801 -0.011677 -0.119104 0.036604 -0.10195 0.174631 -0.175342 0.239583 -0.0483769 0.0910738 0.136757 -0.0300187 0.132583 0.499376 0.0505222 -0.0685594 -0.276596 -0.0228011 0.295916 0.313746 -0.277274 -0.0250847 -0.162552 -0.312249 2.10179 -1.1403 0.851271 0.234542 -0.434646 -0.00144972 0.523527 -0.175764 0.22995 -1.1904 1.18694 -0.129625 0.0443679 -0.170329 0.566173 0.0726398 -0.0883383 -0.350613 0.38813 -0.0352255 0.154408 0.164542 -1.02714 0.316919 0.273693 0.910668 0.254205 -0.106656 -0.169521 0.035992 0.841718 1.08502 -1.429 0.631605 0.0822979 0.0333993 -0.421486
892 -0.184689 -0.0611847 -0.001398 0.139346 -0.189648 -0.201501 0.173408 -0.139593 0.206961 -0.0107429 0.465958 -0.402534 0.0547959 0.0194109 -0.108538 -0.0494088 -0.121803 -0.0533406 -0.0535633 0.52273 0.235893 0.283371 0.00254798 0.0785806 0.597486 -0.196628 -0.775657 2.01226 -1.2815 0.996127 0.0717937 -0.0455038 0.188856 0.243553 -0.21807 -0.0111024 -1.08419 1.13061 0.0290998 -0.148147 -0.0997768 0.551673 0.139838 -0.162405 0.0409494 0.477519 -0.236253 0.226793 0.400768 -0.825577 0.562959 0.42332 0.960571 -0.00278937 0.115882 0.103593 0.106095 1.07537 1.00034 -1.70933 0.538823 0.342718 -0.370461 -0.496814
173 0.09614 0.152317 0.0881654 0.110141 -0.0527472 0.0162173 0.0171901 -0.149642 0.00120206 0.0350674 0.245604 -0.0715993 -0.0484391 0.078412 -0.00716902 -0.111484 0.33917 0.141904 -0.0351733 -0.350137 -0.43735 0.103244 0.25971 -0.327831 -0.222325 -0.270676 -0.322789 1.8306 -0.764638 0.738957 0.193732 -0.267951 -0.0429136 0.515818 -0.0950376 0.26064 -1.10665 0.947228 -0.0224351 0.293956 -0.236557 0.399838 0.00800198 -0.0431078 -0.184023 0.428899 -0.0983424 0.185742 0.321123 -0.744155 0.217686 0.136366 0.712997 0.257223 -0.336203 0.0318422 0.0471495 0.583684 0.788013 -1.09753 0.538809 0.231221 -0.239092 -0.274887
494 -0.0991448 0.0442398 0.0421315 0.167437 -0.0667552 -0.0955927 -0.0612164 -0.138657 0.184165 -0.0445931 -0.415027 0.270279 0.0562 0.104719 0.00667521 -0.176876 -0.0452453 0.243887 -0.12548 -0.313384 -0.0722601 -0.151851 -0.0495289 -0.325648 -0.113035 -0.47744 -0.296019 2.07869 -0.947214 0.738819 0.309171 -0.28056 -0.276986 0.672458 -0.107139 0.161074 -0.930867 1.05208 0.189491 0.289685 -0.345708 0.640011 -0.0819573 -0.0162816 -0.113538 0.309921 -0.311944 0.101561 0.285265 -0.751551 0.370231 -0.0250227 0.840705 0.0607658 -0.243081 -0.261783 0.109958 0.646815 0.995547 -1.34698 0.460481 0.291209 0.127327 -0.178693
520 0.0237342 -0.0532152 -0.186758 0.00836976 -0.0524021 -0.00860683 -0.00407845 -0.0148117 0.0112653 -0.138427 -0.251234 -0.102154 0.151498 0.19393 -0.0644217 -0.112711 -0.145041 0.218849 -0.347368 -0.389287 -0.0287227 -0.164269 -0.0512673 -0.507405 0.134113 -0.590612 -0.572354 2.13116 -1.18916 0.854313 0.321934 -0.237801 -0.289236 0.619882 -0.0992001 0.220983 -1.21233 1.21332 -0.0902997 0.218412 -0.21362 0.665388 -0.119581 0.030654 -0.248284 0.404749 -0.305293 -0.155761 0.348201 -1.05163 0.360881 0.138978 0.761329 -0.123076 -0.319008 -0.155733 0.0692009 0.798198 1.20065 -1.40513 0.460413 0.357647 0.130459 -0.184882
718 -0.176301 -0.170281 -0.157213 -0.0527878 -0.0828812 0.0026173 0.100054 0.0330407 0.11163 0.149705 -0.0525579 0.114419 -0.0135667 0.101571 -0.0638421 -0.0944728 0.0371923 -0.0729086 -0.188021 -0.192581 -0.126962 0.110575 -0.0425454 -0.228914 0.240572 -0.650874 -0.605224 1.98768 -1.22116 0.848008 0.317695 -0.408839 -0.239658 0.712288 -0.161483 0.239959 -1.08034 1.20418 -0.325321 0.238117 -0.403348 0.530092 -0.13751 -0.0137513 -0.260214 0.418931 -0.397081 -0.138802 0.42239 -0.727178 0.502729 0.210337 0.771377 -0.140078 -0.0491697 -0.127589 -0.00938732 0.728817 1.0146 -1.58669 0.564424 0.305321 0.0913399 -0.292697
955 -0.202827 0.130681 -0.0724981 0.041338 -0.233511 -0.0530926 -0.00100679 -0.158115 -0.00231265 -0.082418 0.131792 -0.329419 0.146772 -0.0999468 0.0386655 -0.0379579 -0.201946 -0.0696841 0.141955 0.330383 0.181182 0.204939 -0.0838486 0.0674567 0.307375 -0.153535 -0.568184 2.02258 -1.17806 0.798753 -0.0179345 -0.0110508 0.258565 0.306978 -0.317599 0.0504836 -1.05041 0.94005 0.0867361 0.0499178 -0.195629 0.559234 -0.0272814 0.0641196 -0.17652 0.534015 -0.0875202 0.0672204 0.0857524 -0.902223 0.499748 0.22836 0.757491 0.074535 -0.0717421 -0.137953 0.0574755 0.922027 1.25249 -1.52153 0.441573 0.110185 0.247064 -0.208971
265 0.128657 -0.0164127 -0.11382 0.00574192 -0.011141 0.0599843 0.0654005 -0.0870104 0.0188369 -0.0340583 0.24628 -0.0967117 -0.019026 0.118034 -0.00779104 -0.079652 0.501894 0.178785 -0.107566 -0.513407 -0.152248 0.21238 0.159498 -0.40282 -0.312866 -0.172515 -0.382172 2.0639 -0.941001 0.81517 0.2432 -0.424215 -0.220897 0.636275 -0.193985 0.224206 -1.27797 1.24396 -0.0271023 0.253285 -0.259817 0.386546 -0.0146164 0.0202317 -0.335516 0.52163 -0.0111037 0.163516 0.114464 -0.911277 0.293831 0.185461 0.668773 0.017995 -0.371967 0.0725082 -0.0108726 0.83362 0.87227 -1.42238 0.599679 0.214844 -0.0845387 -0.333755
